{"learner":{"attributes":{"best_iteration":"99","best_ntree_limit":"100","scikit_learn":"{\"use_label_encoder\": null, \"n_estimators\": 100, \"objective\": \"binary:logistic\", \"max_depth\": null, \"max_leaves\": null, \"max_bin\": null, \"grow_policy\": null, \"learning_rate\": null, \"verbosity\": null, \"booster\": null, \"tree_method\": null, \"gamma\": null, \"min_child_weight\": null, \"max_delta_step\": null, \"subsample\": null, \"sampling_method\": null, \"colsample_bytree\": null, \"colsample_bylevel\": null, \"colsample_bynode\": null, \"reg_alpha\": null, \"reg_lambda\": null, \"scale_pos_weight\": null, \"base_score\": null, \"missing\": NaN, \"num_parallel_tree\": null, \"random_state\": null, \"n_jobs\": null, \"monotone_constraints\": null, \"interaction_constraints\": null, \"importance_type\": null, \"gpu_id\": null, \"validate_parameters\": null, \"predictor\": null, \"enable_categorical\": false, \"feature_types\": null, \"max_cat_to_onehot\": null, \"max_cat_threshold\": null, \"eval_metric\": null, \"early_stopping_rounds\": null, \"callbacks\": null, \"classes_\": [0, 1], \"n_classes_\": 2, \"_estimator_type\": \"classifier\"}"},"feature_names":["SampleNameSimilarity","LocationSimilarity","AuthorOverlap"],"feature_types":["float","int","int"],"gradient_booster":{"model":{"gbtree_model_param":{"num_parallel_tree":"1","num_trees":"100","size_leaf_vector":"0"},"tree_info":[0,0,0,0,0,0,0,0,0,0,0,0,0,0,0,0,0,0,0,0,0,0,0,0,0,0,0,0,0,0,0,0,0,0,0,0,0,0,0,0,0,0,0,0,0,0,0,0,0,0,0,0,0,0,0,0,0,0,0,0,0,0,0,0,0,0,0,0,0,0,0,0,0,0,0,0,0,0,0,0,0,0,0,0,0,0,0,0,0,0,0,0,0,0,0,0,0,0,0,0],"trees":[{"base_weights":[-6.96793E-1,-1.9904535E0,1.32342E0,2.9166666E-1,1.8742857E0,1.1304348E0,-1.7322835E-1,1E0,1.9041916E0,1.0526316E-1,1.4074074E0,-1.4716982E0,7.1794873E-1,1.8181819E-1,-0E0,-1.7333333E0,-9.62963E-1,9.508197E-1,-9.52381E-2,5.714286E-1,1.4782609E0],"categories":[],"categories_nodes":[],"categories_segments":[],"categories_sizes":[],"default_left":[1,0,1,1,1,1,1,0,0,1,0,1,1,0,0,0,0,1,0,0,0],"id":0,"left_children":[1,-1,3,5,7,9,11,-1,-1,13,-1,15,17,-1,-1,-1,-1,19,-1,-1,-1],"loss_changes":[8.990544E2,0E0,7.5897415E1,1.89129E1,3.8363647E-1,4.749893E0,3.779664E1,0E0,0E0,3.8277514E-2,0E0,9.447861E-2,3.7832222E0,0E0,0E0,0E0,0E0,2.2069035E0,0E0,0E0,0E0],"parents":[2147483647,0,0,2,2,3,3,4,4,5,5,6,6,9,9,11,11,12,12,17,17],"right_children":[2,-1,4,6,8,10,12,-1,-1,14,-1,16,18,-1,-1,-1,-1,20,-1,-1,-1],"split_conditions":[5E-1,-5.971361E-1,8.301436E-1,6.8333334E-1,8.4962404E-1,5E-1,7.9130435E-1,3E-1,5.7125753E-1,4.8076922E-1,4.2222223E-1,7.434211E-1,5E-1,5.454546E-2,-0E0,-5.2000004E-1,-2.888889E-1,8.090909E-1,-2.857143E-2,1.7142859E-1,4.434783E-1],"split_indices":[1,0,0,0,0,2,0,0,0,0,0,0,2,0,0,0,0,0,0,0,0],"split_type":[0,0,0,0,0,0,0,0,0,0,0,0,0,0,0,0,0,0,0,0,0],"sum_hessian":[3.42E2,2.085E2,1.335E2,4.7E1,8.65E1,1.625E1,3.075E1,4E0,8.25E1,3.75E0,1.25E1,1.225E1,1.85E1,1.75E0,2E0,6.5E0,5.75E0,1.425E1,4.25E0,9.5E0,4.75E0],"tree_param":{"num_deleted":"0","num_feature":"3","num_nodes":"21","size_leaf_vector":"0"}},{"base_weights":[-5.3228855E-1,-1.5423093E0,1.0027764E0,2.1627857E-1,1.4429297E0,8.501342E-1,-1.3327998E-1,7.755369E-1,1.4667222E0,8.5195735E-2,1.0648359E0,-1.144214E0,5.4282403E-1,1.4718561E-1,-0E0,5.895535E-1,1.233162E0,-1.3692952E0,-7.313903E-1,7.2237676E-1,-7.21222E-2,4.1948E-1,1.1635509E0],"categories":[],"categories_nodes":[],"categories_segments":[],"categories_sizes":[],"default_left":[1,0,1,1,1,1,1,0,0,1,1,1,1,0,0,0,0,0,0,1,0,0,0],"id":1,"left_children":[1,-1,3,5,7,9,11,-1,-1,13,15,17,19,-1,-1,-1,-1,-1,-1,21,-1,-1,-1],"loss_changes":[4.9399677E2,0E0,4.3532684E1,1.0443476E1,1.4918518E-1,2.6532526E0,2.1751352E1,0E0,0E0,2.5079176E-2,3.0974007E-1,1.796341E-1,2.1724677E0,0E0,0E0,0E0,0E0,0E0,0E0,1.5102787E0,0E0,0E0,0E0],"parents":[2147483647,0,0,2,2,3,3,4,4,5,5,6,6,9,9,10,10,11,11,12,12,19,19],"right_children":[2,-1,4,6,8,10,12,-1,-1,14,16,18,20,-1,-1,-1,-1,-1,-1,22,-1,-1,-1],"split_conditions":[5E-1,-4.626928E-1,8.301436E-1,6.8333334E-1,8.4962404E-1,5E-1,7.9130435E-1,2.3266108E-1,4.400167E-1,4.8076922E-1,4.4505495E-1,7.434211E-1,5E-1,4.4155683E-2,-0E0,1.7686605E-1,3.6994863E-1,-4.107886E-1,-2.194171E-1,8.090909E-1,-2.1636661E-2,1.25844E-1,3.4906527E-1],"split_indices":[1,0,0,0,0,2,0,0,0,0,0,0,2,0,0,0,0,0,0,0,0,0,0],"split_type":[0,0,0,0,0,0,0,0,0,0,0,0,0,0,0,0,0,0,0,0,0,0,0],"sum_hessian":[3.1661813E2,1.9096495E2,1.2565318E2,4.562267E1,8.003051E1,1.5707745E1,2.9914925E1,3.911333E0,7.611918E1,3.748699E0,1.1959045E1,1.17113495E1,1.8203575E1,1.748699E0,2E0,4.3052564E0,7.653789E0,6.079669E0,5.6316795E0,1.3954443E1,4.249133E0,9.430545E0,4.5238986E0],"tree_param":{"num_deleted":"0","num_feature":"3","num_nodes":"23","size_leaf_vector":"0"}},{"base_weights":[-4.4964984E-1,-1.33812E0,8.2346416E-1,1.7094849E-1,1.2261667E0,6.7918587E-1,-1.079035E-1,8.8351613E-1,1.3021373E0,6.8990864E-2,8.641432E-1,-9.4200975E-1,4.2063752E-1,1.1924379E-1,-0E0,4.6529487E-1,1.0138677E0,-1.1719828E0,-5.6906134E-1,5.64924E-1,-5.462985E-2,3.1054813E-1,9.6947587E-1],"categories":[],"categories_nodes":[],"categories_segments":[],"categories_sizes":[],"default_left":[1,0,1,1,1,1,1,0,0,1,1,1,1,0,0,0,0,0,0,1,0,0,0],"id":2,"left_children":[1,-1,3,5,7,9,11,-1,-1,13,15,17,19,-1,-1,-1,-1,-1,-1,21,-1,-1,-1],"loss_changes":[3.08403E2,0E0,2.9295761E1,6.311036E0,6.5278625E-1,1.7157116E0,1.3306065E1,0E0,0E0,1.6453462E-2,2.4394321E-1,3.3372974E-1,1.307466E0,0E0,0E0,0E0,0E0,0E0,0E0,1.1776128E0,0E0,0E0,0E0],"parents":[2147483647,0,0,2,2,3,3,4,4,5,5,6,6,9,9,10,10,11,11,12,12,19,19],"right_children":[2,-1,4,6,8,10,12,-1,-1,14,16,18,20,-1,-1,-1,-1,-1,-1,22,-1,-1,-1],"split_conditions":[5E-1,-4.01436E-1,8.301436E-1,6.8333334E-1,8.8478255E-1,5E-1,7.9130435E-1,2.6505485E-1,3.9064118E-1,4.8076922E-1,4.4505495E-1,7.434211E-1,5E-1,3.577314E-2,-0E0,1.3958846E-1,3.0416033E-1,-3.5159484E-1,-1.707184E-1,8.090909E-1,-1.6388956E-2,9.3164444E-2,2.9084277E-1],"split_indices":[1,0,0,0,0,2,0,0,0,0,0,0,2,0,0,0,0,0,0,0,0,0,0],"split_type":[0,0,0,0,0,0,0,0,0,0,0,0,0,0,0,0,0,0,0,0,0,0,0],"sum_hessian":[2.7067773E2,1.5939172E2,1.1128602E2,4.301367E1,6.827235E1,1.4730367E1,2.8283306E1,1.4681951E1,5.3590397E1,3.745745E0,1.0984622E1,1.0667044E1,1.7616262E1,1.7457448E0,2E0,4.1192093E0,6.865412E0,5.27303E0,5.394014E0,1.3368938E1,4.247323E0,9.293172E0,4.0757666E0],"tree_param":{"num_deleted":"0","num_feature":"3","num_nodes":"23","size_leaf_vector":"0"}},{"base_weights":[-3.9574778E-1,-1.2223524E0,6.959121E-1,1.7035274E-1,1.1177197E0,5.5137575E-1,-1.5887516E-2,7.787797E-1,1.1730624E0,5.5887293E-2,7.15681E-1,-7.944035E-1,3.6869934E-1,9.664951E-2,-0E0,3.6842927E-1,8.582603E-1,-1.0416893E0,-4.464578E-1,4.7255075E-1,-4.1383103E-2,2.303409E-1,7.202262E-1],"categories":[],"categories_nodes":[],"categories_segments":[],"categories_sizes":[],"default_left":[1,0,1,1,1,1,1,0,0,1,1,1,1,0,0,0,0,0,0,1,0,0,0],"id":3,"left_children":[1,-1,3,5,7,9,11,-1,-1,13,15,17,19,-1,-1,-1,-1,-1,-1,21,-1,-1,-1],"loss_changes":[2.0396375E2,0E0,2.1452808E1,3.1771388E0,9.902954E-2,1.155683E0,9.563183E0,0E0,0E0,1.0802958E-2,2.2567797E-1,4.4308758E-1,9.312432E-1,0E0,0E0,0E0,0E0,0E0,0E0,8.636441E-1,0E0,0E0,0E0],"parents":[2147483647,0,0,2,2,3,3,4,4,5,5,6,6,9,9,10,10,11,11,12,12,19,19],"right_children":[2,-1,4,6,8,10,12,-1,-1,14,16,18,20,-1,-1,-1,-1,-1,-1,22,-1,-1,-1],"split_conditions":[5E-1,-3.6670572E-1,8.4962404E-1,6.8333334E-1,8.8478255E-1,5E-1,7.9130435E-1,2.3363392E-1,3.5191876E-1,4.8076922E-1,4.4505495E-1,7.434211E-1,5E-1,2.8994855E-2,-0E0,1.1052879E-1,2.574781E-1,-3.125068E-1,-1.3393734E-1,8.090909E-1,-1.2414931E-2,6.910227E-2,2.1606788E-1],"split_indices":[1,0,0,0,0,2,0,0,0,0,0,0,2,0,0,0,0,0,0,0,0,0,0],"split_type":[0,0,0,0,0,0,0,0,0,0,0,0,0,0,0,0,0,0,0,0,0,0,0],"sum_hessian":[2.240882E2,1.274576E2,9.663059E1,4.3649055E1,5.2981537E1,1.36869E1,2.9962156E1,9.552205E0,4.3429333E1,3.7421124E0,9.944788E0,9.554817E0,2.040734E1,1.7421123E0,2E0,3.937947E0,6.0068407E0,4.419816E0,5.135001E0,1.6162048E1,4.245291E0,9.1469555E0,7.015092E0],"tree_param":{"num_deleted":"0","num_feature":"3","num_nodes":"23","size_leaf_vector":"0"}},{"base_weights":[-3.5480687E-1,-1.1491897E0,5.927684E-1,1.3373397E-1,1.0182767E0,4.4959137E-1,-1.9815624E-2,7.738566E-1,1.1309003E0,4.5282356E-2,5.9625244E-1,-6.762993E-1,2.8547183E-1,7.8354955E-2,-0E0,2.9155502E-1,7.344097E-1,-9.440242E-1,-3.5059723E-1,3.6966652E-1,-3.134888E-2,9.09702E-1,3.5567653E-1,1.706954E-1,5.912758E-1],"categories":[],"categories_nodes":[],"categories_segments":[],"categories_sizes":[],"default_left":[1,0,1,1,1,1,1,0,0,1,1,1,1,0,0,0,1,0,0,1,0,0,0,0,0],"id":4,"left_children":[1,-1,3,5,7,9,11,-1,-1,13,15,17,19,-1,-1,-1,21,-1,-1,23,-1,-1,-1,-1,-1],"loss_changes":[1.3927911E2,0E0,1.6393236E1,2.0391324E0,3.2959747E-1,7.874577E-1,6.0302086E0,0E0,0E0,7.0961947E-3,2.0671415E-1,5.010562E-1,5.6064105E-1,0E0,0E0,0E0,8.93724E-2,0E0,0E0,6.195638E-1,0E0,0E0,0E0,0E0,0E0],"parents":[2147483647,0,0,2,2,3,3,4,4,5,5,6,6,9,9,10,10,11,11,12,12,16,16,19,19],"right_children":[2,-1,4,6,8,10,12,-1,-1,14,16,18,20,-1,-1,-1,22,-1,-1,24,-1,-1,-1,-1,-1],"split_conditions":[5E-1,-3.4475693E-1,8.4962404E-1,6.8333334E-1,9.282297E-1,5E-1,7.9130435E-1,2.3215698E-1,3.3927009E-1,4.8076922E-1,4.4505495E-1,7.434211E-1,5E-1,2.3506487E-2,-0E0,8.746651E-2,4.8076922E-1,-2.8320727E-1,-1.05179176E-1,8.090909E-1,-9.404665E-3,2.7291062E-1,1.0670296E-1,5.120862E-2,1.7738275E-1],"split_indices":[1,0,0,0,0,2,0,0,0,0,0,0,2,0,0,0,0,0,0,0,0,0,0,0,0],"split_type":[0,0,0,0,0,0,0,0,0,0,0,0,0,0,0,0,0,0,0,0,0,0,0,0,0],"sum_hessian":[1.8312514E2,9.9499084E1,8.362606E1,4.086047E1,4.276559E1,1.2735359E1,2.8125109E1,1.5972526E1,2.6793064E1,3.738361E0,8.996999E0,8.541774E0,1.9583336E1,1.7383609E0,2E0,3.777114E0,5.219885E0,3.6461961E0,4.8955774E0,1.5339961E1,4.2433743E0,2.6099424E0,2.6099424E0,9.0155945E0,6.3243666E0],"tree_param":{"num_deleted":"0","num_feature":"3","num_nodes":"25","size_leaf_vector":"0"}},{"base_weights":[-3.182855E-1,-1.0995017E0,5.049159E-1,1.0765788E-1,9.3497795E-1,3.7520093E-1,-2.2613019E-2,5.364361E-1,1.0160809E0,2.3462367E-1,7.974747E-1,-5.7720196E-1,2.2064708E-1,4.5149696E-1,-3.45123E-1,-8.6398107E-1,-2.746406E-1,2.8843948E-1,-2.3746807E-2,1.565696E-1,7.585122E-1,-1.07433E-1,-3.153774E-1,1.2625071E-1,4.8416346E-1],"categories":[],"categories_nodes":[],"categories_segments":[],"categories_sizes":[],"default_left":[1,0,1,1,1,1,1,0,0,1,0,1,1,1,0,0,1,1,0,0,0,0,0,0,0],"id":5,"left_children":[1,-1,3,5,7,9,11,-1,-1,13,-1,15,17,19,-1,-1,21,23,-1,-1,-1,-1,-1,-1,-1],"loss_changes":[9.735082E1,0E0,1.253734E1,1.3880838E0,5.988445E-1,5.857321E-1,3.8460307E0,0E0,0E0,1.5620387E0,0E0,5.159292E-1,3.3627993E-1,6.574726E-1,0E0,0E0,4.876584E-3,4.3541038E-1,0E0,0E0,0E0,0E0,0E0,0E0,0E0],"parents":[2147483647,0,0,2,2,3,3,4,4,5,5,6,6,9,9,11,11,12,12,13,13,16,16,17,17],"right_children":[2,-1,4,6,8,10,12,-1,-1,14,-1,16,18,20,-1,-1,22,24,-1,-1,-1,-1,-1,-1,-1],"split_conditions":[5E-1,-3.2985052E-1,8.4962404E-1,6.8333334E-1,8.8478255E-1,6.066177E-1,7.9130435E-1,1.6093083E-1,3.0482426E-1,4.8076922E-1,2.3924242E-1,7.434211E-1,5E-1,4.4505495E-1,-1.03536904E-1,-2.5919434E-1,5E-1,8.090909E-1,-7.1240426E-3,4.697088E-2,2.2755367E-1,-3.22299E-2,-9.461323E-2,3.7875216E-2,1.4524904E-1],"split_indices":[1,0,0,0,0,0,0,0,0,0,0,0,2,0,0,0,2,0,0,0,0,0,0,0,0],"split_type":[0,0,0,0,0,0,0,0,0,0,0,0,0,0,0,0,0,0,0,0,0,0,0,0,0],"sum_hessian":[1.4951457E2,7.654136E1,7.297321E1,3.858329E1,3.4389927E1,1.201906E1,2.656423E1,7.102468E0,2.7287458E1,1.0184278E1,1.8347826E0,7.6807456E0,1.8883484E1,7.5726833E0,2.6115942E0,2.9905925E0,4.690153E0,1.464178E1,4.241705E0,4.632525E0,2.9401584E0,1.6313577E0,3.0587957E0,8.906424E0,5.7353563E0],"tree_param":{"num_deleted":"0","num_feature":"3","num_nodes":"25","size_leaf_vector":"0"}},{"base_weights":[-2.8519803E-1,-1.0636414E0,4.2601588E-1,8.544862E-2,8.5835654E-1,3.160463E-1,-2.6113417E-2,5.535623E-1,1.0277398E0,1.901314E-1,7.2208077E-1,-4.9668583E-1,1.7002624E-1,5.8174396E-1,1.6800874E-1,3.715332E-1,-2.6719785E-1,-7.943101E-1,-2.21484E-1,2.2411169E-1,-1.798762E-2,1.1998411E-1,6.569625E-1,-8.8354625E-2,-2.5347924E-1,9.318023E-2,3.938718E-1],"categories":[],"categories_nodes":[],"categories_segments":[],"categories_sizes":[],"default_left":[1,0,1,1,1,1,1,1,0,1,0,1,1,0,0,1,0,0,1,1,0,0,0,0,0,0,0],"id":6,"left_children":[1,-1,3,5,7,9,11,13,-1,15,-1,17,19,-1,-1,21,-1,-1,23,25,-1,-1,-1,-1,-1,-1,-1],"loss_changes":[6.893156E1,0E0,9.5487E0,9.772135E-1,9.119644E-1,4.9447095E-1,2.5125973E0,3.7145138E-2,0E0,9.943702E-1,0E0,4.788742E-1,2.0042396E-1,0E0,0E0,5.0587726E-1,0E0,0E0,1.2031198E-3,2.9832405E-1,0E0,0E0,0E0,0E0,0E0,0E0,0E0],"parents":[2147483647,0,0,2,2,3,3,4,4,5,5,6,6,7,7,9,9,11,11,12,12,15,15,18,18,19,19],"right_children":[2,-1,4,6,8,10,12,14,-1,16,-1,18,20,-1,-1,22,-1,-1,24,26,-1,-1,-1,-1,-1,-1,-1],"split_conditions":[5E-1,-3.1909245E-1,8.4962404E-1,6.8333334E-1,9.282297E-1,6.066177E-1,7.9130435E-1,9.045454E-1,3.0832195E-1,4.8076922E-1,2.1662425E-1,7.434211E-1,5E-1,1.7452319E-1,5.0402626E-2,4.4505495E-1,-8.015936E-2,-2.3829304E-1,5E-1,8.090909E-1,-5.396286E-3,3.5995234E-2,1.9708876E-1,-2.6506389E-2,-7.604378E-2,2.795407E-2,1.1816155E-1],"split_indices":[1,0,0,0,0,0,0,0,0,0,0,0,2,0,0,0,0,0,2,0,0,0,0,0,0,0,0],"split_type":[0,0,0,0,0,0,0,0,0,0,0,0,0,0,0,0,0,0,0,0,0,0,0,0,0,0,0],"sum_hessian":[1.226877E2,5.8338764E1,6.434893E1,3.6664715E1,2.768422E1,1.1356996E1,2.5307718E1,1.1413844E1,1.6270374E1,9.789461E0,1.5675342E0,6.9944754E0,1.8313244E1,1.0162194E1,1.2516501E0,7.1435437E0,2.6459177E0,2.4541206E0,4.5403547E0,1.4072927E1,4.240316E0,4.55212E0,2.5914235E0,1.6086006E0,2.931754E0,8.819543E0,5.253384E0],"tree_param":{"num_deleted":"0","num_feature":"3","num_nodes":"27","size_leaf_vector":"0"}},{"base_weights":[-2.5187477E-1,-1.0360713E0,3.5686857E-1,1.12353705E-1,9.019289E-1,2.4134543E-2,2.5732955E-1,5.2871764E-1,9.877664E-1,2.6783413E-1,-1.5488274E-1,1.7746495E-1,3.414272E-1,7.9291177E-1,-5.8024027E-3,1.5496653E-1,6.572781E-1,-7.314484E-1,-2.0918977E-2,3.1782606E-1,-1.3624614E-2,3.0575418E-1,-2.076936E-1,-1.7832005E-1,6.863894E-2,5.3805584E-1,8.325881E-3],"categories":[],"categories_nodes":[],"categories_segments":[],"categories_sizes":[],"default_left":[1,0,1,1,1,1,1,1,0,1,1,1,0,0,0,1,0,0,1,1,0,0,0,0,0,0,0],"id":7,"left_children":[1,-1,3,5,7,9,11,13,-1,15,17,19,-1,-1,-1,21,-1,-1,23,25,-1,-1,-1,-1,-1,-1,-1],"loss_changes":[4.9474796E1,0E0,7.715878E0,5.2625847E-1,5.5088043E-2,1.2188008E0,4.4496894E-2,7.843536E-1,0E0,4.1659606E-1,1.2353082E0,2.7543053E-1,0E0,0E0,0E0,6.351296E-1,0E0,0E0,2.1196094E-1,3.9551473E-1,0E0,0E0,0E0,0E0,0E0,0E0,0E0],"parents":[2147483647,0,0,2,2,3,3,4,4,5,5,6,6,7,7,9,9,10,10,11,11,15,15,18,18,19,19],"right_children":[2,-1,4,6,8,10,12,14,-1,16,18,20,-1,-1,-1,22,-1,-1,24,26,-1,-1,-1,-1,-1,-1,-1],"split_conditions":[5E-1,-3.108214E-1,8.8478255E-1,8.090909E-1,9.282297E-1,6.8333334E-1,8.4962404E-1,5E-1,2.9632992E-1,6.066177E-1,7.434211E-1,5E-1,1.0242817E-1,2.3787354E-1,-1.7407209E-3,4.8076922E-1,1.9718345E-1,-2.1943453E-1,7.9130435E-1,8.301436E-1,-4.0873843E-3,9.172626E-2,-6.2308084E-2,-5.3496018E-2,2.0591684E-2,1.6141675E-1,2.4977645E-3],"split_indices":[1,0,0,0,0,0,0,2,0,0,0,2,0,0,0,0,0,0,0,0,0,0,0,0,0,0,0],"split_type":[0,0,0,0,0,0,0,0,0,0,0,0,0,0,0,0,0,0,0,0,0,0,0,0,0,0,0],"sum_hessian":[1.0186485E2,4.421025E1,5.7654606E1,4.06328E1,1.7021803E1,2.5986341E1,1.464646E1,4.521662E0,1.250014E1,1.0794904E1,1.5191439E1,9.107557E0,5.5389023E0,2.7025027E0,1.8191594E0,9.453138E0,1.3417652E0,2.023305E0,1.3168134E1,4.8683643E0,4.2391934E0,6.7878027E0,2.6653354E0,4.4159093E0,8.752224E0,2.412935E0,2.4554293E0],"tree_param":{"num_deleted":"0","num_feature":"3","num_nodes":"27","size_leaf_vector":"0"}},{"base_weights":[-2.1715845E-1,-1.0132661E0,2.9797155E-1,8.8771775E-2,8.4901434E-1,1.6226778E-2,2.0902988E-1,4.6574014E-1,9.50636E-1,2.1828152E-1,-1.3064227E-1,1.4607793E-1,2.7617997E-1,7.3468596E-1,-4.674096E-3,1.1582187E-1,6.004728E-1,-6.7373407E-1,-1.7347123E-2,2.6630127E-1,-1.0319361E-2,1.3225462E-1,3.8844627E-1,2.3663476E-1,-1.6181414E-1,-1.3818571E-1,5.0477862E-2,4.665146E-1,6.5598586E-3],"categories":[],"categories_nodes":[],"categories_segments":[],"categories_sizes":[],"default_left":[1,0,1,1,1,1,1,1,0,1,1,1,1,0,0,1,0,0,1,1,0,0,0,0,0,0,0,0,0],"id":8,"left_children":[1,-1,3,5,7,9,11,13,-1,15,17,19,21,-1,-1,23,-1,-1,25,27,-1,-1,-1,-1,-1,-1,-1,-1,-1],"loss_changes":[3.5967983E1,0E0,6.100715E0,3.4513396E-1,1.2691402E-1,8.001467E-1,2.2842646E-2,6.3926554E-1,0E0,3.737049E-1,9.5327765E-1,1.8772238E-1,4.7347844E-2,0E0,0E0,3.7925345E-1,0E0,0E0,1.21737346E-1,2.8812918E-1,0E0,0E0,0E0,0E0,0E0,0E0,0E0,0E0,0E0],"parents":[2147483647,0,0,2,2,3,3,4,4,5,5,6,6,7,7,9,9,10,10,11,11,12,12,15,15,18,18,19,19],"right_children":[2,-1,4,6,8,10,12,14,-1,16,18,20,22,-1,-1,24,-1,-1,26,28,-1,-1,-1,-1,-1,-1,-1,-1,-1],"split_conditions":[5E-1,-3.0397984E-1,8.8478255E-1,8.090909E-1,9.282297E-1,6.8333334E-1,8.4962404E-1,5E-1,2.8519082E-1,6.066177E-1,7.434211E-1,5E-1,5E-1,2.204058E-1,-1.4022288E-3,4.8076922E-1,1.8014185E-1,-2.0212023E-1,7.9130435E-1,8.301436E-1,-3.0958087E-3,3.9676387E-2,1.1653388E-1,7.099043E-2,-4.8544243E-2,-4.1455716E-2,1.5143359E-2,1.3995439E-1,1.9679577E-3],"split_indices":[1,0,0,0,0,0,0,2,0,0,0,2,2,0,0,0,0,0,0,0,0,0,0,0,0,0,0,0,0],"split_type":[0,0,0,0,0,0,0,0,0,0,0,0,0,0,0,0,0,0,0,0,0,0,0,0,0,0,0,0,0],"sum_hessian":[8.5969406E1,3.339386E1,5.2575546E1,3.894966E1,1.3625885E1,2.5002176E1,1.3947483E1,4.0257034E0,9.600182E0,1.0319254E1,1.4682922E1,8.8377E0,5.1097836E0,2.2039013E0,1.8218023E0,9.16524E0,1.1540141E0,1.6805103E0,1.3002412E1,4.599398E0,4.2383018E0,3.1936147E0,1.9161688E0,6.489168E0,2.6760721E0,4.301454E0,8.700958E0,2.1477785E0,2.4516194E0],"tree_param":{"num_deleted":"0","num_feature":"3","num_nodes":"29","size_leaf_vector":"0"}},{"base_weights":[-1.8238974E-1,-9.9276584E-1,2.4827702E-1,7.167206E-2,7.955052E-1,1.0405302E-2,1.7359313E-1,4.100916E-1,9.1370595E-1,1.7874032E-1,-1.1073771E-1,1.20603025E-1,2.3116376E-1,6.797374E-1,-3.7649733E-3,-3.908027E-2,3.196577E-1,-6.204773E-1,-1.4264769E-2,2.231888E-1,-7.81598E-3,1.0501334E-1,3.3511916E-1,4.961604E-1,1.3565439E-1,2.8416982E-2,-1.3968717E-1,4.0348595E-1,5.167391E-3],"categories":[],"categories_nodes":[],"categories_segments":[],"categories_sizes":[],"default_left":[1,0,1,1,1,1,1,1,0,1,1,1,1,0,0,0,1,0,1,1,0,0,0,0,0,0,0,0,0],"id":9,"left_children":[1,-1,3,5,7,9,11,13,-1,15,17,19,21,-1,-1,-1,23,-1,25,27,-1,-1,-1,-1,-1,-1,-1,-1,-1],"loss_changes":[2.6384169E1,0E0,4.7464757E0,2.3969765E-1,1.7324114E-1,5.340749E-1,1.6222864E-2,5.200573E-1,0E0,3.481817E-1,7.426886E-1,1.2845837E-1,4.1366607E-2,0E0,0E0,0E0,1.518932E-1,0E0,7.824083E-2,2.0943126E-1,0E0,0E0,0E0,0E0,0E0,0E0,0E0,0E0,0E0],"parents":[2147483647,0,0,2,2,3,3,4,4,5,5,6,6,7,7,9,9,10,10,11,11,12,12,16,16,18,18,19,19],"right_children":[2,-1,4,6,8,10,12,14,-1,16,18,20,22,-1,-1,-1,24,-1,26,28,-1,-1,-1,-1,-1,-1,-1,-1,-1],"split_conditions":[5E-1,-2.9782978E-1,8.8478255E-1,8.090909E-1,9.282297E-1,6.8333334E-1,8.4962404E-1,5E-1,2.741118E-1,4.4505495E-1,7.434211E-1,5E-1,5E-1,2.0392123E-1,-1.1294921E-3,-1.1724082E-2,4.8076922E-1,-1.861432E-1,5E-1,8.301436E-1,-2.344794E-3,3.1504005E-2,1.0053575E-1,1.4884812E-1,4.069632E-2,8.525095E-3,-4.1906152E-2,1.2104579E-1,1.5502174E-3],"split_indices":[1,0,0,0,0,0,0,2,0,0,0,2,2,0,0,0,0,0,2,0,0,0,0,0,0,0,0,0,0],"split_type":[0,0,0,0,0,0,0,0,0,0,0,0,0,0,0,0,0,0,0,0,0,0,0,0,0,0,0,0,0],"sum_hessian":[7.389265E1,2.5189304E1,4.8703342E1,3.7675453E1,1.1027888E1,2.4219017E1,1.3456436E1,3.6373005E0,7.390588E0,9.936393E0,1.4282624E1,8.618513E0,4.837923E0,1.8133659E0,1.8239346E0,4.187032E0,5.74936E0,1.4085529E0,1.2874071E1,4.3809094E0,4.2376037E0,3.093781E0,1.7441423E0,2.0686042E0,3.6807559E0,1.0182392E1,2.6916797E0,1.9322914E0,2.448618E0],"tree_param":{"num_deleted":"0","num_feature":"3","num_nodes":"29","size_leaf_vector":"0"}},{"base_weights":[-1.4962809E-1,-9.727088E-1,2.0521708E-1,5.728781E-2,7.4081343E-1,5.5074655E-3,1.4420862E-1,3.6140797E-1,8.7528116E-1,1.5127182E-1,-1.2784807E-1,9.987704E-2,1.9300935E-1,6.2795967E-1,-3.0337567E-3,-2.15281E-1,4.0226632E-1,2.0689212E-2,-5.9446007E-1,1.8715332E-1,-5.9195017E-3,8.308046E-2,2.8838548E-1,-1.2545909E-2,-5.505083E-1,8.990798E-2,1.0418152E0,-2.1148492E-2,2.9507143E-2,-7.1299064E-1,-1.7619082E-1,3.4808135E-1,4.0698363E-3],"categories":[],"categories_nodes":[],"categories_segments":[],"categories_sizes":[],"default_left":[1,0,1,1,1,1,1,1,0,1,1,1,1,0,0,1,1,1,1,1,0,0,0,0,0,0,0,0,0,0,0,0,0],"id":10,"left_children":[1,-1,3,5,7,9,11,13,-1,15,17,19,21,-1,-1,23,25,27,29,31,-1,-1,-1,-1,-1,-1,-1,-1,-1,-1,-1,-1,-1],"loss_changes":[1.9426338E1,0E0,3.6675053E0,1.692219E-1,1.9639778E-1,4.997086E-1,1.1145741E-2,4.2283803E-1,0E0,1.2150004E0,9.443287E-1,8.828217E-2,3.4978956E-2,0E0,0E0,3.7614897E-1,1.4302782E0,4.7436696E-3,3.7028074E-2,1.519102E-1,0E0,0E0,0E0,0E0,0E0,0E0,0E0,0E0,0E0,0E0,0E0,0E0,0E0],"parents":[2147483647,0,0,2,2,3,3,4,4,5,5,6,6,7,7,9,9,10,10,11,11,12,12,15,15,16,16,17,17,18,18,19,19],"right_children":[2,-1,4,6,8,10,12,14,-1,16,18,20,22,-1,-1,24,26,28,30,32,-1,-1,-1,-1,-1,-1,-1,-1,-1,-1,-1,-1,-1],"split_conditions":[5E-1,-2.9181266E-1,8.8478255E-1,8.090909E-1,9.282297E-1,7.5595236E-1,8.4962404E-1,5E-1,2.6258436E-1,5E-1,5E-1,5E-1,5E-1,1.8838792E-1,-9.1012707E-4,6.166667E-1,6.066177E-1,7.809524E-1,7.7225673E-1,8.301436E-1,-1.7758505E-3,2.492414E-2,8.651565E-2,-3.7637728E-3,-1.651525E-1,2.6972396E-2,3.1254455E-1,-6.344548E-3,8.852144E-3,-2.138972E-1,-5.285725E-2,1.0442441E-1,1.220951E-3],"split_indices":[1,0,0,0,0,0,0,2,0,2,2,2,2,0,0,0,0,0,0,0,0,0,0,0,0,0,0,0,0,0,0,0,0],"split_type":[0,0,0,0,0,0,0,0,0,0,0,0,0,0,0,0,0,0,0,0,0,0,0,0,0,0,0,0,0,0,0,0,0],"sum_hessian":[6.483001E1,1.9005228E1,4.582478E1,3.6774727E1,9.050052E0,2.3712257E1,1.30624695E1,3.3331482E0,5.716903E0,1.12648535E1,1.2447405E1,8.441062E0,4.6214075E0,1.5074965E0,1.8256518E0,4.636292E0,6.628561E0,1.0166689E1,2.2807162E0,4.204001E0,4.237061E0,3.0161397E0,1.6052676E0,3.535535E0,1.1007569E0,5.219779E0,1.4087818E0,1.5263575E0,8.640331E0,1.2280779E0,1.0526382E0,1.7577473E0,2.4462538E0],"tree_param":{"num_deleted":"0","num_feature":"3","num_nodes":"33","size_leaf_vector":"0"}},{"base_weights":[-1.21082E-1,-9.515963E-1,1.6885151E-1,4.4587176E-2,6.8528455E-1,-1.4722519E-4,1.1988906E-1,3.1922096E-1,8.344505E-1,1.2449526E-1,-1.1202486E-1,8.29684E-2,1.6088665E-1,5.7952315E-1,-2.4442854E-3,-1.8807204E-1,3.390885E-1,1.4751758E-2,-5.305435E-1,1.5706511E-1,-4.4832025E-3,6.5535955E-2,2.4765523E-1,-4.2450972E-2,-3.5245356E-1,6.838413E-2,9.21015E-1,-1.7353524E-2,2.1635905E-2,-6.435298E-1,-1.5172684E-1,2.9958767E-1,3.2051327E-3],"categories":[],"categories_nodes":[],"categories_segments":[],"categories_sizes":[],"default_left":[1,0,1,1,1,1,1,1,0,1,1,1,1,0,0,1,1,1,1,1,0,0,0,0,0,0,0,0,0,0,0,0,0],"id":11,"left_children":[1,-1,3,5,7,9,11,13,-1,15,17,19,21,-1,-1,23,25,27,29,31,-1,-1,-1,-1,-1,-1,-1,-1,-1,-1,-1,-1,-1],"loss_changes":[1.4317676E1,0E0,2.8206205E0,1.24255285E-1,2.0035124E-1,3.5050684E-1,7.4581057E-3,3.4422177E-1,0E0,8.612944E-1,7.106017E-1,6.0950063E-2,2.8847769E-2,0E0,0E0,1.1629531E-1,1.1037908E0,2.8373376E-3,3.5319924E-2,1.1001435E-1,0E0,0E0,0E0,0E0,0E0,0E0,0E0,0E0,0E0,0E0,0E0,0E0,0E0],"parents":[2147483647,0,0,2,2,3,3,4,4,5,5,6,6,7,7,9,9,10,10,11,11,12,12,15,15,16,16,17,17,18,18,19,19],"right_children":[2,-1,4,6,8,10,12,14,-1,16,18,20,22,-1,-1,24,26,28,30,32,-1,-1,-1,-1,-1,-1,-1,-1,-1,-1,-1,-1,-1],"split_conditions":[5E-1,-2.8547892E-1,8.8478255E-1,8.090909E-1,9.282297E-1,7.5595236E-1,8.4962404E-1,5E-1,2.5033516E-1,5E-1,5E-1,5E-1,5E-1,1.7385694E-1,-7.332857E-4,5.1666665E-1,6.066177E-1,7.809524E-1,7.7225673E-1,8.301436E-1,-1.3449608E-3,1.9660788E-2,7.429657E-2,-1.2735292E-2,-1.0573607E-1,2.051524E-2,2.763045E-1,-5.2060573E-3,6.4907717E-3,-1.9305894E-1,-4.5518056E-2,8.98763E-2,9.6153986E-4],"split_indices":[1,0,0,0,0,0,0,2,0,2,2,2,2,0,0,0,0,0,0,0,0,0,0,0,0,0,0,0,0,0,0,0,0],"split_type":[0,0,0,0,0,0,0,0,0,0,0,0,0,0,0,0,0,0,0,0,0,0,0,0,0,0,0,0,0,0,0,0,0],"sum_hessian":[5.7793E1,1.4364313E1,4.3428684E1,3.588126E1,7.547426E0,2.3135345E1,1.2745913E1,3.0941658E0,4.4532604E0,1.0890026E1,1.224532E1,8.297385E0,4.4485273E0,1.2671288E0,1.8270371E0,4.4833536E0,6.4066725E0,1.0138841E1,2.1064796E0,4.060743E0,4.2366424E0,2.9557383E0,1.4927889E0,3.0445325E0,1.4388211E0,5.135309E0,1.2713631E0,1.5216403E0,8.617201E0,1.0842891E0,1.0221906E0,1.6163508E0,2.4443922E0],"tree_param":{"num_deleted":"0","num_feature":"3","num_nodes":"33","size_leaf_vector":"0"}},{"base_weights":[-9.519142E-2,-9.2819154E-1,1.3948378E-1,3.5342228E-2,6.2988055E-1,1.208536E-1,5.042476E-3,2.829306E-1,7.910001E-1,-5.6555454E-2,2.6982975E-1,-4.4298163E-1,5.2484613E-2,5.346315E-1,-1.9689107E-3,4.182118E-1,7.1578436E-2,1.4207932E-3,9.9781856E-2,-2.7010534E-2,1.5854012E-2,6.91306E-2,1.3398518E-1],"categories":[],"categories_nodes":[],"categories_segments":[],"categories_sizes":[],"default_left":[1,0,1,1,1,1,1,1,0,0,1,0,1,0,0,0,0,1,1,0,0,0,0],"id":12,"left_children":[1,-1,3,5,7,9,11,13,-1,-1,15,-1,17,-1,-1,-1,-1,19,21,-1,-1,-1,-1],"loss_changes":[1.0589376E1,0E0,2.1541662E0,9.321147E-2,1.901629E-1,2.6450008E-1,6.1372787E-1,2.8109685E-1,0E0,0E0,1.2595057E-1,0E0,6.268765E-2,0E0,0E0,0E0,0E0,5.9776935E-3,4.8809797E-3,0E0,0E0,0E0,0E0],"parents":[2147483647,0,0,2,2,3,3,4,4,5,5,6,6,7,7,10,10,12,12,17,17,18,18],"right_children":[2,-1,4,6,8,10,12,14,-1,-1,16,-1,18,-1,-1,-1,-1,20,22,-1,-1,-1,-1],"split_conditions":[5E-1,-2.7845746E-1,8.8478255E-1,5.6078434E-1,9.282297E-1,4.4505495E-1,7.434211E-1,5E-1,2.3730005E-1,-1.6966637E-2,4.8076922E-1,-1.328945E-1,8.090909E-1,1.6038945E-1,-5.9067324E-4,1.2546355E-1,2.147353E-2,7.9130435E-1,8.4962404E-1,-8.10316E-3,4.756204E-3,2.0739181E-2,4.0195554E-2],"split_indices":[1,0,0,0,0,0,0,2,0,0,0,0,0,0,0,0,0,0,0,0,0,0,0],"split_type":[0,0,0,0,0,0,0,0,0,0,0,0,0,0,0,0,0,0,0,0,0,0,0],"sum_hessian":[5.250762E1,1.0891625E1,4.1615993E1,3.5210663E1,6.405332E0,8.430283E0,2.678038E1,2.9052613E0,3.5000708E0,4.131106E0,4.299177E0,1.7659708E0,2.5014408E1,1.0771061E0,1.8281552E0,1.8242822E0,2.4748948E0,1.252356E1,1.24908495E1,3.9234748E0,8.600085E0,8.180802E0,4.3100467E0],"tree_param":{"num_deleted":"0","num_feature":"3","num_nodes":"23","size_leaf_vector":"0"}},{"base_weights":[-7.3632225E-2,-9.0150714E-1,1.1421824E-1,4.9430504E-2,7.4532944E-1,1.3284455E-2,1.876526E-1,1.0933945E-1,-3.9493613E-2,2.8838497E-1,3.9096563E-3,-1.592863E-1,2.8993678E-1,-3.1716985E-1,3.2563448E-2,2.269878E-2,6.05095E-1,-5.552453E-2,-2.7420825E-1,3.9701972E-2,8.2855594E-1,-9.38549E-3,-4.7206473E-1,5.0655127E-2,-2.0165564E-2],"categories":[],"categories_nodes":[],"categories_segments":[],"categories_sizes":[],"default_left":[1,0,1,1,0,1,1,1,1,1,0,1,1,1,1,0,0,0,0,0,0,0,0,0,0],"id":13,"left_children":[1,-1,3,5,-1,7,9,11,13,15,-1,17,19,21,23,-1,-1,-1,-1,-1,-1,-1,-1,-1,-1],"loss_changes":[7.826801E0,0E0,1.6546197E0,1.9029787E-1,0E0,1.648454E-1,1.4551678E-1,6.037949E-1,4.3392152E-1,4.157168E-1,0E0,4.757239E-2,9.412734E-1,2.079575E-1,1.7921446E-2,0E0,0E0,0E0,0E0,0E0,0E0,0E0,0E0,0E0,0E0],"parents":[2147483647,0,0,2,2,3,3,5,5,6,6,7,7,8,8,9,9,11,11,12,12,13,13,14,14],"right_children":[2,-1,4,6,-1,8,10,12,14,16,-1,18,20,22,24,-1,-1,-1,-1,-1,-1,-1,-1,-1,-1],"split_conditions":[5E-1,-2.7045214E-1,9.282297E-1,8.4962404E-1,2.2359884E-1,7.5595236E-1,8.63354E-1,5E-1,7.9130435E-1,5E-1,1.1728969E-3,5.1666665E-1,6.066177E-1,5E-1,5E-1,6.8096346E-3,1.8152851E-1,-1.665736E-2,-8.226248E-2,1.1910592E-2,2.4856679E-1,-2.815647E-3,-1.4161943E-1,1.51965385E-2,-6.04967E-3],"split_indices":[1,0,0,0,0,0,0,2,0,2,0,0,0,2,2,0,0,0,0,0,0,0,0,0,0],"split_type":[0,0,0,0,0,0,0,0,0,0,0,0,0,0,0,0,0,0,0,0,0,0,0,0,0],"sum_hessian":[4.8665615E1,8.297717E0,4.0367897E1,3.7587605E1,2.7802932E0,3.0664684E1,6.9229207E0,1.0494048E1,2.0170635E1,4.10368E0,2.8192406E0,4.266272E0,6.2277756E0,3.4549868E0,1.6715649E1,2.8143823E0,1.289298E0,3.0214174E0,1.2448549E0,4.985359E0,1.2424164E0,1.5117173E0,1.9432696E0,1.2474794E1,4.2408543E0],"tree_param":{"num_deleted":"0","num_feature":"3","num_nodes":"25","size_leaf_vector":"0"}},{"base_weights":[-5.5595484E-2,-8.708563E-1,9.510718E-2,1.7645838E-2,5.347338E-1,1.04747824E-1,-1.2980446E-2,2.5118586E-1,6.9829327E-1,-4.697758E-2,2.3670673E-1,-4.3373415E-1,3.0321697E-2,3.6015517E-1,7.3323734E-2,2.3358697E-3,5.6543745E-2,4.364749E-2,-1.3111588E-2,7.586656E-2,2.4651183E-2],"categories":[],"categories_nodes":[],"categories_segments":[],"categories_sizes":[],"default_left":[1,0,1,1,1,1,1,0,0,0,1,0,1,0,0,1,1,0,0,0,0],"id":14,"left_children":[1,-1,3,5,7,9,11,-1,-1,-1,13,-1,15,-1,-1,17,19,-1,-1,-1,-1],"loss_changes":[5.8027234E0,0E0,1.3593255E0,9.527757E-2,1.0225868E-1,1.967009E-1,5.039435E-1,0E0,0E0,0E0,7.6920986E-2,0E0,1.8477304E-2,0E0,0E0,9.066125E-3,6.1711855E-3,0E0,0E0,0E0,0E0],"parents":[2147483647,0,0,2,2,3,3,4,4,5,5,6,6,10,10,12,12,15,15,16,16],"right_children":[2,-1,4,6,8,10,12,-1,-1,-1,14,-1,16,-1,-1,18,20,-1,-1,-1,-1],"split_conditions":[5E-1,-2.612569E-1,8.8478255E-1,5.6078434E-1,9.282297E-1,4.4505495E-1,7.434211E-1,7.535576E-2,2.0948799E-1,-1.4093274E-2,4.8076922E-1,-1.3012025E-1,8.090909E-1,1.08046554E-1,2.199712E-2,7.7225673E-1,5E-1,1.3094247E-2,-3.9334763E-3,2.2759968E-2,7.395355E-3],"split_indices":[1,0,0,0,0,0,0,0,0,0,0,0,0,0,0,0,2,0,0,0,0],"split_type":[0,0,0,0,0,0,0,0,0,0,0,0,0,0,0,0,0,0,0,0,0],"sum_hessian":[4.5555485E1,6.36171E0,3.9193775E1,3.420675E1,4.987025E0,8.269076E0,2.5937674E1,2.7519581E0,2.2350667E0,4.146016E0,4.1230607E0,1.5789584E0,2.4358715E1,1.6625301E0,2.4605308E0,1.2309896E1,1.2048819E1,2.8534036E0,9.456492E0,6.6443663E0,5.4044523E0],"tree_param":{"num_deleted":"0","num_feature":"3","num_nodes":"21","size_leaf_vector":"0"}},{"base_weights":[-4.2917464E-2,-8.359357E-1,7.7284664E-2,1.3337469E-2,4.7766694E-1,9.610071E-2,-2.4634572E-2,2.0741963E-1,6.509914E-1,-1.3589904E-1,2.4923407E-1,-3.1223992E-1,2.0008694E-2,-2.4438861E-1,-2.1439549E-2,2.1412399E-2,7.4030334E-1,-9.545013E-3,4.2382684E-2,1.4669722E-1,-2.0945138E-1,4.040453E-2,-1.6373508E-2,6.6906884E-2,1.4000363E-2],"categories":[],"categories_nodes":[],"categories_segments":[],"categories_sizes":[],"default_left":[1,0,1,1,1,1,1,0,0,1,1,0,1,0,1,1,0,0,1,0,0,0,0,0,0],"id":15,"left_children":[1,-1,3,5,7,9,11,-1,-1,13,15,-1,17,-1,19,21,-1,-1,23,-1,-1,-1,-1,-1,-1],"loss_changes":[4.2879834E0,0E0,1.0021391E0,1.1234199E-1,1.17723584E-1,4.3212065E-1,3.2446486E-1,0E0,0E0,5.814375E-2,7.790878E-1,0E0,1.521196E-2,0E0,1.4389484E-1,4.883782E-3,0E0,0E0,8.062368E-3,0E0,0E0,0E0,0E0,0E0,0E0],"parents":[2147483647,0,0,2,2,3,3,4,4,5,5,6,6,9,9,10,10,12,12,14,14,15,15,18,18],"right_children":[2,-1,4,6,8,10,12,-1,-1,14,16,-1,18,-1,20,22,-1,-1,24,-1,-1,-1,-1,-1,-1],"split_conditions":[5E-1,-2.5078073E-1,8.8478255E-1,7.5595236E-1,9.282297E-1,5E-1,7.7225673E-1,6.2225893E-2,1.9529742E-1,4.8076922E-1,6.066177E-1,-9.367198E-2,8.090909E-1,-7.331659E-2,5.1666665E-1,4.4505495E-1,2.22091E-1,-2.863504E-3,8.301436E-1,4.4009168E-2,-6.283542E-2,1.2121359E-2,-4.9120523E-3,2.0072065E-2,4.200109E-3],"split_indices":[1,0,0,0,0,2,0,0,0,0,0,0,0,0,0,0,0,0,0,0,0,0,0,0,0],"split_type":[0,0,0,0,0,0,0,0,0,0,0,0,0,0,0,0,0,0,0,0,0,0,0,0,0],"sum_hessian":[4.3306213E1,4.9164095E0,3.8389805E1,3.3993786E1,4.3960176E0,1.0209814E1,2.3783972E1,2.5760915E0,1.8199261E0,4.1042886E0,6.1055255E0,2.3903713E0,2.13936E1,1.52432E0,2.5799687E0,4.883519E0,1.2220064E0,9.464874E0,1.1928726E1,1.4779764E0,1.1019924E0,3.2038724E0,1.6796467E0,5.6711416E0,6.2575846E0],"tree_param":{"num_deleted":"0","num_feature":"3","num_nodes":"25","size_leaf_vector":"0"}},{"base_weights":[-3.2044753E-2,-7.968999E-1,6.4382486E-2,2.6315501E-2,6.0455394E-1,1.1305634E-2,1.7037104E-1,9.240563E-2,-1.7168546E-2,-2.9123934E-2,1.9890888E-1,-4.2169145E-1,2.289309E-2,3.250056E-1,4.8188828E-2,6.3763715E-2,1.4996697E-2],"categories":[],"categories_nodes":[],"categories_segments":[],"categories_sizes":[],"default_left":[1,0,1,1,0,1,0,1,1,0,1,0,1,0,0,0,0],"id":16,"left_children":[1,-1,3,5,-1,7,-1,9,11,-1,13,-1,15,-1,-1,-1,-1],"loss_changes":[3.1878088E0,0E0,7.796861E-1,7.848713E-2,0E0,8.1836164E-2,0E0,1.2470612E-1,4.4014734E-1,0E0,7.982163E-2,0E0,7.1503893E-3,0E0,0E0,0E0,0E0],"parents":[2147483647,0,0,2,2,3,3,5,5,7,7,8,8,10,10,12,12],"right_children":[2,-1,4,6,-1,8,-1,10,12,-1,14,-1,16,-1,-1,-1,-1],"split_conditions":[5E-1,-2.3906998E-1,9.282297E-1,8.8478255E-1,1.8136619E-1,5.6078434E-1,5.1111314E-2,4.4505495E-1,7.434211E-1,-8.73718E-3,4.8076922E-1,-1.2650745E-1,7.7225673E-1,9.750168E-2,1.4456649E-2,1.9129116E-2,4.4990093E-3],"split_indices":[1,0,0,0,0,0,0,0,0,0,0,0,0,0,0,0,0],"split_type":[0,0,0,0,0,0,0,0,0,0,0,0,0,0,0,0,0],"sum_hessian":[4.152719E1,3.8360004E0,3.7691193E1,3.6189556E1,1.5016348E0,3.375132E1,2.4382374E0,8.187237E0,2.5564083E1,4.163202E0,4.0240345E0,1.4451901E0,2.4118893E1,1.5613838E0,2.4626508E0,2.7597532E0,2.1359138E1],"tree_param":{"num_deleted":"0","num_feature":"3","num_nodes":"17","size_leaf_vector":"0"}},{"base_weights":[-2.4991859E-2,-1.0793573E0,3.7624385E-2,-6.7303205E-1,9.360308E-2,6.2314212E-2,5.5996484E-1,3.3603546E-1,5.4848054E-3,-2.1748513E-1,5.602258E-1,5.692646E-2,-8.700738E-2,2.9793484E-3,1.3838129E-1,2.4919253E-2,-4.7971138E-1],"categories":[],"categories_nodes":[],"categories_segments":[],"categories_sizes":[],"default_left":[1,0,1,0,1,1,0,1,1,0,0,1,1,0,0,0,0],"id":17,"left_children":[1,-1,3,-1,5,7,-1,9,11,-1,-1,13,15,-1,-1,-1,-1],"loss_changes":[2.7637794E0,0E0,1.6503422E0,0E0,5.176414E-1,5.6764495E-1,0E0,9.0084964E-1,1.5403245E-1,0E0,0E0,9.071994E-2,5.2154595E-1,0E0,0E0,0E0,0E0],"parents":[2147483647,0,0,2,2,4,4,5,5,7,7,8,8,11,11,12,12],"right_children":[2,-1,4,-1,6,8,-1,10,12,-1,-1,14,16,-1,-1,-1,-1],"split_conditions":[4.1428572E-1,-3.2380718E-1,5E-1,-2.0190962E-1,9.282297E-1,4.8076922E-1,1.6798946E-1,5E-1,5E-1,-6.524554E-2,1.6806774E-1,8.090909E-1,8.63354E-1,8.9380454E-4,4.151439E-2,7.475776E-3,-1.4391342E-1],"split_indices":[0,0,1,0,0,0,0,2,2,0,0,0,0,0,0,0,0],"split_type":[0,0,0,0,0,0,0,0,0,0,0,0,0,0,0,0,0],"sum_hessian":[4.0247395E1,1.3459483E0,3.8901443E1,2.0356474E0,3.68658E1,3.561027E1,1.255526E0,5.2775707E0,3.03327E1,1.5299846E0,3.7475863E0,1.9738955E1,1.0593746E1,1.2498102E1,7.2408514E0,8.972882E0,1.6208639E0],"tree_param":{"num_deleted":"0","num_feature":"3","num_nodes":"17","size_leaf_vector":"0"}},{"base_weights":[-2.6842955E-2,-1.0001135E0,2.7130622E-2,-6.2672836E-1,7.314436E-2,2.929339E-2,3.810224E-1,2.7243748E-1,-2.1694511E-2,1.9157356E-1,5.179426E-1,-1.7586781E-1,4.7260964E-1,-1.4950588E-1,4.2513376E-3,3.6352254E-2,-3.527864E-1,4.627593E-2,-3.143386E-3],"categories":[],"categories_nodes":[],"categories_segments":[],"categories_sizes":[],"default_left":[1,0,1,0,1,1,1,1,1,0,0,0,0,1,1,0,0,0,0],"id":18,"left_children":[1,-1,3,-1,5,7,9,11,13,-1,-1,-1,-1,15,17,-1,-1,-1,-1],"loss_changes":[2.1330135E0,0E0,1.2178812E0,0E0,4.9228126E-1,4.2400336E-1,1.920873E-2,6.143551E-1,9.615588E-2,0E0,0E0,0E0,0E0,1.975095E-1,7.888395E-3,0E0,0E0,0E0,0E0],"parents":[2147483647,0,0,2,2,4,4,5,5,6,6,7,7,8,8,13,13,14,14],"right_children":[2,-1,4,-1,6,8,10,12,14,-1,-1,-1,-1,16,18,-1,-1,-1,-1],"split_conditions":[4.1428572E-1,-3.0003405E-1,5E-1,-1.8801852E-1,8.8478255E-1,4.8076922E-1,9.282297E-1,5E-1,7.434211E-1,5.747207E-2,1.5538278E-1,-5.2760344E-2,1.417829E-1,5.6078434E-1,7.7225673E-1,1.09056765E-2,-1.0583592E-1,1.38827795E-2,-9.4301585E-4],"split_indices":[0,0,1,0,0,0,0,2,0,0,0,0,0,0,0,0,0,0,0],"split_type":[0,0,0,0,0,0,0,0,0,0,0,0,0,0,0,0,0,0,0],"sum_hessian":[3.9088406E1,1.1327407E0,3.7955666E1,1.6656852E0,3.6289978E1,3.2724224E1,3.5657554E0,4.919866E0,2.7804358E1,2.5024364E0,1.0633188E0,1.5561446E0,3.3637216E0,3.8882575E0,2.3916101E1,2.4601393E0,1.4281183E0,2.7918587E0,2.1124243E1],"tree_param":{"num_deleted":"0","num_feature":"3","num_nodes":"19","size_leaf_vector":"0"}},{"base_weights":[-2.640188E-2,-6.583893E-1,2.3805123E-2,-1.6524948E-2,3.3706075E-1,-1.1364012E-1,-4.1571446E-4,1.4444438E-1,-3.9816804E-2,-1.579387E-2,3.8351962E-1,-2.4750696E-1,3.4152546E-3,2.237055E-1,-1.5922952E-1,2.03349E-2,-3.984761E-1,1.4841754E-2,-2.1570405E-2],"categories":[],"categories_nodes":[],"categories_segments":[],"categories_sizes":[],"default_left":[1,0,1,1,0,0,1,1,1,1,0,1,1,0,0,0,0,0,0],"id":19,"left_children":[1,-1,3,5,-1,-1,7,9,11,13,-1,15,17,-1,-1,-1,-1,-1,-1],"loss_changes":[1.2570709E0,0E0,4.7565824E-1,5.3016547E-2,0E0,0E0,1.7753048E-1,2.6087612E-1,2.2033074E-1,2.0542295E-1,0E0,1.7895442E-1,6.3782544E-3,0E0,0E0,0E0,0E0,0E0,0E0],"parents":[2147483647,0,0,2,2,3,3,6,6,7,7,8,8,9,9,11,11,12,12],"right_children":[2,-1,4,6,-1,-1,8,10,12,14,-1,16,18,-1,-1,-1,-1,-1,-1],"split_conditions":[5E-1,-1.9751678E-1,8.8478255E-1,4.4505495E-1,1.0111823E-1,-3.409204E-2,7.5595236E-1,6.066177E-1,7.9130435E-1,4.8076922E-1,1.1505589E-1,5E-1,8.301436E-1,6.7111656E-2,-4.7768857E-2,6.10047E-3,-1.1954283E-1,4.4525266E-3,-6.4711217E-3],"split_indices":[1,0,0,0,0,0,0,0,0,0,0,2,0,0,0,0,0,0,0],"split_type":[0,0,0,0,0,0,0,0,0,0,0,0,0,0,0,0,0,0,0],"sum_hessian":[3.8123554E1,1.9142449E0,3.620931E1,3.2918472E1,3.2908382E0,3.8221478E0,2.9096325E1,5.651671E0,2.3444653E1,3.942907E0,1.708764E0,3.2252455E0,2.0219408E1,1.267274E0,2.675633E0,1.4745239E0,1.7507217E0,1.4152941E1,6.0664663E0],"tree_param":{"num_deleted":"0","num_feature":"3","num_nodes":"19","size_leaf_vector":"0"}},{"base_weights":[-2.2409491E-2,-6.124364E-1,1.9425888E-2,-1.2219963E-2,2.8212547E-1,3.7336852E-2,-3.309184E-2,-5.129769E-2,3.0915257E-1,-2.5768635E-1,1.4381553E-3,4.373725E-2,-1.2312108E-1,-4.7410587E-3,2.4622492E-2,-1.4512375E-1,1.9258627E-1,9.062103E-3,-7.035823E-2,-3.0438945E-2,1.06388085E-1],"categories":[],"categories_nodes":[],"categories_segments":[],"categories_sizes":[],"default_left":[1,0,1,1,0,1,1,1,0,0,1,1,0,1,1,0,0,0,0,0,0],"id":20,"left_children":[1,-1,3,5,-1,7,9,11,-1,-1,13,15,-1,17,19,-1,-1,-1,-1,-1,-1],"loss_changes":[9.5948833E-1,0E0,3.0951545E-1,3.6213614E-2,0E0,2.686251E-1,1.8901761E-1,6.524257E-2,0E0,0E0,3.279661E-3,1.5480676E-1,0E0,1.718566E-2,2.4882462E-2,0E0,0E0,0E0,0E0,0E0,0E0],"parents":[2147483647,0,0,2,2,3,3,5,5,6,6,7,7,10,10,11,11,13,13,14,14],"right_children":[2,-1,4,6,-1,8,10,12,-1,-1,14,16,-1,18,20,-1,-1,-1,-1,-1,-1],"split_conditions":[5E-1,-1.8373093E-1,8.8478255E-1,7.5595236E-1,8.463764E-2,6.066177E-1,7.7225673E-1,5E-1,9.274577E-2,-7.7305906E-2,8.4962404E-1,4.8076922E-1,-3.6936328E-2,8.301436E-1,5E-1,-4.3537125E-2,5.7775885E-2,2.718631E-3,-2.110747E-2,-9.131684E-3,3.191643E-2],"split_indices":[1,0,0,0,0,0,0,2,0,0,0,0,0,0,2,0,0,0,0,0,0],"split_type":[0,0,0,0,0,0,0,0,0,0,0,0,0,0,0,0,0,0,0,0,0],"sum_hessian":[3.738888E1,1.5724583E0,3.5816425E1,3.2816677E1,2.9997463E0,9.491596E0,2.3325083E1,7.7694025E0,1.722194E0,2.2470229E0,2.1078058E1,3.5126262E0,4.256776E0,1.727053E1,3.8075283E0,1.5592556E0,1.9533707E0,1.498103E1,2.2895E0,2.650437E0,1.1570911E0],"tree_param":{"num_deleted":"0","num_feature":"3","num_nodes":"21","size_leaf_vector":"0"}},{"base_weights":[-1.9011363E-2,-5.678853E-1,1.6100278E-2,-8.687871E-3,2.3425792E-1,-6.0316183E-2,1.2819604E-2,3.8021356E-2,-3.8205218E-1,7.945131E-2,1.248258E-3,-5.3728696E-2,1.2590306E-1,-4.300968E-3,2.2156315E-2,2.1102962E-1,3.5041288E-2,1.6253907E-2,-4.8125405E-2,-2.3652712E-2,9.086309E-2],"categories":[],"categories_nodes":[],"categories_segments":[],"categories_sizes":[],"default_left":[1,0,1,1,0,1,1,1,0,0,1,0,1,1,1,0,0,0,0,0,0],"id":21,"left_children":[1,-1,3,5,-1,7,9,11,-1,-1,13,-1,15,17,19,-1,-1,-1,-1,-1,-1],"loss_changes":[7.4054044E-1,0E0,2.0018604E-1,3.837981E-2,0E0,3.3518398E-1,1.897026E-2,7.668753E-2,0E0,0E0,2.6581546E-3,0E0,2.9178493E-2,1.7261159E-2,1.7242795E-2,0E0,0E0,0E0,0E0,0E0,0E0],"parents":[2147483647,0,0,2,2,3,3,5,5,6,6,7,7,10,10,12,12,13,13,14,14],"right_children":[2,-1,4,6,-1,8,10,12,-1,-1,14,-1,16,18,20,-1,-1,-1,-1,-1,-1],"split_conditions":[5E-1,-1.7036559E-1,8.8478255E-1,7.434211E-1,7.027738E-2,5.6078434E-1,7.7225673E-1,4.4505495E-1,-1.1461566E-1,2.3835393E-2,8.4962404E-1,-1.611861E-2,4.8076922E-1,5E-1,5E-1,6.330889E-2,1.0512386E-2,4.876172E-3,-1.4437622E-2,-7.0958138E-3,2.7258927E-2],"split_indices":[1,0,0,0,0,0,0,0,0,0,0,0,0,2,2,0,0,0,0,0,0],"split_type":[0,0,0,0,0,0,0,0,0,0,0,0,0,0,0,0,0,0,0,0,0],"sum_hessian":[3.695156E1,1.3093754E0,3.5642185E1,3.2867764E1,2.7744217E0,9.134979E0,2.3732784E1,7.6719103E0,1.4630694E0,2.6436346E0,2.108915E1,3.943476E0,3.728434E0,1.7293547E1,3.7956038E0,1.2421522E0,2.4862819E0,1.2200355E1,5.0931916E0,2.6707034E0,1.1249003E0],"tree_param":{"num_deleted":"0","num_feature":"3","num_nodes":"21","size_leaf_vector":"0"}},{"base_weights":[-1.701213E-2,-5.256049E-1,1.28576355E-2,-6.7228866E-3,1.9321038E-1,4.351334E-2,-2.8414387E-2,-3.935181E-2,2.980791E-1,-2.2621085E-1,1.3755561E-3,3.158071E-2,-1.4629638E-1,-1.0511058E-2,1.0974628E-2,-1.2633252E-1,1.12458214E-1,3.61899E-2,-1.3963729E-2],"categories":[],"categories_nodes":[],"categories_segments":[],"categories_sizes":[],"default_left":[1,0,1,1,0,1,1,1,0,0,1,1,0,0,1,0,0,0,0],"id":22,"left_children":[1,-1,3,5,-1,7,9,11,-1,-1,13,15,-1,-1,17,-1,-1,-1,-1],"loss_changes":[5.7664084E-1,0E0,1.2987135E-1,3.8078096E-2,0E0,2.3514223E-1,1.4301254E-1,7.193273E-2,0E0,0E0,2.6303595E-3,9.284734E-2,0E0,0E0,8.481148E-3,0E0,0E0,0E0,0E0],"parents":[2147483647,0,0,2,2,3,3,5,5,6,6,7,7,10,10,11,11,14,14],"right_children":[2,-1,4,6,-1,8,10,12,-1,-1,14,16,-1,-1,18,-1,-1,-1,-1],"split_conditions":[5E-1,-1.5768148E-1,8.8478255E-1,7.5595236E-1,5.7963114E-2,6.066177E-1,7.7225673E-1,4.8076922E-1,8.942373E-2,-6.7863256E-2,8.090909E-1,5E-1,-4.3888915E-2,-3.1533176E-3,8.301436E-1,-3.789976E-2,3.3737466E-2,1.085697E-2,-4.1891187E-3],"split_indices":[1,0,0,0,0,0,0,0,0,0,0,2,0,0,0,0,0,0,0],"split_type":[0,0,0,0,0,0,0,0,0,0,0,0,0,0,0,0,0,0,0],"sum_hessian":[3.6513153E1,1.1048201E0,3.5408333E1,3.2809048E1,2.5992863E0,9.590956E0,2.3218092E1,7.873443E0,1.7175133E0,2.1760736E0,2.1042019E1,5.1574144E0,2.7160285E0,9.35841E0,1.1683609E1,1.5564415E0,3.600973E0,5.5852084E0,6.0984006E0],"tree_param":{"num_deleted":"0","num_feature":"3","num_nodes":"19","size_leaf_vector":"0"}},{"base_weights":[-1.5641963E-2,-1.19534604E-1,2.6068317E-2,1.4081117E-3,-4.5004493E-1,6.5516424E-3,1.5847921E-1,-1.0516525E-1,1.18781105E-1,6.1901707E-2,-2.9412357E-3,1.684178E-1,5.3681675E-2,8.408576E-2,1.1402936E-2,7.604233E-3,-2.554533E-2,3.3308186E-2,-4.0045463E-2,-5.722281E-2,7.9627685E-2,-7.845609E-3,1.8746369E-1,-5.553341E-2,-1.5297209E-2],"categories":[],"categories_nodes":[],"categories_segments":[],"categories_sizes":[],"default_left":[1,1,1,1,0,1,0,0,1,1,1,0,0,0,0,1,1,1,1,0,0,0,0,0,0],"id":23,"left_children":[1,3,5,7,-1,9,-1,-1,11,13,15,-1,-1,-1,-1,17,19,21,23,-1,-1,-1,-1,-1,-1],"loss_changes":[1.6386862E-1,4.3257394E-1,6.948611E-2,1.23918846E-1,0E0,1.3227368E-2,0E0,0E0,6.1745495E-3,3.1638695E-3,5.4736147E-3,0E0,0E0,0E0,0E0,2.0774525E-2,2.8793918E-2,7.034636E-2,1.456447E-3,0E0,0E0,0E0,0E0,0E0,0E0],"parents":[2147483647,0,0,1,1,2,2,3,3,5,5,8,8,9,9,10,10,15,15,16,16,17,17,18,18],"right_children":[2,4,6,8,-1,10,-1,-1,12,14,16,-1,-1,-1,-1,18,20,22,24,-1,-1,-1,-1,-1,-1],"split_conditions":[7.434211E-1,5.52381E-1,8.8478255E-1,4.5299146E-1,-1.3501349E-1,7.7225673E-1,4.7543768E-2,-3.1549577E-2,4.8076922E-1,5E-1,5E-1,5.052534E-2,1.6104503E-2,2.522573E-2,3.4208808E-3,8.301436E-1,8.3766234E-1,8.090909E-1,8.4962404E-1,-1.7166844E-2,2.3888307E-2,-2.3536829E-3,5.623911E-2,-1.6660023E-2,-4.5891628E-3],"split_indices":[0,0,0,0,0,0,0,0,0,2,2,0,0,0,0,0,0,0,0,0,0,0,0,0,0],"split_type":[0,0,0,0,0,0,0,0,0,0,0,0,0,0,0,0,0,0,0,0,0,0,0,0,0],"sum_hessian":[3.6096252E1,9.80585E0,2.6290401E1,7.907881E0,1.8979689E0,2.382779E1,2.462612E0,4.1991277E0,3.7087529E0,2.6800983E0,2.114769E1,1.2037997E0,2.5049531E0,1.3999826E0,1.2801158E0,1.4872723E1,6.2749677E0,9.856664E0,5.0160594E0,5.172853E0,1.1021148E0,8.528876E0,1.3277874E0,2.3201387E0,2.6959207E0],"tree_param":{"num_deleted":"0","num_feature":"3","num_nodes":"25","size_leaf_vector":"0"}},{"base_weights":[-1.0550706E-2,-9.3779095E-2,2.2764623E-2,5.115599E-3,-3.719837E-1,4.4929177E-2,-1.4397798E-1,-7.889604E-2,9.837555E-2,4.1215285E-3,2.171213E-1,-3.858363E-1,1.4398676E-1,-1.143309E-1,-3.8875747E-2,1.4394614E-1,4.217745E-2,2.262187E-2,-3.2644395E-2,-1.1911171E-2,5.312003E-1,3.887076E-2,-4.3499976E-2,1.0067405E-2,-5.142428E-2,1.0183665E-2,1.6042489E-1],"categories":[],"categories_nodes":[],"categories_segments":[],"categories_sizes":[],"default_left":[1,1,1,1,0,1,1,1,1,1,1,0,0,0,0,0,0,1,1,0,0,1,0,0,0,0,0],"id":24,"left_children":[1,3,5,7,-1,9,11,13,15,17,19,-1,-1,-1,-1,-1,-1,21,23,-1,-1,25,-1,-1,-1,-1,-1],"loss_changes":[1.0441797E-1,2.9739922E-1,1.068018E-1,7.7570975E-2,0E0,1.7284092E-1,2.9396462E-1,2.9896013E-3,5.882513E-3,1.5027279E-2,3.4568295E-1,0E0,0E0,0E0,0E0,0E0,0E0,1.7340474E-2,6.486712E-3,0E0,0E0,4.097987E-2,0E0,0E0,0E0,0E0,0E0],"parents":[2147483647,0,0,1,1,2,2,3,3,5,5,6,6,7,7,8,8,9,9,10,10,17,17,18,18,21,21],"right_children":[2,4,6,8,-1,10,12,14,16,18,20,-1,-1,-1,-1,-1,-1,22,24,-1,-1,26,-1,-1,-1,-1,-1],"split_conditions":[7.434211E-1,5.52381E-1,8.63354E-1,4.5299146E-1,-1.1159512E-1,8.4962404E-1,9.045454E-1,5E-1,4.8076922E-1,5E-1,5E-1,-1.15750894E-1,4.319603E-2,-3.4299273E-2,-1.1662724E-2,4.3183845E-2,1.2653235E-2,8.301436E-1,7.9130435E-1,-3.5733513E-3,1.593601E-1,8.090909E-1,-1.3049994E-2,3.0202216E-3,-1.5427285E-2,3.0550996E-3,4.812747E-2],"split_indices":[0,0,0,0,0,0,0,2,0,2,2,0,0,0,0,0,0,0,0,0,0,0,0,0,0,0,0],"split_type":[0,0,0,0,0,0,0,0,0,0,0,0,0,0,0,0,0,0,0,0,0,0,0,0,0,0,0],"sum_hessian":[3.588828E1,9.740259E0,2.6148018E1,7.9100494E0,1.83021E0,2.3724894E1,2.4231255E0,4.2423873E0,3.6676621E0,2.0007315E1,3.7175786E0,1.1322708E0,1.2908547E0,1.2652677E0,2.9771194E0,1.1631045E0,2.5045576E0,1.3565806E1,6.4415083E0,2.7062237E0,1.0113549E0,1.1220578E1,2.3452282E0,2.108956E0,4.332552E0,9.95496E0,1.2656178E0],"tree_param":{"num_deleted":"0","num_feature":"3","num_nodes":"27","size_leaf_vector":"0"}},{"base_weights":[-6.7007933E-3,-2.202899E-2,1.4884117E-1,-7.572359E-2,2.1355317E-3,4.779675E-3,-3.0491313E-1,4.84746E-2,-5.7932166E-3,-6.38854E-2,8.158487E-2,6.684369E-2,7.768759E-3,4.6651764E-3,-2.825665E-2,-9.563758E-2,-2.9974045E-2,1.22994855E-1,3.314017E-2,2.0765683E-2,-2.4550045E-2,-8.475067E-3,1.3719389E-1,-3.411157E-2,-9.278136E-3],"categories":[],"categories_nodes":[],"categories_segments":[],"categories_sizes":[],"default_left":[1,1,0,1,1,1,0,1,1,1,1,0,0,1,0,0,0,0,0,1,1,0,0,0,0],"id":25,"left_children":[1,3,-1,5,7,9,-1,11,13,15,17,-1,-1,19,-1,-1,-1,-1,-1,21,23,-1,-1,-1,-1],"loss_changes":[9.085999E-2,4.4679187E-2,0E0,1.9843464E-1,9.331661E-3,5.2072074E-2,0E0,2.2517135E-3,5.2834474E-3,2.7886275E-3,5.21867E-3,0E0,0E0,7.95144E-3,0E0,0E0,0E0,0E0,0E0,3.773088E-2,5.712104E-4,0E0,0E0,0E0,0E0],"parents":[2147483647,0,0,1,1,3,3,4,4,5,5,7,7,8,8,9,9,10,10,13,13,19,19,20,20],"right_children":[2,4,-1,6,8,10,-1,12,14,16,18,-1,-1,20,-1,-1,-1,-1,-1,22,24,-1,-1,-1,-1],"split_conditions":[8.8478255E-1,7.434211E-1,4.4652354E-2,5.52381E-1,7.7225673E-1,4.5299146E-1,-9.1473944E-2,5E-1,5E-1,5E-1,4.8076922E-1,2.0053107E-2,2.3306278E-3,8.301436E-1,-8.476995E-3,-2.8691275E-2,-8.992214E-3,3.6898457E-2,9.942052E-3,8.090909E-1,8.4962404E-1,-2.5425202E-3,4.115817E-2,-1.0233471E-2,-2.783441E-3],"split_indices":[0,0,0,0,0,0,0,2,2,2,0,0,0,0,0,0,0,0,0,0,0,0,0,0,0],"split_type":[0,0,0,0,0,0,0,0,0,0,0,0,0,0,0,0,0,0,0,0,0,0,0,0,0],"sum_hessian":[3.5734325E1,3.3310085E1,2.424237E0,9.675981E0,2.3634108E1,7.8853736E0,1.7906069E0,2.7058957E0,2.0928211E1,4.252123E0,3.6332505E0,1.4220566E0,1.2838391E0,1.4820494E1,6.1077175E0,1.2559332E0,2.9961896E0,1.1291741E0,2.5040765E0,9.741287E0,5.0792065E0,8.526962E0,1.2143248E0,2.364937E0,2.7142694E0],"tree_param":{"num_deleted":"0","num_feature":"3","num_nodes":"25","size_leaf_vector":"0"}},{"base_weights":[-4.591175E-3,1.0135707E-2,-1.513405E-1,-1.8052643E-2,1.9525178E-1,-3.3251655E-1,1.01011045E-1,-6.102534E-2,4.60735E-3,4.4413507E-3,-2.4856289E-1,1.641174E-2,-1.9071043E-2,-5.183818E-2,6.775488E-2,2.7081622E-2,-2.6772313E-2,9.306529E-3,-3.2055303E-2,-7.999993E-2,-2.3130547E-2,1.0507306E-1,2.6039595E-2,6.7603323E-3,1.1727019E-1],"categories":[],"categories_nodes":[],"categories_segments":[],"categories_sizes":[],"default_left":[1,1,1,1,0,0,0,1,1,1,0,1,1,1,1,1,0,0,0,0,0,0,0,0,0],"id":26,"left_children":[1,3,5,7,-1,-1,-1,9,11,13,-1,15,17,19,21,23,-1,-1,-1,-1,-1,-1,-1,-1,-1],"loss_changes":[8.0620416E-2,1.8195422E-1,1.8904701E-1,3.0069282E-2,0E0,0E0,0E0,1.3163562E-1,6.1712107E-3,3.509413E-2,0E0,7.4171643E-3,3.0378918E-3,2.4010688E-3,4.4317916E-3,2.1463018E-2,0E0,0E0,0E0,0E0,0E0,0E0,0E0,0E0,0E0],"parents":[2147483647,0,0,1,1,2,2,3,3,7,7,8,8,9,9,11,11,12,12,13,13,14,14,15,15],"right_children":[2,4,6,8,-1,-1,-1,10,12,14,-1,16,18,20,22,24,-1,-1,-1,-1,-1,-1,-1,-1,-1],"split_conditions":[8.63354E-1,8.4962404E-1,9.045454E-1,7.434211E-1,5.8575537E-2,-9.975497E-2,3.0303314E-2,5.52381E-1,5E-1,4.5299146E-1,-7.456887E-2,8.301436E-1,7.9130435E-1,5E-1,4.8076922E-1,8.090909E-1,-8.031694E-3,2.7919586E-3,-9.616591E-3,-2.399998E-2,-6.9391644E-3,3.152192E-2,7.811879E-3,2.0280997E-3,3.5181057E-2],"split_indices":[0,0,0,0,0,0,0,0,2,0,0,0,0,2,0,0,0,0,0,0,0,0,0,0,0],"split_type":[0,0,0,0,0,0,0,0,0,0,0,0,0,0,0,0,0,0,0,0,0,0,0,0,0],"sum_hessian":[3.5594456E1,3.3194214E1,2.4002402E0,2.9590788E1,3.6034262E0,1.2122396E0,1.1880006E0,9.631812E0,1.9958977E1,7.8631983E0,1.7686133E0,1.352383E1,6.4351463E0,4.258794E0,3.6044047E0,1.1143406E1,2.3804245E0,2.1090305E0,4.3261156E0,1.2479049E0,3.010889E0,1.1008118E0,2.5035927E0,9.971569E0,1.1718364E0],"tree_param":{"num_deleted":"0","num_feature":"3","num_nodes":"25","size_leaf_vector":"0"}},{"base_weights":[-4.400085E-3,-1.9016134E-2,1.4319775E-1,3.3704035E-2,-4.264856E-2,-5.831049E-2,3.0589914E-1,-2.3299386E-1,-1.235787E-2,-5.582035E-3,-1.3110176E-1,1.2947576E-3,-4.184774E-2,-1.7438123E-1,9.786874E-2,-1.3715904E-2,2.5632037E-2,1.0020485E-1,-9.633733E-3],"categories":[],"categories_nodes":[],"categories_segments":[],"categories_sizes":[],"default_left":[1,1,0,1,1,1,0,0,1,1,0,1,0,0,0,0,1,0,0],"id":27,"left_children":[1,3,-1,5,7,9,-1,-1,11,13,-1,15,-1,-1,-1,-1,17,-1,-1],"loss_changes":[8.134182E-2,4.38509E-2,0E0,2.9572743E-1,1.3519195E-1,3.431843E-2,0E0,0E0,8.797116E-3,1.277834E-1,0E0,6.1285202E-3,0E0,0E0,0E0,0E0,1.7747018E-2,0E0,0E0],"parents":[2147483647,0,0,1,1,3,3,4,4,5,5,8,8,9,9,11,11,16,16],"right_children":[2,4,-1,6,8,10,-1,-1,12,14,-1,16,-1,-1,-1,-1,18,-1,-1],"split_conditions":[8.8478255E-1,7.5595236E-1,4.2959325E-2,6.168478E-1,7.7225673E-1,4.8076922E-1,9.176975E-2,-6.989816E-2,8.301436E-1,5E-1,-3.9330527E-2,8.090909E-1,-1.2554322E-2,-5.231437E-2,2.9360624E-2,-4.1147713E-3,5E-1,3.0061455E-2,-2.89012E-3],"split_indices":[0,0,0,0,0,0,0,0,0,2,0,0,0,0,0,0,2,0,0],"split_type":[0,0,0,0,0,0,0,0,0,0,0,0,0,0,0,0,0,0,0],"sum_hessian":[3.5443172E1,3.3042282E1,2.4008884E0,1.009524E1,2.2947044E1,8.132018E0,1.9632212E0,2.2316337E0,2.071541E1,5.340302E0,2.7917166E0,1.4813464E1,5.9019456E0,1.7686977E0,3.571604E0,9.432281E0,5.3811846E0,1.1365091E0,4.2446756E0],"tree_param":{"num_deleted":"0","num_feature":"3","num_nodes":"19","size_leaf_vector":"0"}},{"base_weights":[-2.7366304E-3,1.2539587E-2,-1.5448332E-1,-1.0264718E-2,1.6488779E-1,-2.895886E-1,6.4950995E-2,-5.2824087E-2,1.1791755E-2,1.4041219E-2,-2.4582861E-1,6.871085E-2,-1.8288648E-4,-4.71778E-2,8.043365E-2,9.6030496E-2,8.892633E-3,7.500953E-3,-1.6480645E-2,-4.3230965E-3,3.0803101E-2],"categories":[],"categories_nodes":[],"categories_segments":[],"categories_sizes":[],"default_left":[1,1,1,1,0,0,0,1,1,1,0,1,1,0,0,0,0,1,0,0,0],"id":28,"left_children":[1,3,5,7,-1,-1,-1,9,11,13,-1,15,17,-1,-1,-1,-1,19,-1,-1,-1],"loss_changes":[8.592656E-2,1.19269215E-1,1.1927889E-1,2.9139029E-2,0E0,0E0,0E0,1.3962802E-1,1.4207315E-2,3.9492507E-2,0E0,5.065972E-3,2.403241E-3,0E0,0E0,0E0,0E0,3.7310512E-3,0E0,0E0,0E0],"parents":[2147483647,0,0,1,1,2,2,3,3,7,7,8,8,9,9,11,11,12,12,17,17],"right_children":[2,4,6,8,-1,-1,-1,10,12,14,-1,16,18,-1,-1,-1,-1,20,-1,-1,-1],"split_conditions":[8.63354E-1,8.4962404E-1,9.045454E-1,7.434211E-1,4.9466338E-2,-8.6876586E-2,1.9485299E-2,5.52381E-1,7.7225673E-1,4.5299146E-1,-7.374859E-2,5E-1,5E-1,-1.415334E-2,2.4130097E-2,2.880915E-2,2.66779E-3,8.090909E-1,-4.9441936E-3,-1.296929E-3,9.240931E-3],"split_indices":[0,0,0,0,0,0,0,0,0,0,0,2,2,0,0,0,0,0,0,0,0],"split_type":[0,0,0,0,0,0,0,0,0,0,0,0,0,0,0,0,0,0,0,0,0],"sum_hessian":[3.5231762E1,3.284286E1,2.3888996E0,2.9378023E1,3.4648387E0,1.2806814E0,1.1082183E0,9.55196E0,1.9826063E1,7.782877E0,1.7690835E0,2.6224997E0,1.7203564E1,4.1997705E0,3.5831065E0,1.3847134E0,1.2377863E0,1.2058259E1,5.145304E0,8.539563E0,3.5186958E0],"tree_param":{"num_deleted":"0","num_feature":"3","num_nodes":"21","size_leaf_vector":"0"}},{"base_weights":[-3.0061922E-3,-1.7219206E-2,1.3967404E-1,3.5717085E-2,-4.1076403E-2,-4.8482753E-2,2.8169623E-1,-2.0348655E-1,-1.5416764E-2,-2.0819649E-3,-1.1258193E-1,4.2141837E-5,-7.565988E-2,-1.4001131E-1,8.2457826E-2,-8.49835E-3,1.0241999E-2,2.411322E-2,-1.8659895E-2],"categories":[],"categories_nodes":[],"categories_segments":[],"categories_sizes":[],"default_left":[1,1,0,1,1,1,0,0,1,1,0,1,0,0,0,0,1,0,0],"id":29,"left_children":[1,3,-1,5,7,9,-1,-1,11,13,-1,15,-1,-1,-1,-1,17,-1,-1],"loss_changes":[7.573443E-2,4.4121284E-2,0E0,2.4205244E-1,9.582561E-2,2.6737642E-2,0E0,0E0,2.0108838E-2,8.476529E-2,0E0,1.6707142E-3,0E0,0E0,0E0,0E0,3.9532576E-3,0E0,0E0],"parents":[2147483647,0,0,1,1,3,3,4,4,5,5,8,8,9,9,11,11,16,16],"right_children":[2,4,-1,6,8,10,-1,-1,12,14,-1,16,-1,-1,-1,-1,18,-1,-1],"split_conditions":[8.8478255E-1,7.5595236E-1,4.1902214E-2,6.168478E-1,7.7225673E-1,4.8076922E-1,8.450887E-2,-6.1045967E-2,8.4962404E-1,5E-1,-3.377458E-2,8.090909E-1,-2.2697965E-2,-4.2003393E-2,2.4737349E-2,-2.549505E-3,8.301436E-1,7.233966E-3,-5.5979686E-3],"split_indices":[0,0,0,0,0,0,0,0,0,2,0,0,0,0,0,0,0,0,0],"split_type":[0,0,0,0,0,0,0,0,0,0,0,0,0,0,0,0,0,0,0],"sum_hessian":[3.515995E1,3.2774456E1,2.3854935E0,1.0027501E1,2.2746956E1,8.06851E0,1.9589908E0,2.157985E0,2.0588972E1,5.2793317E0,2.7891786E0,1.7179789E1,3.4091823E0,1.7568372E0,3.5224948E0,9.441281E0,7.7385077E0,5.3408833E0,2.3976243E0],"tree_param":{"num_deleted":"0","num_feature":"3","num_nodes":"19","size_leaf_vector":"0"}},{"base_weights":[-2.3551085E-3,1.3093117E-2,-1.5517227E-1,-6.751757E-3,1.4693792E-1,-2.5482523E-1,3.464764E-2,-4.7376264E-2,1.413589E-2,1.9299004E-2,-2.4061263E-1,8.256944E-2,-1.795734E-5,-4.0341206E-2,8.252707E-2,1.15803264E-1,9.253822E-3,7.965996E-3,-1.6977524E-2,-7.7468054E-3,-4.8335087E-2,1.4461595E-2,-1.4665782E-2],"categories":[],"categories_nodes":[],"categories_segments":[],"categories_sizes":[],"default_left":[1,1,1,1,0,0,0,1,1,1,0,1,1,1,0,0,0,1,0,0,0,0,0],"id":30,"left_children":[1,3,5,7,-1,-1,-1,9,11,13,-1,15,17,19,-1,-1,-1,21,-1,-1,-1,-1,-1],"loss_changes":[8.70508E-2,9.03162E-2,7.2844416E-2,2.6332512E-2,0E0,0E0,0E0,1.3991934E-1,2.0093761E-2,3.6256157E-2,0E0,7.5910073E-3,2.5980324E-3,9.713406E-4,0E0,0E0,0E0,2.13013E-3,0E0,0E0,0E0,0E0,0E0],"parents":[2147483647,0,0,1,1,2,2,3,3,7,7,8,8,9,9,11,11,12,12,13,13,17,17],"right_children":[2,4,6,8,-1,-1,-1,10,12,14,-1,16,18,20,-1,-1,-1,22,-1,-1,-1,-1,-1],"split_conditions":[8.63354E-1,8.4962404E-1,9.045454E-1,7.434211E-1,4.408138E-2,-7.644758E-2,1.0394292E-2,5.52381E-1,7.7225673E-1,4.5299146E-1,-7.218379E-2,5E-1,5E-1,5E-1,2.4758123E-2,3.474098E-2,2.7761469E-3,8.301436E-1,-5.0932574E-3,-2.3240417E-3,-1.4500527E-2,4.3384787E-3,-4.399735E-3],"split_indices":[0,0,0,0,0,0,0,0,0,0,0,2,2,2,0,0,0,0,0,0,0,0,0],"split_type":[0,0,0,0,0,0,0,0,0,0,0,0,0,0,0,0,0,0,0,0,0,0,0],"sum_hessian":[3.5013542E1,3.2629375E1,2.3841689E0,2.9243118E1,3.3862574E0,1.3388383E0,1.0453304E0,9.499445E0,1.9743673E1,7.7317643E0,1.7676803E0,2.5552728E0,1.71884E1,4.165041E0,3.5667236E0,1.359498E0,1.1957748E0,1.2047273E1,5.1411276E0,1.2081206E0,2.9569201E0,9.6411495E0,2.4061232E0],"tree_param":{"num_deleted":"0","num_feature":"3","num_nodes":"23","size_leaf_vector":"0"}},{"base_weights":[-2.9842302E-3,-1.6970184E-2,1.3718984E-1,3.582698E-2,-4.076099E-2,1.7222217E-1,2.950784E-2,-4.214297E-2,2.6178768E-1,-1.8669192E-3,-1.2035413E-1,2.5130186E-2,-9.476253E-2,2.0678218E-2,-9.514331E-2,-3.220615E-1,-1.490152E-2,-1.175034E-1,1.473865E-1,-3.7232824E-2,-1.5341263E-1,9.449786E-2,5.5792253E-3,-4.7641965E-3,2.6264185E-2],"categories":[],"categories_nodes":[],"categories_segments":[],"categories_sizes":[],"default_left":[1,1,1,1,1,0,0,1,0,1,1,1,1,1,0,0,0,0,0,0,0,0,1,0,0],"id":31,"left_children":[1,3,5,7,9,-1,-1,11,-1,13,15,17,19,21,-1,-1,-1,-1,-1,-1,-1,-1,23,-1,-1],"loss_changes":[7.286183E-2,4.3669716E-2,7.6465234E-3,2.0431595E-1,7.29365E-2,0E0,0E0,3.4302775E-2,0E0,3.7488386E-2,1.5987656E-1,1.00115664E-1,1.2067959E-2,1.5550604E-2,0E0,0E0,0E0,0E0,0E0,0E0,0E0,0E0,2.9146613E-3,0E0,0E0],"parents":[2147483647,0,0,1,1,2,2,3,3,4,4,7,7,9,9,10,10,11,11,12,12,13,13,22,22],"right_children":[2,4,6,8,10,-1,-1,12,-1,14,16,18,20,22,-1,-1,-1,-1,-1,-1,-1,-1,24,-1,-1],"split_conditions":[8.8478255E-1,7.5595236E-1,9.045454E-1,6.168478E-1,5E-1,5.166665E-2,8.852352E-3,5E-1,7.853631E-2,8.4962404E-1,8.090909E-1,4.8076922E-1,4.4505495E-1,7.809524E-1,-2.8542994E-2,-9.661846E-2,-4.470456E-3,-3.525102E-2,4.4215955E-2,-1.1169847E-2,-4.602379E-2,2.8349359E-2,8.090909E-1,-1.429259E-3,7.879256E-3],"split_indices":[0,0,0,0,2,0,0,2,0,0,0,0,0,0,0,0,0,0,0,0,0,0,0,0,0],"split_type":[0,0,0,0,0,0,0,0,0,0,0,0,0,0,0,0,0,0,0,0,0,0,0,0,0],"sum_hessian":[3.497799E1,3.2603855E1,2.374135E0,9.970701E0,2.2633154E1,1.3391185E0,1.0350164E0,8.017633E0,1.9530685E0,1.5891199E1,6.741955E0,3.7481318E0,4.269501E0,1.3424723E1,2.4664764E0,1.6094147E0,5.1325397E0,1.7478421E0,2.0002897E0,2.9806347E0,1.2888665E0,1.3866713E0,1.2038051E1,8.538227E0,3.499824E0],"tree_param":{"num_deleted":"0","num_feature":"3","num_nodes":"25","size_leaf_vector":"0"}},{"base_weights":[-2.2840947E-3,1.2651764E-2,-1.4890344E-1,-2.4278041E-2,7.117937E-2,-2.3475108E-1,2.5135532E-2,-9.393221E-2,-8.957949E-4,-7.630663E-2,1.5128241E-1,-1.8661581E-2,-2.0210192E-1,2.5076153E-2,-5.3456783E-2,-2.8711444E-2,-1.2544222E-1,5.117693E-1,1.772405E-2,-9.5142E-2,7.2577134E-2,7.717882E-2,1.08992085E-2,-1.7147314E-2,-7.331262E-2,-2.7674654E-1,1.364461E-1,-3.4828535E-3,7.165177E-2],"categories":[],"categories_nodes":[],"categories_segments":[],"categories_sizes":[],"default_left":[1,1,1,1,1,0,0,1,1,1,1,1,0,1,1,0,0,0,1,0,0,0,1,0,0,0,0,0,0],"id":32,"left_children":[1,3,5,7,9,-1,-1,11,13,15,17,19,-1,21,23,-1,-1,-1,25,-1,-1,-1,27,-1,-1,-1,-1,-1,-1],"loss_changes":[8.055974E-2,7.41941E-2,5.6696042E-2,3.4609955E-2,1.6778558E-1,0E0,0E0,3.974006E-2,2.4490051E-2,8.838536E-3,4.1969854E-1,3.658242E-2,0E0,8.04518E-3,3.0163862E-3,0E0,0E0,0E0,3.011496E-1,0E0,0E0,0E0,9.530168E-3,0E0,0E0,0E0,0E0,0E0,0E0],"parents":[2147483647,0,0,1,1,2,2,3,3,4,4,7,7,8,8,9,9,10,10,11,11,13,13,14,14,18,18,22,22],"right_children":[2,4,6,8,10,-1,-1,12,14,16,18,20,-1,22,24,-1,-1,-1,26,-1,-1,-1,28,-1,-1,-1,-1,-1,-1],"split_conditions":[8.63354E-1,5E-1,9.045454E-1,7.4937344E-1,6.125E-1,-7.0425324E-2,7.54066E-3,5.1666665E-1,8.301436E-1,4.4505495E-1,7.5595236E-1,4.8076922E-1,-6.063058E-2,7.809524E-1,8.4962404E-1,-8.613434E-3,-3.7632667E-2,1.5353079E-1,8.090909E-1,-2.85426E-2,2.177314E-2,2.3153648E-2,8.090909E-1,-5.1441942E-3,-2.1993786E-2,-8.3023965E-2,4.0933833E-2,-1.0448562E-3,2.1495532E-2],"split_indices":[0,2,0,0,0,0,0,0,0,0,0,0,0,0,0,0,0,0,0,0,0,0,0,0,0,0,0,0,0],"split_type":[0,0,0,0,0,0,0,0,0,0,0,0,0,0,0,0,0,0,0,0,0,0,0,0,0,0,0,0,0],"sum_hessian":[3.4926918E1,3.252714E1,2.3997736E0,2.0302094E1,1.2225049E1,1.3734529E0,1.0263207E0,4.344091E0,1.5958004E1,4.3194523E0,7.9055963E0,3.252994E0,1.0910968E0,1.1030445E1,4.927558E0,2.9988992E0,1.3205532E0,1.3716307E0,6.5339656E0,1.7463464E0,1.5066476E0,1.4088213E0,9.621624E0,2.4008405E0,2.5267177E0,1.4949476E0,5.039018E0,8.542108E0,1.0795166E0],"tree_param":{"num_deleted":"0","num_feature":"3","num_nodes":"29","size_leaf_vector":"0"}},{"base_weights":[-2.8240343E-3,-1.7095104E-2,1.3942048E-1,3.3306576E-2,-3.377053E-2,1.8126827E-1,2.1402942E-2,-5.165371E-3,6.929584E-2,-2.7317432E-1,-5.597698E-3,2.8385105E-2,-2.2158843E-2,1.1206209E-1,2.4289265E-2,8.165269E-2,-2.3044258E-2,-1.0969918E-2,-6.495144E-2,4.2849025E-3,-4.625181E-2],"categories":[],"categories_nodes":[],"categories_segments":[],"categories_sizes":[],"default_left":[1,1,1,1,1,0,0,1,1,0,1,0,0,0,0,0,1,1,0,0,0],"id":33,"left_children":[1,3,5,7,9,-1,-1,11,13,-1,15,-1,-1,-1,-1,-1,17,19,-1,-1,-1],"loss_changes":[7.522711E-2,2.9282868E-2,1.2818895E-2,1.258692E-2,1.7161039E-1,0E0,0E0,3.5934357E-3,6.195048E-3,0E0,3.839757E-2,0E0,0E0,0E0,0E0,0E0,9.7976895E-3,9.524616E-3,0E0,0E0,0E0],"parents":[2147483647,0,0,1,1,2,2,3,3,4,4,7,7,8,8,10,10,16,16,17,17],"right_children":[2,4,6,8,10,-1,-1,12,14,-1,16,-1,-1,-1,-1,-1,18,20,-1,-1,-1],"split_conditions":[8.8478255E-1,5.52381E-1,9.045454E-1,4.5299146E-1,7.434211E-1,5.4380484E-2,6.420883E-3,5E-1,4.8076922E-1,-8.1952296E-2,7.9130435E-1,8.515532E-3,-6.647653E-3,3.361863E-2,7.28678E-3,2.4495808E-2,8.4962404E-1,5E-1,-1.9485433E-2,1.2854708E-3,-1.3875544E-2],"split_indices":[0,0,0,0,0,0,0,2,0,0,0,0,0,0,0,0,0,2,0,0,0],"split_type":[0,0,0,0,0,0,0,0,0,0,0,0,0,0,0,0,0,0,0,0,0],"sum_hessian":[3.4883926E1,3.250281E1,2.3811147E0,7.8322854E0,2.4670527E1,1.3621625E0,1.0189524E0,4.1995296E0,3.632756E0,1.6819E0,2.2988626E1,1.1865506E0,3.012979E0,1.0987725E0,2.5339835E0,3.2175367E0,1.977109E1,1.6328323E1,3.4427657E0,1.2012874E1,4.31545E0],"tree_param":{"num_deleted":"0","num_feature":"3","num_nodes":"21","size_leaf_vector":"0"}},{"base_weights":[-1.5504495E-3,1.30115915E-2,-1.438751E-1,-7.561993E-3,1.5066622E-1,-2.1989347E-1,1.822536E-2,3.1034237E-2,-2.8146632E-2,-7.9550184E-2,1.1342444E-1,-1.841996E-1,7.604213E-7,2.5013147E-2,-1.1620346E-1,-5.8085896E-2,4.5934558E-1,3.135573E-3,-1.4395116E-2,-5.1219273E-2,-1.5743348E-1,-1.7112574E-2,-1.0397849E-1,8.430765E-3,-6.6684536E-3],"categories":[],"categories_nodes":[],"categories_segments":[],"categories_sizes":[],"default_left":[1,1,1,1,0,0,0,1,1,1,1,0,1,0,1,1,0,1,0,0,0,0,0,0,0],"id":34,"left_children":[1,3,5,7,-1,-1,-1,9,11,13,15,-1,17,-1,19,21,-1,23,-1,-1,-1,-1,-1,-1,-1],"loss_changes":[7.620573E-2,9.588285E-2,4.6052128E-2,2.4753004E-2,0E0,0E0,0E0,1.0860695E-1,8.840505E-2,2.304424E-2,4.2274356E-1,0E0,8.597453E-4,0E0,2.834864E-3,8.2819145E-3,0E0,8.683769E-4,0E0,0E0,0E0,0E0,0E0,0E0,0E0],"parents":[2147483647,0,0,1,1,2,2,3,3,7,7,8,8,9,9,10,10,12,12,14,14,15,15,17,17],"right_children":[2,4,6,8,-1,-1,-1,10,12,14,16,-1,18,-1,20,22,-1,24,-1,-1,-1,-1,-1,-1,-1],"split_conditions":[8.63354E-1,8.4962404E-1,9.045454E-1,7.5595236E-1,4.5199867E-2,-6.5968044E-2,5.4676086E-3,5E-1,7.7225673E-1,4.3650794E-1,6.125E-1,-5.5259883E-2,8.301436E-1,7.5039444E-3,5.1666665E-1,4.4505495E-1,1.3780367E-1,5E-1,-4.318535E-3,-1.5365782E-2,-4.7230046E-2,-5.1337723E-3,-3.1193549E-2,2.5292295E-3,-2.000536E-3],"split_indices":[0,0,0,0,0,0,0,2,0,0,0,0,0,0,0,0,0,2,0,0,0,0,0,0,0],"split_type":[0,0,0,0,0,0,0,0,0,0,0,0,0,0,0,0,0,0,0,0,0,0,0,0,0],"sum_hessian":[3.4866028E1,3.245405E1,2.411979E0,2.9056402E1,3.3976457E0,1.3992591E0,1.01272E0,9.929998E0,1.9126402E1,4.254314E0,5.675685E0,2.0754907E0,1.705091E1,1.1866499E0,3.067664E0,4.350672E0,1.3250128E0,1.4644212E1,2.4067E0,2.061204E0,1.0064602E0,3.0238419E0,1.32683E0,9.599537E0,5.0446754E0],"tree_param":{"num_deleted":"0","num_feature":"3","num_nodes":"25","size_leaf_vector":"0"}},{"base_weights":[-1.6612082E-3,-1.6049238E-2,1.40431E-1,3.8820587E-2,-3.4502026E-2,1.868447E-1,1.5528661E-2,-1.9592901E-3,7.646397E-2,-2.6244006E-1,-8.256319E-3,1.965371E-2,-1.3221672E-2,3.4180183E-2,1.1122616E-1,7.647568E-2,-2.4913333E-2,-8.715234E-3,-8.3306536E-2,2.0350453E-3,-3.3393275E-2],"categories":[],"categories_nodes":[],"categories_segments":[],"categories_sizes":[],"default_left":[1,1,1,1,1,0,0,1,1,0,1,0,0,0,0,0,1,1,0,0,0],"id":35,"left_children":[1,3,5,7,9,-1,-1,11,13,-1,15,-1,-1,-1,-1,-1,17,19,-1,-1,-1],"loss_changes":[7.5215995E-2,3.5060033E-2,1.671639E-2,1.373861E-2,1.500983E-1,0E0,0E0,1.531461E-3,3.0009355E-3,0E0,3.557606E-2,0E0,0E0,0E0,0E0,0E0,1.8845238E-2,4.661565E-3,0E0,0E0,0E0],"parents":[2147483647,0,0,1,1,2,2,3,3,4,4,7,7,8,8,10,10,16,16,17,17],"right_children":[2,4,6,8,10,-1,-1,12,14,-1,16,-1,-1,-1,-1,-1,18,20,-1,-1,-1],"split_conditions":[8.8478255E-1,5.52381E-1,9.045454E-1,4.5299146E-1,7.434211E-1,5.6053415E-2,4.6585985E-3,5E-1,5E-1,-7.873202E-2,7.9130435E-1,5.8961133E-3,-3.966502E-3,1.0254055E-2,3.336785E-2,2.2942705E-2,8.4962404E-1,5E-1,-2.4991961E-2,6.105136E-4,-1.0017983E-2],"split_indices":[0,0,0,0,0,0,0,2,2,0,0,0,0,0,0,0,0,2,0,0,0],"split_type":[0,0,0,0,0,0,0,0,0,0,0,0,0,0,0,0,0,0,0,0,0],"sum_hessian":[3.4688328E1,3.23043E1,2.384031E0,7.852101E0,2.4452198E1,1.3765709E0,1.0074602E0,4.224049E0,3.6280518E0,1.5955815E0,2.2856615E1,1.1918197E0,3.0322297E0,2.531753E0,1.0962986E0,3.1650796E0,1.9691536E1,1.6315042E1,3.376493E0,1.200357E1,4.311474E0],"tree_param":{"num_deleted":"0","num_feature":"3","num_nodes":"21","size_leaf_vector":"0"}},{"base_weights":[-6.5858266E-4,1.3679724E-2,-1.398582E-1,-4.662199E-3,1.3700548E-1,-2.0880859E-1,1.32175945E-2,3.513083E-2,-2.2941122E-2,5.7674604E-3,1.210517E-1,-1.2313938E-1,8.403485E-4,3.0933864E-2,-4.8048478E-2,3.393142E-4,-1.6486816E-1,3.5341952E-3,-1.1753196E-2,-9.230337E-2,9.8265946E-2,4.9953046E-4,7.953016E-3],"categories":[],"categories_nodes":[],"categories_segments":[],"categories_sizes":[],"default_left":[1,1,1,1,0,0,0,1,1,1,0,1,1,1,0,0,0,1,0,0,0,0,0],"id":36,"left_children":[1,3,5,7,-1,-1,-1,9,11,13,-1,15,17,19,-1,-1,-1,21,-1,-1,-1,-1,-1],"loss_changes":[7.313164E-2,7.587672E-2,3.8871102E-2,2.2570377E-2,0E0,0E0,0E0,2.4060272E-2,5.040229E-2,1.2814005E-2,0E0,2.0953763E-2,6.5398065E-4,6.1406523E-2,0E0,0E0,0E0,2.0576027E-4,0E0,0E0,0E0,0E0,0E0],"parents":[2147483647,0,0,1,1,2,2,3,3,7,7,8,8,9,9,11,11,12,12,13,13,17,17],"right_children":[2,4,6,8,-1,-1,-1,10,12,14,-1,16,18,20,-1,-1,-1,22,-1,-1,-1,-1,-1],"split_conditions":[8.63354E-1,8.4962404E-1,9.045454E-1,6.8115944E-1,4.1101646E-2,-6.264258E-2,3.9652786E-3,5.1666665E-1,7.7225673E-1,4.8076922E-1,3.6315512E-2,7.5595236E-1,8.301436E-1,5E-1,-1.4414544E-2,1.0179426E-4,-4.9460452E-2,8.090909E-1,-3.5259589E-3,-2.7691012E-2,2.9479785E-2,1.4985914E-4,2.385905E-3],"split_indices":[0,0,0,0,0,0,0,0,0,0,0,0,0,2,0,0,0,0,0,0,0,0,0],"split_type":[0,0,0,0,0,0,0,0,0,0,0,0,0,0,0,0,0,0,0,0,0,0,0],"sum_hessian":[3.4682594E1,3.2261242E1,2.4213548E0,2.892195E1,3.3392913E0,1.4183825E0,1.0029724E0,8.81338E0,2.010857E1,7.3639007E0,1.44948E0,3.0557692E0,1.70528E1,5.307228E0,2.0566726E0,1.022369E0,2.0334E0,1.4640467E1,2.4123333E0,1.7441181E0,3.5631096E0,9.339517E0,5.30095E0],"tree_param":{"num_deleted":"0","num_feature":"3","num_nodes":"23","size_leaf_vector":"0"}},{"base_weights":[-1.5837091E-3,-1.6054247E-2,1.4056377E-1,-4.190191E-3,-9.382548E-2,2.729924E-2,-1.8571556E-2,2.6540137E-3,9.99326E-2,-1.003355E-1,5.3395197E-4,2.2297539E-2,-3.831048E-2,2.8782315E-4,-1.3507652E-1,2.6366112E-3,-9.243491E-3,-7.475141E-2,7.646583E-2,5.237986E-3,-2.34824E-3],"categories":[],"categories_nodes":[],"categories_segments":[],"categories_sizes":[],"default_left":[1,1,0,1,0,1,1,1,0,1,1,1,0,0,0,1,0,0,0,0,0],"id":37,"left_children":[1,3,-1,5,-1,7,9,11,-1,13,15,17,-1,-1,-1,19,-1,-1,-1,-1,-1],"loss_changes":[7.531267E-2,3.017775E-2,0E0,1.3999522E-2,0E0,1.718048E-2,3.2933746E-2,7.536389E-3,0E0,1.3993885E-2,3.9558124E-4,3.8544398E-2,0E0,0E0,0E0,2.1509122E-4,0E0,0E0,0E0,0E0,0E0],"parents":[2147483647,0,0,1,1,3,3,5,5,6,6,7,7,9,9,10,10,11,11,15,15],"right_children":[2,4,-1,6,-1,8,10,12,-1,14,16,18,-1,-1,-1,20,-1,-1,-1,-1,-1],"split_conditions":[8.8478255E-1,8.4962404E-1,4.216913E-2,6.8115944E-1,-2.8147645E-2,5.1666665E-1,7.7225673E-1,4.8076922E-1,2.9979782E-2,7.5595236E-1,8.301436E-1,5E-1,-1.1493145E-2,8.634695E-5,-4.052296E-2,5E-1,-2.7730474E-3,-2.2425422E-2,2.2939749E-2,1.5713958E-3,-7.04472E-4],"split_indices":[0,0,0,0,0,0,0,0,0,0,0,2,0,0,0,2,0,0,0,0,0],"split_type":[0,0,0,0,0,0,0,0,0,0,0,0,0,0,0,0,0,0,0,0,0],"sum_hessian":[3.451667E1,3.2132645E1,2.3840265E0,2.879398E1,3.3386629E0,8.745845E0,2.0048136E1,7.304048E0,1.4417968E0,2.9919844E0,1.705615E1,5.244745E0,2.0593033E0,1.0224094E0,1.9695749E0,1.4638458E1,2.417693E0,1.7426305E0,3.5021143E0,9.585451E0,5.053007E0],"tree_param":{"num_deleted":"0","num_feature":"3","num_nodes":"21","size_leaf_vector":"0"}},{"base_weights":[-1.3002729E-3,1.3348116E-2,-1.4261906E-1,-3.7435829E-3,1.2818415E-1,-3.9740928E-2,1.4598511E-2,2.4240477E-2,-2.4306856E-1,1.0363002E-1,-7.266262E-3,-2.0051146E-2,6.830694E-2,1.1928978E-3,-2.6613742E-2,4.3847203E-2,-5.0167874E-2,9.7461835E-2,3.199356E-2,-8.057943E-3,2.063033E-2],"categories":[],"categories_nodes":[],"categories_segments":[],"categories_sizes":[],"default_left":[1,1,0,1,0,1,1,1,0,0,1,1,1,1,0,0,0,0,0,0,0],"id":38,"left_children":[1,3,-1,5,-1,7,9,11,-1,-1,13,15,17,19,-1,-1,-1,-1,-1,-1,-1],"loss_changes":[7.518532E-2,6.52304E-2,0E0,2.0181818E-2,0E0,1.3975099E-1,4.04607E-2,1.8420413E-2,0E0,0E0,2.8648695E-3,1.2071858E-2,1.7583631E-3,2.504093E-3,0E0,0E0,0E0,0E0,0E0,0E0,0E0],"parents":[2147483647,0,0,1,1,3,3,5,5,6,6,7,7,10,10,11,11,12,12,13,13],"right_children":[2,4,-1,6,-1,8,10,12,-1,-1,14,16,18,20,-1,-1,-1,-1,-1,-1,-1],"split_conditions":[8.63354E-1,8.4962404E-1,-4.278572E-2,7.434211E-1,3.8455248E-2,5.52381E-1,7.9130435E-1,4.5299146E-1,-7.292057E-2,3.1089008E-2,5E-1,5E-1,4.8076922E-1,8.090909E-1,-7.984123E-3,1.3154161E-2,-1.5050363E-2,2.9238552E-2,9.598069E-3,-2.4173828E-3,6.189099E-3],"split_indices":[0,0,0,0,0,0,0,0,0,0,2,2,0,0,0,0,0,0,0,0,0],"split_type":[0,0,0,0,0,0,0,0,0,0,0,0,0,0,0,0,0,0,0,0,0],"sum_hessian":[3.4400166E1,3.198981E1,2.4103556E0,2.868749E1,3.3023212E0,9.289566E0,1.9397924E1,7.7360373E0,1.553529E0,3.0872629E0,1.6310661E1,4.129957E0,3.60608E0,1.2001622E1,4.3090396E0,1.1769423E0,2.9530149E0,1.0661728E0,2.5399075E0,8.528231E0,3.4733913E0],"tree_param":{"num_deleted":"0","num_feature":"3","num_nodes":"21","size_leaf_vector":"0"}},{"base_weights":[-1.1978928E-3,-1.5727872E-2,1.4094195E-1,-2.9554395E-3,-1.0002872E-1,2.6136521E-2,-1.8361388E-2,-2.7124243E-2,1.9469929E-1,1.8180901E-2,-9.4560444E-2,3.305623E-2,-7.615899E-2,1.0381607E-1,1.1298723E-3,-2.4295124E-1,-8.479318E-3,-7.226876E-2,1.1800868E-1,-3.863748E-2,-1.0807762E-1,-5.889503E-3,1.5888706E-2],"categories":[],"categories_nodes":[],"categories_segments":[],"categories_sizes":[],"default_left":[1,1,0,1,0,1,1,1,0,1,1,1,1,0,1,0,0,0,0,0,0,0,0],"id":39,"left_children":[1,3,-1,5,-1,7,9,11,-1,13,15,17,19,-1,21,-1,-1,-1,-1,-1,-1,-1,-1],"loss_changes":[7.537052E-2,3.527429E-2,0E0,1.3799665E-2,0E0,1.0136028E-1,5.7456758E-2,2.9105566E-2,0E0,2.0862162E-2,8.287608E-2,5.09633E-2,2.132628E-3,0E0,1.4396295E-3,0E0,0E0,0E0,0E0,0E0,0E0,0E0,0E0],"parents":[2147483647,0,0,1,1,3,3,5,5,6,6,7,7,9,9,10,10,11,11,12,12,14,14],"right_children":[2,4,-1,6,-1,8,10,12,-1,14,16,18,20,-1,22,-1,-1,-1,-1,-1,-1,-1,-1],"split_conditions":[8.8478255E-1,8.4962404E-1,4.2282585E-2,7.5595236E-1,-3.0008618E-2,6.168478E-1,5E-1,5E-1,5.8409788E-2,7.809524E-1,8.090909E-1,4.8076922E-1,4.4505495E-1,3.1144822E-2,8.090909E-1,-7.288538E-2,-2.5437954E-3,-2.1680629E-2,3.5402607E-2,-1.15912445E-2,-3.2423288E-2,-1.7668509E-3,4.766612E-3],"split_indices":[0,0,0,0,0,0,2,2,0,0,0,0,0,0,0,0,0,0,0,0,0,0,0],"split_type":[0,0,0,0,0,0,0,0,0,0,0,0,0,0,0,0,0,0,0,0,0,0,0],"sum_hessian":[3.4420616E1,3.2035225E1,2.385392E0,2.8719055E1,3.3161695E0,9.701888E0,1.9017168E1,8.010041E0,1.6918467E0,1.3367841E1,5.649327E0,3.7425997E0,4.2674413E0,1.3747748E0,1.1993066E1,1.4049882E0,4.2443385E0,1.7376033E0,2.0049965E0,2.9776294E0,1.289812E0,8.534816E0,3.4582505E0],"tree_param":{"num_deleted":"0","num_feature":"3","num_nodes":"23","size_leaf_vector":"0"}},{"base_weights":[-8.536193E-4,1.3528511E-2,-1.3938822E-1,-2.6098194E-3,1.22405246E-1,-3.4208957E-2,1.355388E-2,2.52076E-2,-2.2602157E-1,8.6900085E-2,-4.5352676E-3,-2.6275073E-3,5.090269E-2,1.0251254E-3,-1.7299663E-2,4.851657E-2,-2.979084E-2,1.0255708E-2,9.625634E-2,6.108648E-3,-1.50716705E-2],"categories":[],"categories_nodes":[],"categories_segments":[],"categories_sizes":[],"default_left":[1,1,0,1,0,1,1,1,0,0,1,1,1,1,0,0,0,0,0,0,0],"id":40,"left_children":[1,3,-1,5,-1,7,9,11,-1,-1,13,15,17,19,-1,-1,-1,-1,-1,-1,-1],"loss_changes":[7.241457E-2,5.826958E-2,0E0,1.5634412E-2,0E0,1.23489834E-1,2.7416235E-2,6.4211544E-3,0E0,0E0,1.2447482E-3,8.62857E-3,7.5301146E-3,1.1547107E-3,0E0,0E0,0E0,0E0,0E0,0E0,0E0],"parents":[2147483647,0,0,1,1,3,3,5,5,6,6,7,7,10,10,11,11,12,12,13,13],"right_children":[2,4,-1,6,-1,8,10,12,-1,-1,14,16,18,20,-1,-1,-1,-1,-1,-1,-1],"split_conditions":[8.63354E-1,8.4962404E-1,-4.1816466E-2,7.434211E-1,3.6721576E-2,5.52381E-1,7.9130435E-1,4.5299146E-1,-6.7806475E-2,2.6070027E-2,5E-1,5E-1,5E-1,8.301436E-1,-5.1898994E-3,1.4554972E-2,-8.937252E-3,3.0767126E-3,2.8876903E-2,1.8325945E-3,-4.5215013E-3],"split_indices":[0,0,0,0,0,0,0,0,0,0,2,2,2,0,0,0,0,0,0,0,0],"split_type":[0,0,0,0,0,0,0,0,0,0,0,0,0,0,0,0,0,0,0,0,0],"sum_hessian":[3.4398537E1,3.1980764E1,2.4177747E0,2.8702366E1,3.2783988E0,9.335525E0,1.936684E1,7.790801E0,1.5447239E0,3.0788822E0,1.6287958E1,4.170598E0,3.6202033E0,1.1986235E1,4.3017235E0,1.1740152E0,2.9965825E0,2.5557811E0,1.0644221E0,9.580976E0,2.4052587E0],"tree_param":{"num_deleted":"0","num_feature":"3","num_nodes":"21","size_leaf_vector":"0"}},{"base_weights":[-9.936863E-4,-1.5477238E-2,1.4065655E-1,-2.255902E-3,-1.0319778E-1,2.9648041E-2,-1.701644E-2,1.1256323E-3,1.13887385E-1,-1.10774525E-1,4.4123684E-3,2.8635902E-2,-5.5290926E-2,7.6843514E-3,-1.1849209E-2,-6.533385E-2,7.946947E-2,2.6922857E-3,1.4667825E-2],"categories":[],"categories_nodes":[],"categories_segments":[],"categories_sizes":[],"default_left":[1,1,0,1,0,1,1,1,0,0,1,1,0,1,0,0,0,0,0],"id":41,"left_children":[1,3,-1,5,-1,7,9,11,-1,-1,13,15,-1,17,-1,-1,-1,-1,-1],"loss_changes":[7.483447E-2,3.807564E-2,0E0,1.4503384E-2,0E0,2.334043E-2,4.2598274E-2,1.4475909E-2,0E0,0E0,1.0499444E-3,3.5012737E-2,0E0,5.0468993E-4,0E0,0E0,0E0,0E0,0E0],"parents":[2147483647,0,0,1,1,3,3,5,5,6,6,7,7,10,10,11,11,13,13],"right_children":[2,4,-1,6,-1,8,10,12,-1,-1,14,16,-1,18,-1,-1,-1,-1,-1],"split_conditions":[8.8478255E-1,8.4962404E-1,4.2196967E-2,6.8115944E-1,-3.0959336E-2,5.1666665E-1,7.7225673E-1,4.8076922E-1,3.4166217E-2,-3.3232357E-2,8.301436E-1,5E-1,-1.6587278E-2,8.090909E-1,-3.5547628E-3,-1.9600157E-2,2.3840843E-2,8.076857E-4,4.400348E-3],"split_indices":[0,0,0,0,0,0,0,0,0,0,0,2,0,0,0,0,0,0,0],"split_type":[0,0,0,0,0,0,0,0,0,0,0,0,0,0,0,0,0,0,0],"sum_hessian":[3.4415066E1,3.2030704E1,2.3843617E0,2.8726702E1,3.3040028E0,8.76757E0,1.9959131E1,7.3069034E0,1.4606658E0,2.9374409E0,1.702169E1,5.242793E0,2.0641103E0,1.4609562E1,2.4121284E0,1.7403579E0,3.5024352E0,9.327451E0,5.2821116E0],"tree_param":{"num_deleted":"0","num_feature":"3","num_nodes":"19","size_leaf_vector":"0"}},{"base_weights":[-5.658458E-4,1.3625022E-2,-1.3670215E-1,-1.9189225E-3,1.1845036E-1,-3.1639308E-2,1.3125355E-2,1.8509934E-2,-1.9434495E-1,8.609911E-2,-4.878887E-3,-1.0136051E-2,4.6511613E-2,-1.2658909E-2,4.2614406E-3,5.1280092E-2,-4.117081E-2,8.889358E-2,8.990671E-3,1.5131369E-2,-5.7827467E-3],"categories":[],"categories_nodes":[],"categories_segments":[],"categories_sizes":[],"default_left":[1,1,0,1,0,1,1,1,0,0,1,1,1,0,1,0,0,0,0,0,0],"id":42,"left_children":[1,3,-1,5,-1,7,9,11,-1,-1,13,15,17,-1,19,-1,-1,-1,-1,-1,-1],"loss_changes":[7.0068695E-2,5.3805023E-2,0E0,1.3658902E-2,0E0,8.721372E-2,2.718566E-2,7.4871755E-3,0E0,0E0,1.283249E-3,1.1916815E-2,6.5186713E-3,0E0,1.0370034E-3,0E0,0E0,0E0,0E0,0E0,0E0],"parents":[2147483647,0,0,1,1,3,3,5,5,6,6,7,7,10,10,11,11,12,12,14,14],"right_children":[2,4,-1,6,-1,8,10,12,-1,-1,14,16,18,-1,20,-1,-1,-1,-1,-1,-1],"split_conditions":[8.63354E-1,8.4962404E-1,-4.1010648E-2,7.434211E-1,3.553511E-2,5.52381E-1,7.9130435E-1,4.5299146E-1,-5.8303487E-2,2.5829734E-2,8.090909E-1,5E-1,4.8076922E-1,-3.797673E-3,5E-1,1.5384029E-2,-1.2351244E-2,2.6668074E-2,2.6972012E-3,4.539411E-3,-1.734824E-3],"split_indices":[0,0,0,0,0,0,0,0,0,0,0,2,0,0,2,0,0,0,0,0,0],"split_type":[0,0,0,0,0,0,0,0,0,0,0,0,0,0,0,0,0,0,0,0,0],"sum_hessian":[3.4305347E1,3.1881891E1,2.4234564E0,2.861973E1,3.2621605E0,9.247655E0,1.9372076E1,7.7463164E0,1.5013381E0,3.085193E0,1.6286882E1,4.1444864E0,3.6018298E0,8.59018E0,7.696702E0,1.1722741E0,2.9722123E0,1.0484151E0,2.5534148E0,3.453167E0,4.243535E0],"tree_param":{"num_deleted":"0","num_feature":"3","num_nodes":"21","size_leaf_vector":"0"}},{"base_weights":[-4.9120263E-4,-1.4885462E-2,1.3992763E-1,-1.3935313E-3,-1.04521304E-1,2.9789263E-2,-1.7929174E-2,-2.803215E-2,2.1575604E-1,-1.4181204E-1,3.4660248E-3,1.9511996E-2,-9.8037265E-2,6.7405887E-3,-1.2550939E-2,-6.504716E-2,6.699047E-2,3.259759E-3,1.1407678E-2],"categories":[],"categories_nodes":[],"categories_segments":[],"categories_sizes":[],"default_left":[1,1,0,1,0,1,1,1,0,0,1,1,0,1,0,0,0,0,0],"id":43,"left_children":[1,3,-1,5,-1,7,9,11,-1,-1,13,15,-1,17,-1,-1,-1,-1,-1],"loss_changes":[7.3507056E-2,3.9709233E-2,0E0,1.5826264E-2,0E0,1.205958E-1,5.3513758E-2,3.190507E-2,0E0,0E0,1.0304936E-3,2.9250963E-2,0E0,2.1663168E-4,0E0,0E0,0E0,0E0,0E0],"parents":[2147483647,0,0,1,1,3,3,5,5,6,6,7,7,10,10,11,11,13,13],"right_children":[2,4,-1,6,-1,8,10,12,-1,-1,14,16,-1,18,-1,-1,-1,-1,-1],"split_conditions":[8.8478255E-1,8.4962404E-1,4.197829E-2,7.5595236E-1,-3.1356394E-2,6.168478E-1,7.7225673E-1,4.8076922E-1,6.4726815E-2,-4.2543612E-2,8.301436E-1,5E-1,-2.941118E-2,8.090909E-1,-3.7652818E-3,-1.9514149E-2,2.0097142E-2,9.779277E-4,3.4223036E-3],"split_indices":[0,0,0,0,0,0,0,0,0,0,0,2,0,0,0,0,0,0,0],"split_type":[0,0,0,0,0,0,0,0,0,0,0,0,0,0,0,0,0,0,0],"sum_hessian":[3.433707E1,3.1955338E1,2.3817322E0,2.865739E1,3.2979457E0,9.652762E0,1.9004627E1,8.011167E0,1.6415962E0,1.969953E0,1.7034676E1,5.200507E0,2.8106596E0,1.4624043E1,2.4106314E0,1.7369553E0,3.4635515E0,9.34945E0,5.2745934E0],"tree_param":{"num_deleted":"0","num_feature":"3","num_nodes":"19","size_leaf_vector":"0"}},{"base_weights":[-1.3428701E-4,1.3892179E-2,-1.343407E-1,-1.1996324E-3,1.1557581E-1,2.7648395E-2,-1.4500344E-2,7.055748E-4,1.0717428E-1,-9.018245E-2,2.4620215E-3,1.390995E-2,-2.5994135E-2,-3.789571E-2,-1.14471905E-1,5.0016493E-3,-9.869896E-3,-5.269253E-2,5.1959332E-2,2.3768756E-3,8.534296E-3],"categories":[],"categories_nodes":[],"categories_segments":[],"categories_sizes":[],"default_left":[1,1,0,1,0,1,1,1,0,1,1,1,0,0,0,1,0,0,0,0,0],"id":44,"left_children":[1,3,-1,5,-1,7,9,11,-1,13,15,17,-1,-1,-1,19,-1,-1,-1,-1,-1],"loss_changes":[6.819769E-2,5.0486863E-2,0E0,1.1742476E-2,0E0,2.0647418E-2,2.7035402E-2,3.2633718E-3,0E0,5.5253133E-4,6.14227E-4,1.8344946E-2,0E0,0E0,0E0,1.2454702E-4,0E0,0E0,0E0,0E0,0E0],"parents":[2147483647,0,0,1,1,3,3,5,5,6,6,7,7,9,9,10,10,11,11,15,15],"right_children":[2,4,-1,6,-1,8,10,12,-1,14,16,18,-1,-1,-1,20,-1,-1,-1,-1,-1],"split_conditions":[8.63354E-1,8.4962404E-1,-4.0302213E-2,6.8115944E-1,3.4672745E-2,5.1666665E-1,7.7225673E-1,4.8076922E-1,3.2152284E-2,5E-1,8.301436E-1,5E-1,-7.798241E-3,-1.1368713E-2,-3.4341574E-2,8.090909E-1,-2.960969E-3,-1.5807759E-2,1.55878E-2,7.130627E-4,2.560289E-3],"split_indices":[0,0,0,0,0,0,0,0,0,2,0,2,0,0,0,0,0,0,0,0,0],"split_type":[0,0,0,0,0,0,0,0,0,0,0,0,0,0,0,0,0,0,0,0,0],"sum_hessian":[3.4236893E1,3.1808899E1,2.4279926E0,2.8558472E1,3.2504258E0,8.671679E0,1.9886793E1,7.2308044E0,1.4408743E0,2.8507578E0,1.7036036E1,5.158623E0,2.0721812E0,1.71631E0,1.1344479E0,1.4619681E1,2.4163544E0,1.7356527E0,3.4229705E0,9.347371E0,5.27231E0],"tree_param":{"num_deleted":"0","num_feature":"3","num_nodes":"21","size_leaf_vector":"0"}},{"base_weights":[-7.5867336E-4,-1.5123841E-2,1.3890131E-1,-1.5618546E-3,-1.04721576E-1,-3.2537036E-2,1.3996517E-2,1.8506033E-2,-1.9847657E-1,9.2571795E-2,-5.1957904E-3,-1.9168824E-2,5.6357387E-2,1.2475098E-3,-1.9995537E-2,6.2206637E-2,-5.908595E-2,7.782626E-2,2.8303929E-2,-4.78346E-3,1.3902838E-2],"categories":[],"categories_nodes":[],"categories_segments":[],"categories_sizes":[],"default_left":[1,1,0,1,0,1,1,1,0,0,1,1,1,1,0,0,0,0,0,0,0],"id":45,"left_children":[1,3,-1,5,-1,7,9,11,-1,-1,13,15,17,19,-1,-1,-1,-1,-1,-1,-1],"loss_changes":[7.265398E-2,3.967899E-2,0E0,1.466897E-2,0E0,8.974434E-2,3.1141842E-2,1.3467024E-2,0E0,0E0,1.6734418E-3,2.0239722E-2,5.596634E-4,1.0575743E-3,0E0,0E0,0E0,0E0,0E0,0E0,0E0],"parents":[2147483647,0,0,1,1,3,3,5,5,6,6,7,7,10,10,11,11,12,12,13,13],"right_children":[2,4,-1,6,-1,8,10,12,-1,-1,14,16,18,20,-1,-1,-1,-1,-1,-1,-1],"split_conditions":[8.8478255E-1,8.4962404E-1,4.1670393E-2,7.434211E-1,-3.1416476E-2,5.52381E-1,7.9130435E-1,4.5299146E-1,-5.9542973E-2,2.777154E-2,5E-1,5E-1,4.8076922E-1,8.090909E-1,-5.9986613E-3,1.8661993E-2,-1.7725786E-2,2.3347879E-2,8.491179E-3,-1.435038E-3,4.170852E-3],"split_indices":[0,0,0,0,0,0,0,0,0,0,2,2,0,0,0,0,0,0,0,0,0],"split_type":[0,0,0,0,0,0,0,0,0,0,0,0,0,0,0,0,0,0,0,0,0],"sum_hessian":[3.4166927E1,3.178889E1,2.3780375E0,2.849341E1,3.2954812E0,9.161828E0,1.9331583E1,7.6860676E0,1.4757603E0,3.0443442E0,1.628724E1,4.099379E0,3.5866883E0,1.1985063E1,4.302176E0,1.1653303E0,2.934049E0,1.0267329E0,2.5599554E0,8.538169E0,3.4468935E0],"tree_param":{"num_deleted":"0","num_feature":"3","num_nodes":"21","size_leaf_vector":"0"}},{"base_weights":[-2.2592842E-4,1.3593988E-2,-1.3216527E-1,-1.187388E-3,1.1333223E-1,2.7308991E-2,-1.6207125E-2,-2.6620444E-2,2.0201395E-1,1.585546E-2,-8.358714E-2,3.5652727E-2,-7.818612E-2,8.932399E-2,1.0862981E-3,-2.244512E-1,-4.366263E-3,-5.549076E-2,1.06605574E-1,4.803051E-3,-1.0731269E-2],"categories":[],"categories_nodes":[],"categories_segments":[],"categories_sizes":[],"default_left":[1,1,0,1,0,1,1,1,0,1,1,1,0,0,1,0,0,0,0,0,0],"id":46,"left_children":[1,3,-1,5,-1,7,9,11,-1,13,15,17,-1,-1,19,-1,-1,-1,-1,-1,-1],"loss_changes":[6.600044E-2,4.8460282E-2,0E0,1.3085167E-2,0E0,1.04943186E-1,4.446916E-2,3.155485E-2,0E0,1.54977E-2,7.265398E-2,3.6599554E-2,0E0,0E0,6.216117E-4,0E0,0E0,0E0,0E0,0E0,0E0],"parents":[2147483647,0,0,1,1,3,3,5,5,6,6,7,7,9,9,10,10,11,11,14,14],"right_children":[2,4,-1,6,-1,8,10,12,-1,14,16,18,-1,-1,20,-1,-1,-1,-1,-1,-1],"split_conditions":[8.63354E-1,8.4962404E-1,-3.9649583E-2,7.5595236E-1,3.399967E-2,6.168478E-1,5E-1,5E-1,6.060419E-2,7.809524E-1,8.090909E-1,4.8076922E-1,-2.3455836E-2,2.6797198E-2,8.301436E-1,-6.733536E-2,-1.3098789E-3,-1.6647229E-2,3.1981673E-2,1.4409153E-3,-3.2193807E-3],"split_indices":[0,0,0,0,0,0,2,2,0,0,0,0,0,0,0,0,0,0,0,0,0],"split_type":[0,0,0,0,0,0,0,0,0,0,0,0,0,0,0,0,0,0,0,0,0],"sum_hessian":[3.421121E1,3.1779453E1,2.4317539E0,2.8538147E1,3.2413063E0,9.567633E0,1.8970514E1,7.958546E0,1.6090865E0,1.3372117E1,5.5983973E0,3.7447739E0,4.2137723E0,1.3932835E0,1.1978833E1,1.3552933E0,4.243104E0,1.7345518E0,2.0102222E0,9.564319E0,2.4145148E0],"tree_param":{"num_deleted":"0","num_feature":"3","num_nodes":"21","size_leaf_vector":"0"}},{"base_weights":[-2.726426E-5,-1.417277E-2,1.3766171E-1,-5.97957E-4,-1.0423748E-1,2.8336175E-2,-1.4045721E-2,7.237262E-3,8.849872E-2,-9.925016E-2,4.869041E-3,2.8437328E-2,-3.7711762E-2,7.476752E-3,-8.440078E-3,-4.495437E-2,6.7048945E-2,3.5005915E-3,1.3203676E-2],"categories":[],"categories_nodes":[],"categories_segments":[],"categories_sizes":[],"default_left":[1,1,0,1,0,1,1,1,0,0,1,1,0,1,0,0,0,0,0],"id":47,"left_children":[1,3,-1,5,-1,7,9,11,-1,-1,13,15,-1,17,-1,-1,-1,-1,-1],"loss_changes":[7.052755E-2,4.008303E-2,0E0,1.1892252E-2,0E0,1.1678247E-2,3.4063008E-2,8.956874E-3,0E0,0E0,6.879599E-4,2.0561872E-2,0E0,3.0866032E-4,0E0,0E0,0E0,0E0,0E0],"parents":[2147483647,0,0,1,1,3,3,5,5,6,6,7,7,10,10,11,11,13,13],"right_children":[2,4,-1,6,-1,8,10,12,-1,-1,14,16,-1,18,-1,-1,-1,-1,-1],"split_conditions":[8.8478255E-1,8.4962404E-1,4.1298516E-2,6.8115944E-1,-3.1271245E-2,5.1666665E-1,7.7225673E-1,4.8076922E-1,2.6549617E-2,-2.977505E-2,8.301436E-1,5E-1,-1.1313529E-2,5E-1,-2.5320235E-3,-1.3486312E-2,2.0114684E-2,1.0501775E-3,3.961103E-3],"split_indices":[0,0,0,0,0,0,0,0,0,0,0,2,0,2,0,0,0,0,0],"split_type":[0,0,0,0,0,0,0,0,0,0,0,0,0,0,0,0,0,0,0],"sum_hessian":[3.4209328E1,3.1835741E1,2.373585E0,2.8540651E1,3.2950902E0,8.704649E0,1.9836002E1,7.273973E0,1.4306762E0,2.8319259E0,1.7004076E1,5.1923566E0,2.0816162E0,1.4584665E1,2.4194105E0,1.7333642E0,3.4589925E0,9.559103E0,5.025563E0],"tree_param":{"num_deleted":"0","num_feature":"3","num_nodes":"19","size_leaf_vector":"0"}},{"base_weights":[1.9836785E-4,1.388465E-2,-1.3010046E-1,-1.55459335E-2,6.1620228E-2,-1.5069554E-3,-8.556298E-2,-7.2109394E-2,1.372102E-1,-4.8484996E-2,1.5457733E-2,3.8989785E-1,4.249053E-2,6.972161E-2,-1.00183405E-1,9.114479E-2,3.23375E-4,-1.8817416E-1,1.23070516E-1,-5.730531E-3,1.3242356E-2],"categories":[],"categories_nodes":[],"categories_segments":[],"categories_sizes":[],"default_left":[1,1,0,1,1,1,0,0,1,1,1,0,1,0,0,0,1,0,0,0,0],"id":48,"left_children":[1,3,-1,5,7,9,-1,-1,11,13,15,-1,17,-1,-1,-1,19,-1,-1,-1,-1],"loss_changes":[6.444037E-2,4.688007E-2,0E0,2.0532299E-2,1.3795215E-1,1.5514533E-2,0E0,0E0,1.8539046E-1,3.850007E-2,1.6430449E-2,0E0,1.5809357E-1,0E0,0E0,0E0,1.0909428E-3,0E0,0E0,0E0,0E0],"parents":[2147483647,0,0,1,1,3,3,4,4,5,5,8,8,9,9,10,10,12,12,16,16],"right_children":[2,4,-1,6,8,10,-1,-1,12,14,16,-1,18,-1,-1,-1,20,-1,-1,-1,-1],"split_conditions":[8.63354E-1,5E-1,-3.903014E-2,8.4962404E-1,6.125E-1,7.4937344E-1,-2.5668895E-2,-2.1632819E-2,7.5595236E-1,4.3650794E-1,7.809524E-1,1.1696936E-1,8.090909E-1,2.0916484E-2,-3.0055022E-2,2.7343439E-2,8.090909E-1,-5.645225E-2,3.6921155E-2,-1.7191594E-3,3.972707E-3],"split_indices":[0,2,0,0,0,0,0,0,0,0,0,0,0,0,0,0,0,0,0,0,0],"split_type":[0,0,0,0,0,0,0,0,0,0,0,0,0,0,0,0,0,0,0,0,0],"sum_hessian":[3.4122375E1,3.1687443E1,2.4349341E0,2.0019243E1,1.16682005E1,1.7526552E1,2.492691E0,4.2302756E0,7.4379253E0,4.157035E0,1.3369516E1,1.1782701E0,6.259655E0,1.1588174E0,2.9982176E0,1.3909562E0,1.197856E1,1.2749093E0,4.984746E0,8.535297E0,3.4432623E0],"tree_param":{"num_deleted":"0","num_feature":"3","num_nodes":"21","size_leaf_vector":"0"}},{"base_weights":[1.1510424E-3,-1.2744696E-2,1.3626362E-1,3.5209134E-2,-2.905401E-2,3.504906E-3,6.312355E-2,-2.3037861E-1,-7.3308526E-3,5.7090584E-2,-2.6392566E-2,2.9915184E-2,9.03865E-2,9.184298E-2,-2.5909077E-2,-1.3696414E-2,-6.780153E-2,4.020519E-4,-4.5610473E-2],"categories":[],"categories_nodes":[],"categories_segments":[],"categories_sizes":[],"default_left":[1,1,0,1,1,1,1,0,1,0,0,0,0,0,1,1,0,0,0],"id":49,"left_children":[1,3,-1,5,7,9,11,-1,13,-1,-1,-1,-1,-1,15,17,-1,-1,-1],"loss_changes":[6.783384E-2,2.6704224E-2,0E0,7.554123E-3,1.0786869E-1,9.793323E-3,1.4727544E-3,0E0,4.5942936E-2,0E0,0E0,0E0,0E0,0E0,9.658547E-3,7.791355E-3,0E0,0E0,0E0],"parents":[2147483647,0,0,1,1,3,3,4,4,5,5,6,6,8,8,14,14,15,15],"right_children":[2,4,-1,6,8,10,12,-1,14,-1,-1,-1,-1,-1,16,18,-1,-1,-1],"split_conditions":[8.8478255E-1,5.52381E-1,4.087909E-2,4.5299146E-1,7.434211E-1,5E-1,5E-1,-6.911359E-2,7.9130435E-1,1.7127177E-2,-7.91777E-3,8.974556E-3,2.7115952E-2,2.7552895E-2,8.4962404E-1,5E-1,-2.034046E-2,1.2061557E-4,-1.3683142E-2],"split_indices":[0,0,0,0,0,2,2,0,0,0,0,0,0,0,0,2,0,0,0],"split_type":[0,0,0,0,0,0,0,0,0,0,0,0,0,0,0,0,0,0,0],"sum_hessian":[3.4205105E1,3.183653E1,2.3685746E0,7.785679E0,2.4050854E1,4.1723857E0,3.6132932E0,1.4068961E0,2.2643957E1,1.1685072E0,3.0038784E0,2.5745625E0,1.0387306E0,2.9504347E0,1.9693521E1,1.6275703E1,3.4178185E0,1.1973604E1,4.302099E0],"tree_param":{"num_deleted":"0","num_feature":"3","num_nodes":"19","size_leaf_vector":"0"}},{"base_weights":[1.1513453E-3,1.47284195E-2,-1.2861188E-1,-3.1953356E-3,1.3344201E-1,3.2050822E-2,-1.9484702E-2,1.4470283E-2,7.9722844E-2,-1.0448009E-1,-5.9502927E-4,2.9609054E-2,-2.078056E-2,7.505748E-3,-1.0142395E-2,-4.787372E-2,7.072179E-2,1.0096867E-2,-2.5304865E-2],"categories":[],"categories_nodes":[],"categories_segments":[],"categories_sizes":[],"default_left":[1,1,0,1,0,1,1,1,0,0,1,1,0,0,1,0,0,0,0],"id":50,"left_children":[1,3,-1,5,-1,7,9,11,-1,-1,13,15,-1,-1,17,-1,-1,-1,-1],"loss_changes":[6.390605E-2,7.013548E-2,0E0,1.7527279E-2,0E0,6.962195E-3,3.326346E-2,5.0426815E-3,0E0,0E0,1.4673527E-3,2.3187743E-2,0E0,0E0,2.9198586E-3,0E0,0E0,0E0,0E0],"parents":[2147483647,0,0,1,1,3,3,5,5,6,6,7,7,10,10,11,11,14,14],"right_children":[2,4,-1,6,-1,8,10,12,-1,-1,14,16,-1,-1,18,-1,-1,-1,-1],"split_conditions":[8.63354E-1,8.4962404E-1,-3.8583566E-2,6.8115944E-1,4.0032607E-2,5.1666665E-1,7.7225673E-1,4.8076922E-1,2.3916854E-2,-3.1344026E-2,8.090909E-1,5E-1,-6.234168E-3,2.2517245E-3,5E-1,-1.4362116E-2,2.1216538E-2,3.02906E-3,-7.59146E-3],"split_indices":[0,0,0,0,0,0,0,0,0,0,0,2,0,0,2,0,0,0,0],"split_type":[0,0,0,0,0,0,0,0,0,0,0,0,0,0,0,0,0,0,0],"sum_hessian":[3.419788E1,3.1761213E1,2.4366653E0,2.844029E1,3.320922E0,8.68358E0,1.975671E1,7.2963595E0,1.387221E0,2.7685156E0,1.6988195E1,5.2162457E0,2.0801136E0,9.306029E0,7.682166E0,1.7512732E0,3.4649725E0,3.4333408E0,4.248825E0],"tree_param":{"num_deleted":"0","num_feature":"3","num_nodes":"19","size_leaf_vector":"0"}},{"base_weights":[6.9587404E-4,-1.31236E-2,1.3485175E-1,-2.5630288E-3,-8.103177E-2,2.5141334E-2,-1.5339004E-2,-4.834708E-3,4.870984E-2,-8.2653165E-2,-5.4474396E-4,5.557532E-2,-3.6532026E-2,-1.1631219E-3,9.650949E-2,5.475526E-3,-7.6321447E-3,7.766711E-3,-1.916635E-2],"categories":[],"categories_nodes":[],"categories_segments":[],"categories_sizes":[],"default_left":[1,1,0,1,0,1,1,1,1,0,1,0,0,0,0,0,1,0,0],"id":51,"left_children":[1,3,-1,5,-1,7,9,11,13,-1,15,-1,-1,-1,-1,-1,17,-1,-1],"loss_changes":[6.678114E-2,2.3244977E-2,0E0,1.0768446E-2,0E0,7.0439703E-3,2.0566396E-2,1.1894754E-2,1.3189023E-2,0E0,8.0872676E-4,0E0,0E0,0E0,0E0,0E0,1.6893562E-3,0E0,0E0],"parents":[2147483647,0,0,1,1,3,3,5,5,6,6,7,7,8,8,10,10,16,16],"right_children":[2,4,-1,6,-1,8,10,12,14,-1,16,-1,-1,-1,-1,-1,18,-1,-1],"split_conditions":[8.8478255E-1,8.4962404E-1,4.0455528E-2,6.8115944E-1,-2.4309533E-2,4.5299146E-1,7.7225673E-1,5E-1,5E-1,-2.4795951E-2,8.090909E-1,1.6672596E-2,-1.09596085E-2,-3.489366E-4,2.8952846E-2,1.6426579E-3,5E-1,2.3300133E-3,-5.7499055E-3],"split_indices":[0,0,0,0,0,0,0,2,2,0,0,0,0,0,0,0,2,0,0],"split_type":[0,0,0,0,0,0,0,0,0,0,0,0,0,0,0,0,0,0,0],"sum_hessian":[3.4066166E1,3.1702635E1,2.36353E0,2.8334074E1,3.3685608E0,8.637033E0,1.969704E1,4.151604E0,4.48543E0,2.7225494E0,1.6974491E1,1.1694692E0,2.9821348E0,2.6725867E0,1.8128432E0,9.301187E0,7.673304E0,3.426011E0,4.247293E0],"tree_param":{"num_deleted":"0","num_feature":"3","num_nodes":"19","size_leaf_vector":"0"}},{"base_weights":[1.2463707E-3,1.473743E-2,-1.2685832E-1,-1.5324282E-3,1.22703895E-1,-2.7215779E-2,1.1395459E-2,2.2898769E-2,-2.0233834E-1,1.0267882E-1,-1.0109618E-2,-2.255215E-3,4.634372E-2,-3.693807E-3,-2.3887232E-2,4.6442505E-2,-2.8173225E-2,7.3904976E-2,1.7791964E-2,-7.7900887E-3,5.972212E-3],"categories":[],"categories_nodes":[],"categories_segments":[],"categories_sizes":[],"default_left":[1,1,0,1,0,1,1,1,0,0,1,1,1,1,0,0,0,0,0,0,0],"id":52,"left_children":[1,3,-1,5,-1,7,9,11,-1,-1,13,15,17,19,-1,-1,-1,-1,-1,-1,-1],"loss_changes":[6.2357135E-2,5.7383284E-2,0E0,1.0033291E-2,0E0,9.32728E-2,4.066003E-2,5.265346E-3,0E0,0E0,1.4362003E-3,7.840409E-3,2.2859098E-3,5.59253E-4,0E0,0E0,0E0,0E0,0E0,0E0,0E0],"parents":[2147483647,0,0,1,1,3,3,5,5,6,6,7,7,10,10,11,11,12,12,13,13],"right_children":[2,4,-1,6,-1,8,10,12,-1,-1,14,16,18,20,-1,-1,-1,-1,-1,-1,-1],"split_conditions":[8.63354E-1,8.4962404E-1,-3.80575E-2,7.434211E-1,3.681117E-2,5.52381E-1,7.9130435E-1,4.5299146E-1,-6.0701504E-2,3.0803647E-2,5E-1,5E-1,4.8076922E-1,8.090909E-1,-7.16617E-3,1.3932752E-2,-8.4519675E-3,2.2171494E-2,5.3375894E-3,-2.3370266E-3,1.7916637E-3],"split_indices":[0,0,0,0,0,0,0,0,0,0,2,2,0,0,0,0,0,0,0,0,0],"split_type":[0,0,0,0,0,0,0,0,0,0,0,0,0,0,0,0,0,0,0,0,0],"sum_hessian":[3.3998955E1,3.1560219E1,2.438736E0,2.8283833E1,3.2763867E0,9.1E0,1.9183832E1,7.751117E0,1.3488835E0,2.938032E0,1.62458E1,4.175283E0,3.5758343E0,1.1949423E1,4.296377E0,1.1752286E0,3.0000546E0,1.0112294E0,2.5646048E0,8.529045E0,3.4203777E0],"tree_param":{"num_deleted":"0","num_feature":"3","num_nodes":"21","size_leaf_vector":"0"}},{"base_weights":[7.789541E-4,-1.28785E-2,1.3338295E-1,-1.259707E-3,-8.841273E-2,2.5703961E-2,-1.5400069E-2,-2.0803107E-2,1.8526033E-1,-1.1088424E-1,7.5620395E-4,1.9980224E-2,-8.163916E-2,4.0758722E-3,-1.4644306E-2,-5.631344E-2,6.28483E-2,1.5043416E-3,7.897856E-3],"categories":[],"categories_nodes":[],"categories_segments":[],"categories_sizes":[],"default_left":[1,1,0,1,0,1,1,1,0,0,1,1,0,1,0,0,0,0,0],"id":53,"left_children":[1,3,-1,5,-1,7,9,11,-1,-1,13,15,-1,17,-1,-1,-1,-1,-1],"loss_changes":[6.514376E-2,2.8554825E-2,0E0,1.1576224E-2,0E0,8.149011E-2,3.0723102E-2,2.3961399E-2,0E0,0E0,9.789173E-4,2.3788761E-2,0E0,1.4118571E-4,0E0,0E0,0E0,0E0,0E0],"parents":[2147483647,0,0,1,1,3,3,5,5,6,6,7,7,10,10,11,11,13,13],"right_children":[2,4,-1,6,-1,8,10,12,-1,-1,14,16,-1,18,-1,-1,-1,-1,-1],"split_conditions":[8.8478255E-1,8.4962404E-1,4.0014885E-2,7.5595236E-1,-2.6523821E-2,6.168478E-1,7.7225673E-1,4.8076922E-1,5.55781E-2,-3.3265274E-2,8.301436E-1,5E-1,-2.449175E-2,5E-1,-4.393292E-3,-1.6894033E-2,1.8854491E-2,4.513025E-4,2.3693568E-3],"split_indices":[0,0,0,0,0,0,0,0,0,0,0,2,0,2,0,0,0,0,0],"split_type":[0,0,0,0,0,0,0,0,0,0,0,0,0,0,0,0,0,0,0],"sum_hessian":[3.402199E1,3.166369E1,2.3582993E0,2.832359E1,3.3401015E0,9.462386E0,1.8861204E1,8.000144E0,1.4622419E0,1.8810277E0,1.6980175E1,5.19146E0,2.8086836E0,1.4574007E1,2.406169E0,1.7547792E0,3.436681E0,9.545289E0,5.0287175E0],"tree_param":{"num_deleted":"0","num_feature":"3","num_nodes":"19","size_leaf_vector":"0"}},{"base_weights":[9.5513085E-4,1.4259708E-2,-1.24972135E-1,-9.50448E-4,1.1563723E-1,2.3934096E-2,-1.2466312E-2,-7.6228785E-3,4.945965E-2,-7.241705E-2,4.4245648E-4,4.8064113E-2,-3.610671E-2,9.143313E-3,8.49305E-2,-2.0740531E-2,-1.0502176E-1,3.0340848E-3,-1.1513916E-2,1.0959889E-3,5.9194416E-3],"categories":[],"categories_nodes":[],"categories_segments":[],"categories_sizes":[],"default_left":[1,1,0,1,0,1,1,1,1,1,1,0,0,0,0,0,0,1,0,0,0],"id":54,"left_children":[1,3,-1,5,-1,7,9,11,13,15,17,-1,-1,-1,-1,-1,-1,19,-1,-1,-1],"loss_changes":[6.0314182E-2,5.021649E-2,0E0,8.679797E-3,0E0,8.1062615E-3,1.6014604E-2,9.915767E-3,7.0003914E-3,3.9971117E-3,5.922921E-4,0E0,0E0,0E0,0E0,0E0,0E0,8.060533E-5,0E0,0E0,0E0],"parents":[2147483647,0,0,1,1,3,3,5,5,6,6,7,7,8,8,9,9,10,10,17,17],"right_children":[2,4,-1,6,-1,8,10,12,14,16,18,-1,-1,-1,-1,-1,-1,20,-1,-1,-1],"split_conditions":[8.63354E-1,8.4962404E-1,-3.7491642E-2,6.8115944E-1,3.469117E-2,4.5299146E-1,7.7225673E-1,5E-1,5E-1,5E-1,8.301436E-1,1.4419234E-2,-1.0832014E-2,2.742994E-3,2.5479151E-2,-6.2221596E-3,-3.150653E-2,5E-1,-3.4541748E-3,3.2879668E-4,1.7758325E-3],"split_indices":[0,0,0,0,0,0,0,2,2,2,0,0,0,0,0,0,0,2,0,0,0],"split_type":[0,0,0,0,0,0,0,0,0,0,0,0,0,0,0,0,0,0,0,0,0],"sum_hessian":[3.3936012E1,3.1495214E1,2.4407976E0,2.8247702E1,3.2475138E0,8.595466E0,1.9652235E1,4.157256E0,4.4382095E0,2.6651E0,1.6987135E1,1.1742109E0,2.9830453E0,2.6659024E0,1.7723072E0,1.6639535E0,1.0011464E0,1.4574292E1,2.412844E0,9.543656E0,5.030635E0],"tree_param":{"num_deleted":"0","num_feature":"3","num_nodes":"21","size_leaf_vector":"0"}},{"base_weights":[4.7828618E-4,-1.3062558E-2,1.3182797E-1,-9.088234E-4,-9.221349E-2,-2.7491907E-2,1.2377173E-2,2.1181706E-2,-1.9829665E-1,9.829342E-2,-7.885316E-3,-4.608486E-3,4.590476E-2,-1.7385633E-3,-2.1440119E-2,4.016929E-2,-2.7846284E-2,-6.3934173E-3,8.677458E-3],"categories":[],"categories_nodes":[],"categories_segments":[],"categories_sizes":[],"default_left":[1,1,0,1,0,1,1,1,0,0,1,1,0,1,0,0,0,0,0],"id":55,"left_children":[1,3,-1,5,-1,7,9,11,-1,-1,13,15,-1,17,-1,-1,-1,-1,-1],"loss_changes":[6.381402E-2,3.1236429E-2,0E0,1.0665286E-2,0E0,8.777329E-2,3.590899E-2,5.7757567E-3,0E0,0E0,1.40047E-3,6.5084435E-3,0E0,6.838724E-4,0E0,0E0,0E0,0E0,0E0],"parents":[2147483647,0,0,1,1,3,3,5,5,6,6,7,7,10,10,11,11,13,13],"right_children":[2,4,-1,6,-1,8,10,12,-1,-1,14,16,-1,18,-1,-1,-1,-1,-1],"split_conditions":[8.8478255E-1,8.4962404E-1,3.954839E-2,7.434211E-1,-2.7664049E-2,5.52381E-1,7.9130435E-1,4.5299146E-1,-5.9488997E-2,2.9488029E-2,5E-1,5E-1,1.3771429E-2,8.090909E-1,-6.432036E-3,1.2050788E-2,-8.353885E-3,-1.9180252E-3,2.6032375E-3],"split_indices":[0,0,0,0,0,0,0,0,0,0,2,2,0,0,0,0,0,0,0],"split_type":[0,0,0,0,0,0,0,0,0,0,0,0,0,0,0,0,0,0,0],"sum_hessian":[3.391089E1,3.1558115E1,2.352776E0,2.8234198E1,3.3239176E0,9.052466E0,1.918173E1,7.7266264E0,1.3258402E0,2.9256203E0,1.625611E1,4.179901E0,3.5467253E0,1.1960564E1,4.2955456E0,1.1791446E0,3.0007563E0,8.533286E0,3.4272776E0],"tree_param":{"num_deleted":"0","num_feature":"3","num_nodes":"19","size_leaf_vector":"0"}},{"base_weights":[2.0435167E-4,1.3249731E-2,-1.23008855E-1,-1.291082E-3,1.1079181E-1,2.2479719E-2,-1.3681686E-2,-2.2203295E-2,1.7793462E-1,1.2215949E-2,-6.882686E-2,2.9982297E-2,-6.5755144E-2,7.919656E-2,-1.1632239E-3,-1.8240358E-1,-6.8701156E-3,-6.0268503E-2,1.0269664E-1,-2.14928E-2,-1.1685885E-1,2.102077E-3,-1.0908155E-2],"categories":[],"categories_nodes":[],"categories_segments":[],"categories_sizes":[],"default_left":[1,1,0,1,0,1,1,1,0,1,1,1,1,0,1,0,0,0,0,0,0,0,0],"id":56,"left_children":[1,3,-1,5,-1,7,9,11,-1,13,15,17,19,-1,21,-1,-1,-1,-1,-1,-1,-1,-1],"loss_changes":[5.779647E-2,4.6240024E-2,0E0,8.929387E-3,0E0,7.625064E-2,2.9209374E-2,2.2366948E-2,0E0,1.2965903E-2,4.4475254E-2,3.7486672E-2,9.261262E-3,0E0,4.3530247E-4,0E0,0E0,0E0,0E0,0E0,0E0,0E0,0E0],"parents":[2147483647,0,0,1,1,3,3,5,5,6,6,7,7,9,9,10,10,11,11,12,12,14,14],"right_children":[2,4,-1,6,-1,8,10,12,-1,14,16,18,20,-1,22,-1,-1,-1,-1,-1,-1,-1,-1],"split_conditions":[8.63354E-1,8.4962404E-1,-3.690266E-2,7.5595236E-1,3.3237543E-2,6.168478E-1,5E-1,5E-1,5.338039E-2,7.809524E-1,8.090909E-1,4.8076922E-1,4.4505495E-1,2.3758968E-2,8.301436E-1,-5.4721076E-2,-2.0610348E-3,-1.8080551E-2,3.0808995E-2,-6.44784E-3,-3.5057656E-2,6.3062314E-4,-3.2724466E-3],"split_indices":[0,0,0,0,0,0,2,2,0,0,0,0,0,0,0,0,0,0,0,0,0,0,0],"split_type":[0,0,0,0,0,0,0,0,0,0,0,0,0,0,0,0,0,0,0,0,0,0,0],"sum_hessian":[3.3943344E1,3.1500633E1,2.4427106E0,2.827272E1,3.227913E0,9.4085655E0,1.8864155E1,7.973798E0,1.4347678E0,1.336573E1,5.4984236E0,3.7690918E0,4.204706E0,1.4062386E0,1.1959492E1,1.254562E0,4.2438617E0,1.7581238E0,2.010968E0,3.0144117E0,1.1902943E0,9.545355E0,2.4141371E0],"tree_param":{"num_deleted":"0","num_feature":"3","num_nodes":"23","size_leaf_vector":"0"}},{"base_weights":[-2.2714163E-4,-1.3617781E-2,1.3019998E-1,-1.3252205E-3,-9.384339E-2,-2.5974672E-2,1.10613825E-2,1.947387E-2,-1.867902E-1,7.914957E-2,-5.0831414E-3,5.3495206E-3,3.1294726E-2,-1.0172003E-3,-1.4084147E-2,4.3470223E-2,-1.6598994E-2,-5.238725E-3,8.310087E-3],"categories":[],"categories_nodes":[],"categories_segments":[],"categories_sizes":[],"default_left":[1,1,0,1,0,1,1,1,0,0,1,1,0,1,0,0,0,0,0],"id":57,"left_children":[1,3,-1,5,-1,7,9,11,-1,-1,13,15,-1,17,-1,-1,-1,-1,-1],"loss_changes":[6.277931E-2,3.200879E-2,0E0,9.223688E-3,0E0,7.736508E-2,2.2586457E-2,1.2969046E-3,0E0,0E0,6.1708223E-4,5.074068E-3,0E0,5.5392535E-4,0E0,0E0,0E0,0E0,0E0],"parents":[2147483647,0,0,1,1,3,3,5,5,6,6,7,7,10,10,11,11,13,13],"right_children":[2,4,-1,6,-1,8,10,12,-1,-1,14,16,-1,18,-1,-1,-1,-1,-1],"split_conditions":[8.8478255E-1,8.4962404E-1,3.9059997E-2,7.434211E-1,-2.8153019E-2,5.52381E-1,7.9130435E-1,4.5299146E-1,-5.603706E-2,2.3744872E-2,5E-1,5E-1,9.388418E-3,8.090909E-1,-4.2252443E-3,1.3041067E-2,-4.9796985E-3,-1.5716176E-3,2.4930262E-3],"split_indices":[0,0,0,0,0,0,0,0,0,0,2,2,0,0,0,0,0,0,0],"split_type":[0,0,0,0,0,0,0,0,0,0,0,0,0,0,0,0,0,0,0],"sum_hessian":[3.3930534E1,3.158352E1,2.347013E0,2.8268587E1,3.3149326E0,9.087461E0,1.9181128E1,7.770362E0,1.3170991E0,2.928377E0,1.625275E1,4.2020364E0,3.5683255E0,1.196219E1,4.2905602E0,1.1770879E0,3.0249486E0,8.536789E0,3.4254012E0],"tree_param":{"num_deleted":"0","num_feature":"3","num_nodes":"19","size_leaf_vector":"0"}},{"base_weights":[-3.0784236E-4,1.2489551E-2,-1.2100619E-1,-2.0176386E-2,6.646769E-2,-7.832898E-3,-7.953534E-2,-5.01891E-2,1.3231364E-1,-5.082663E-2,7.95526E-3,-1.2825878E-2,-9.591198E-2,3.5546237E-1,4.8857335E-2,3.7517495E-2,-8.689442E-2,5.0295025E-2,-6.4031413E-4,-1.6711874E-1,1.21379346E-1,2.5661753E-3,-1.0353161E-2],"categories":[],"categories_nodes":[],"categories_segments":[],"categories_sizes":[],"default_left":[1,1,0,1,1,1,0,1,1,1,1,0,0,0,1,0,0,0,1,0,0,0,0],"id":58,"left_children":[1,3,-1,5,7,9,-1,11,13,15,17,-1,-1,-1,19,-1,-1,-1,21,-1,-1,-1,-1],"loss_changes":[5.5502106E-2,5.8663554E-2,0E0,1.4778445E-2,1.0257663E-1,1.2969351E-2,0E0,7.706425E-3,1.3642894E-1,1.9533342E-2,5.274211E-3,0E0,0E0,0E0,1.3258533E-1,0E0,0E0,0E0,4.3020988E-4,0E0,0E0,0E0,0E0],"parents":[2147483647,0,0,1,1,3,3,4,4,5,5,7,7,8,8,9,9,10,10,14,14,18,18],"right_children":[2,4,-1,6,8,10,-1,12,14,16,18,-1,-1,-1,20,-1,-1,-1,22,-1,-1,-1,-1],"split_conditions":[8.63354E-1,5E-1,-3.630186E-2,8.4962404E-1,6.125E-1,7.4937344E-1,-2.3860604E-2,4.4505495E-1,7.5595236E-1,4.3650794E-1,7.809524E-1,-3.8477636E-3,-2.8773595E-2,