{"learner":{"attributes":{"best_iteration":"99","best_ntree_limit":"100","scikit_learn":"{\"use_label_encoder\": null, \"n_estimators\": 100, \"objective\": \"binary:logistic\", \"max_depth\": null, \"max_leaves\": null, \"max_bin\": null, \"grow_policy\": null, \"learning_rate\": null, \"verbosity\": null, \"booster\": null, \"tree_method\": null, \"gamma\": null, \"min_child_weight\": null, \"max_delta_step\": null, \"subsample\": null, \"sampling_method\": null, \"colsample_bytree\": null, \"colsample_bylevel\": null, \"colsample_bynode\": null, \"reg_alpha\": null, \"reg_lambda\": null, \"scale_pos_weight\": null, \"base_score\": null, \"missing\": NaN, \"num_parallel_tree\": null, \"random_state\": null, \"n_jobs\": null, \"monotone_constraints\": null, \"interaction_constraints\": null, \"importance_type\": null, \"gpu_id\": null, \"validate_parameters\": null, \"predictor\": null, \"enable_categorical\": false, \"feature_types\": null, \"max_cat_to_onehot\": null, \"max_cat_threshold\": null, \"eval_metric\": null, \"early_stopping_rounds\": null, \"callbacks\": null, \"classes_\": [0, 1], \"n_classes_\": 2, \"_estimator_type\": \"classifier\"}"},"feature_names":["SampleNameSimilarity","LocationSimilarity","AuthorOverlap"],"feature_types":["float","int","int"],"gradient_booster":{"model":{"gbtree_model_param":{"num_parallel_tree":"1","num_trees":"100","size_leaf_vector":"0"},"tree_info":[0,0,0,0,0,0,0,0,0,0,0,0,0,0,0,0,0,0,0,0,0,0,0,0,0,0,0,0,0,0,0,0,0,0,0,0,0,0,0,0,0,0,0,0,0,0,0,0,0,0,0,0,0,0,0,0,0,0,0,0,0,0,0,0,0,0,0,0,0,0,0,0,0,0,0,0,0,0,0,0,0,0,0,0,0,0,0,0,0,0,0,0,0,0,0,0,0,0,0,0],"trees":[{"base_weights":[-6.705539E-1,-1.9904191E0,1.3715342E0,2.3129252E-1,1.7788944E0,1.1515151E0,-4.9411765E-1,1.3170732E0,1.9569893E0,1.0526316E-1,1.4509804E0,-1.3913044E0,5.116279E-1,1.4871795E0,-1.2E0,1.8181819E-1,-0E0,-1.68E0,-8.8E-1],"categories":[],"categories_nodes":[],"categories_segments":[],"categories_sizes":[],"default_left":[1,0,1,1,1,1,1,1,0,1,0,1,0,0,0,0,0,0,0],"id":0,"left_children":[1,-1,3,5,7,9,11,13,-1,15,-1,17,-1,-1,-1,-1,-1,-1,-1],"loss_changes":[9.272113E2,0E0,6.2410706E1,2.5101038E1,5.6061707E0,5.016981E0,1.988659E1,1.495084E1,0E0,3.8277514E-2,0E0,2.1912956E-1,0E0,0E0,0E0,0E0,0E0,0E0,0E0],"parents":[2147483647,0,0,2,2,3,3,4,4,5,5,6,6,7,7,9,9,11,11],"right_children":[2,-1,4,6,8,10,12,14,-1,16,-1,18,-1,-1,-1,-1,-1,-1,-1],"split_conditions":[5E-1,-5.9712577E-1,8.090909E-1,6.8333334E-1,8.9444447E-1,5E-1,7.9130435E-1,8.63354E-1,5.870968E-1,4.8076922E-1,4.3529415E-1,7.434211E-1,1.5348838E-1,4.4615388E-1,-3.6E-1,5.454546E-2,-0E0,-5.04E-1,-2.64E-1],"split_indices":[1,0,0,0,0,2,0,0,0,0,0,0,0,0,0,0,0,0,0],"split_type":[0,0,0,0,0,0,0,0,0,0,0,0,0,0,0,0,0,0,0],"sum_hessian":[3.42E2,2.0775E2,1.3425E2,3.575E1,9.85E1,1.55E1,2.025E1,2.975E1,6.875E1,3.75E0,1.175E1,1.05E1,9.75E0,2.825E1,1.5E0,1.75E0,2E0,5.25E0,5.25E0],"tree_param":{"num_deleted":"0","num_feature":"3","num_nodes":"19","size_leaf_vector":"0"}},{"base_weights":[-5.142099E-1,-1.542286E0,1.0354007E0,1.6353175E-1,1.3611232E0,8.6903524E-1,-3.8610166E-1,9.759188E-1,1.516096E0,8.5195735E-2,1.1027013E0,-1.084836E0,3.7468383E-1,1.1151543E0,-1.005434E0,1.4718561E-1,-0E0,-1.3336122E0,-6.6920084E-1,8.408348E-1,1.3161879E0,1.1270864E0,-3.1922303E-2],"categories":[],"categories_nodes":[],"categories_segments":[],"categories_sizes":[],"default_left":[1,0,1,1,1,1,1,1,0,1,0,1,0,1,0,0,0,0,0,1,0,0,0],"id":1,"left_children":[1,-1,3,5,7,9,11,13,-1,15,-1,17,-1,19,-1,-1,-1,-1,-1,21,-1,-1,-1],"loss_changes":[5.0743173E2,0E0,3.5910263E1,1.419508E1,4.0418396E0,2.829091E0,1.145423E1,9.215916E0,0E0,2.5079176E-2,0E0,2.5423336E-1,0E0,4.3133926E-1,0E0,0E0,0E0,0E0,0E0,3.6744137E0,0E0,0E0,0E0],"parents":[2147483647,0,0,2,2,3,3,4,4,5,5,6,6,7,7,9,9,11,11,13,13,19,19],"right_children":[2,-1,4,6,8,10,12,14,-1,16,-1,18,-1,20,-1,-1,-1,-1,-1,22,-1,-1,-1],"split_conditions":[5E-1,-4.6268582E-1,8.090909E-1,6.8333334E-1,8.9444447E-1,5E-1,7.9130435E-1,8.63354E-1,4.5482883E-1,4.8076922E-1,3.308104E-1,7.434211E-1,1.1240515E-1,8.4962404E-1,-3.0163023E-1,4.4155683E-2,-0E0,-4.000837E-1,-2.0076026E-1,5E-1,3.9485636E-1,3.3812594E-1,-9.576691E-3],"split_indices":[1,0,0,0,0,2,0,0,0,0,0,0,0,0,0,0,0,0,0,2,0,0,0],"split_type":[0,0,0,0,0,0,0,0,0,0,0,0,0,0,0,0,0,0,0,0,0,0,0],"sum_hessian":[3.1651257E2,1.9027858E2,1.2623399E2,3.4741817E1,9.149217E1,1.4959215E1,1.9782604E1,2.8341974E1,6.31502E1,3.748699E0,1.1210516E1,1.0089804E1,9.6928005E0,2.6889544E1,1.4524307E0,1.748699E0,2E0,4.9302273E0,5.159576E0,1.3563752E1,1.3325791E1,9.994344E0,3.5694084E0],"tree_param":{"num_deleted":"0","num_feature":"3","num_nodes":"23","size_leaf_vector":"0"}},{"base_weights":[-4.3573788E-1,-1.3380958E0,8.494135E-1,1.1863394E-1,1.1483554E0,6.86096E-1,-3.1376886E-1,7.806384E-1,1.3092151E0,6.8990864E-2,8.8665193E-1,-8.902219E-1,2.7625638E-1,9.024248E-1,-8.701064E-1,1.1924379E-1,-0E0,4.6509814E-1,1.0157472E0,-1.1402376E0,-5.1920915E-1,6.6481704E-1,1.0847976E0,9.128448E-1,-2.4393976E-2],"categories":[],"categories_nodes":[],"categories_segments":[],"categories_sizes":[],"default_left":[1,0,1,1,1,1,1,1,0,1,1,1,0,1,0,0,0,0,0,0,0,1,0,0,0],"id":2,"left_children":[1,-1,3,5,7,9,11,13,-1,15,17,19,-1,21,-1,-1,-1,-1,-1,-1,-1,23,-1,-1,-1],"loss_changes":[3.1584085E2,0E0,2.4452606E1,8.506757E0,3.6960678E0,1.7862926E0,7.002159E0,6.163187E0,0E0,1.6453462E-2,1.3608551E-1,3.619547E-1,0E0,3.7964058E-1,0E0,0E0,0E0,0E0,0E0,0E0,0E0,2.3495593E0,0E0,0E0,0E0],"parents":[2147483647,0,0,2,2,3,3,4,4,5,5,6,6,7,7,9,9,10,10,11,11,13,13,21,21],"right_children":[2,-1,4,6,8,10,12,14,-1,16,18,20,-1,22,-1,-1,-1,-1,-1,-1,-1,24,-1,-1,-1],"split_conditions":[5E-1,-4.0142876E-1,8.090909E-1,6.8333334E-1,8.9444447E-1,5E-1,7.9130435E-1,8.63354E-1,3.9276454E-1,4.8076922E-1,4.4505495E-1,7.434211E-1,8.287692E-2,8.4962404E-1,-2.6103193E-1,3.577314E-2,-0E0,1.3952945E-1,3.0472416E-1,-3.420713E-1,-1.5576275E-1,5E-1,3.254393E-1,2.7385345E-1,-7.318193E-3],"split_indices":[1,0,0,0,0,2,0,0,0,0,0,0,0,0,0,0,0,0,0,0,0,2,0,0,0],"split_type":[0,0,0,0,0,0,0,0,0,0,0,0,0,0,0,0,0,0,0,0,0,0,0,0,0],"sum_hessian":[2.703748E2,1.5881972E2,1.1155508E2,3.2791443E1,7.876363E1,1.3927301E1,1.8864143E1,2.5751024E1,5.3012608E1,3.745745E0,1.0181557E1,9.284462E0,9.57968E0,2.4403908E1,1.3471162E0,1.7457448E0,2E0,3.4660618E0,6.7154946E0,4.308063E0,4.9763994E0,1.261439E1,1.1789517E1,9.037551E0,3.5768394E0],"tree_param":{"num_deleted":"0","num_feature":"3","num_nodes":"25","size_leaf_vector":"0"}},{"base_weights":[-3.846086E-1,-1.2223239E0,7.191593E-1,2.2162293E-1,1.0981652E0,5.5938226E-1,6.0224697E-2,6.951253E-1,1.187001E0,5.5887293E-2,7.390957E-1,-7.468005E-1,4.0180913E-1,9.244854E-1,-7.682965E-1,9.664951E-2,-0E0,3.752894E-1,8.577763E-1,-1.0102831E0,-4.0567312E-1,4.8426768E-1,-1.8647376E-2,2.0398322E-1,7.551854E-1],"categories":[],"categories_nodes":[],"categories_segments":[],"categories_sizes":[],"default_left":[1,0,1,1,1,1,1,1,0,1,1,1,1,0,0,0,0,0,0,0,0,1,0,0,0],"id":3,"left_children":[1,-1,3,5,7,9,11,13,-1,15,17,19,21,-1,-1,-1,-1,-1,-1,-1,-1,23,-1,-1,-1],"loss_changes":[2.0845882E2,0E0,1.8141376E1,2.332695E0,1.1472473E0,1.2178121E0,8.70618E0,4.859696E0,0E0,1.0802958E-2,1.1732817E-1,4.366846E-1,7.743881E-1,0E0,0E0,0E0,0E0,0E0,0E0,0E0,0E0,1.2501974E0,0E0,0E0,0E0],"parents":[2147483647,0,0,2,2,3,3,4,4,5,5,6,6,7,7,9,9,10,10,11,11,12,12,21,21],"right_children":[2,-1,4,6,8,10,12,14,-1,16,18,20,22,-1,-1,-1,-1,-1,-1,-1,-1,24,-1,-1,-1],"split_conditions":[5E-1,-3.666972E-1,8.4962404E-1,6.8333334E-1,8.9444447E-1,5E-1,7.9130435E-1,8.63354E-1,3.5610032E-1,4.8076922E-1,4.4505495E-1,7.434211E-1,5E-1,2.7734563E-1,-2.3048896E-1,2.8994855E-2,-0E0,1.12586826E-1,2.573329E-1,-3.0308494E-1,-1.2170194E-1,8.090909E-1,-5.594213E-3,6.1194967E-2,2.2655563E-1],"split_indices":[1,0,0,0,0,2,0,0,0,0,0,0,2,0,0,0,0,0,0,0,0,0,0,0,0],"split_type":[0,0,0,0,0,0,0,0,0,0,0,0,0,0,0,0,0,0,0,0,0,0,0,0,0],"sum_hessian":[2.2349716E2,1.2700107E2,9.649609E1,4.240892E1,5.4087173E1,1.2915241E1,2.949368E1,1.1362312E1,4.272486E1,3.7421124E0,9.173129E0,8.418323E0,2.1075357E1,1.0141171E1,1.2211406E0,1.7421123E0,2E0,3.280177E0,5.892952E0,3.6429513E0,4.7753716E0,1.7492935E1,3.5824232E0,9.45941E0,8.033525E0],"tree_param":{"num_deleted":"0","num_feature":"3","num_nodes":"25","size_leaf_vector":"0"}},{"base_weights":[-3.4599352E-1,-1.1491538E0,6.142125E-1,1.7447488E-1,1.0029253E0,4.5831767E-1,3.987719E-2,5.820145E-1,1.1043779E0,4.5282356E-2,6.2030625E-1,-6.322577E-1,3.130794E-1,7.971373E-1,-6.8738943E-1,7.8354955E-2,-0E0,3.0248168E-1,7.3262525E-1,-9.119026E-1,-3.1723604E-1,3.810524E-1,-1.4258377E-2,-1.0184804E-1,-3.7330598E-1,1.5049908E-1,6.27723E-1],"categories":[],"categories_nodes":[],"categories_segments":[],"categories_sizes":[],"default_left":[1,0,1,1,1,1,1,1,0,1,1,1,1,0,0,0,0,0,0,0,1,1,0,0,0,0,0],"id":4,"left_children":[1,-1,3,5,7,9,11,13,-1,15,17,19,21,-1,-1,-1,-1,-1,-1,-1,23,25,-1,-1,-1,-1,-1],"loss_changes":[1.420424E2,0E0,1.4204636E1,1.5359789E0,1.255043E0,8.4108806E-1,5.4665513E0,3.4823709E0,0E0,7.0961947E-3,1.0868597E-1,4.7035265E-1,4.742117E-1,0E0,0E0,0E0,0E0,0E0,0E0,0E0,2.9470682E-2,8.997381E-1,0E0,0E0,0E0,0E0,0E0],"parents":[2147483647,0,0,2,2,3,3,4,4,5,5,6,6,7,7,9,9,10,10,11,11,12,12,20,20,21,21],"right_children":[2,-1,4,6,8,10,12,14,-1,16,18,20,22,-1,-1,-1,-1,-1,-1,-1,24,26,-1,-1,-1,-1,-1],"split_conditions":[5E-1,-3.4474617E-1,8.4962404E-1,6.8333334E-1,8.9444447E-1,5E-1,7.9130435E-1,8.63354E-1,3.3131337E-1,4.8076922E-1,4.4505495E-1,7.434211E-1,5E-1,2.3914121E-1,-2.0621684E-1,2.3506487E-2,-0E0,9.074451E-2,2.1978758E-1,-2.735708E-1,5E-1,8.090909E-1,-4.2775134E-3,-3.0554414E-2,-1.119918E-1,4.5149725E-2,1.883169E-1],"split_indices":[1,0,0,0,0,2,0,0,0,0,0,0,2,0,0,0,0,0,0,0,2,0,0,0,0,0,0],"split_type":[0,0,0,0,0,0,0,0,0,0,0,0,0,0,0,0,0,0,0,0,0,0,0,0,0,0,0],"sum_hessian":[1.8226851E2,9.914353E1,8.312497E1,3.968243E1,4.344254E1,1.1990819E1,2.7691612E1,9.745755E0,3.3696785E1,3.738361E0,8.252458E0,7.623052E0,2.0068562E1,8.651623E0,1.0941315E0,1.7383609E0,2E0,3.1192112E0,5.133247E0,3.0345504E0,4.5885015E0,1.6481926E1,3.5866354E0,1.5295005E0,3.059001E0,9.351534E0,7.130392E0],"tree_param":{"num_deleted":"0","num_feature":"3","num_nodes":"27","size_leaf_vector":"0"}},{"base_weights":[-3.1346583E-1,-1.099456E0,5.224266E-1,2.0823424E-1,1.0420445E0,4.944508E-2,4.3086728E-1,3.7529996E-1,-1.8431829E-1,5.040304E-1,2.8440854E-1,2.2278115E-1,7.916286E-1,-5.41742E-1,1.108614E-1,7.4890214E-1,2.9792807E-1,-1.0904447E-2,4.9249107E-1,4.5039874E-1,-3.0165216E-1,-8.310843E-1,-2.5545484E-1,9.562421E-2,3.8529417E-1],"categories":[],"categories_nodes":[],"categories_segments":[],"categories_sizes":[],"default_left":[1,0,1,1,0,1,1,1,1,1,1,1,0,1,0,0,1,0,0,0,0,0,0,0,0],"id":5,"left_children":[1,-1,3,5,-1,7,9,11,13,15,17,19,-1,21,-1,-1,23,-1,-1,-1,-1,-1,-1,-1,-1],"loss_changes":[9.866463E1,0E0,1.1706017E1,1.6317921E0,0E0,2.2343063E0,6.385851E-2,5.9847856E-1,1.8769803E0,3.6234617E-1,5.4225093E-1,1.3680595E0,0E0,4.470017E-1,0E0,0E0,1.0383791E-1,0E0,0E0,0E0,0E0,0E0,0E0,0E0,0E0],"parents":[2147483647,0,0,2,2,3,3,5,5,6,6,7,7,8,8,9,9,10,10,11,11,13,13,16,16],"right_children":[2,-1,4,6,-1,8,10,12,14,16,18,20,-1,22,-1,-1,24,-1,-1,-1,-1,-1,-1,-1,-1],"split_conditions":[5E-1,-3.298368E-1,8.9444447E-1,8.090909E-1,3.1261337E-1,6.8333334E-1,5E-1,6.066177E-1,7.9130435E-1,8.301436E-1,8.3766234E-1,4.8076922E-1,2.3748858E-1,7.434211E-1,3.325842E-2,2.2467065E-1,8.4962404E-1,-3.2713343E-3,1.4774732E-1,1.3511963E-1,-9.049565E-2,-2.493253E-1,-7.6636456E-2,2.8687263E-2,1.15588255E-1],"split_indices":[1,0,0,0,0,0,2,0,0,0,0,0,0,0,0,0,0,0,0,0,0,0,0,0,0],"split_type":[0,0,0,0,0,0,0,0,0,0,0,0,0,0,0,0,0,0,0,0,0,0,0,0,0],"sum_hessian":[1.4829947E2,7.626868E1,7.203079E1,4.576142E1,2.6269373E1,2.7423897E1,1.8337524E1,1.1202576E1,1.6221321E1,1.060058E1,7.7369437E0,9.322469E0,1.8801067E0,6.959268E0,9.262053E0,3.6410184E0,6.9595623E0,3.5898232E0,4.1471205E0,6.599351E0,2.723118E0,2.5147285E0,4.4445395E0,2.7307637E0,4.2287984E0],"tree_param":{"num_deleted":"0","num_feature":"3","num_nodes":"25","size_leaf_vector":"0"}},{"base_weights":[-2.7929518E-1,-1.0635823E0,4.4126344E-1,1.6711703E-1,9.899333E-1,2.0298512E-1,-6.679701E-1,3.5987213E-2,4.5519537E-1,3.0702806E-1,-1.5515013E-1,2.837904E-1,6.2661725E-1,1.6889994E-1,7.184321E-1,-7.610559E-1,-1.54918395E-2,4.3885496E-1,-8.340459E-3,3.1533796E-1,8.595254E-1],"categories":[],"categories_nodes":[],"categories_segments":[],"categories_sizes":[],"default_left":[1,0,1,1,0,1,0,1,1,1,1,1,1,0,0,0,0,0,0,0,0],"id":6,"left_children":[1,-1,3,5,-1,7,-1,9,11,13,15,17,19,-1,-1,-1,-1,-1,-1,-1,-1],"loss_changes":[6.991236E1,0E0,9.573864E0,1.4648737E0,0E0,1.808128E0,0E0,1.4540498E0,3.266909E-1,5.357319E-1,1.3916173E0,4.7538584E-1,2.913463E-1,0E0,0E0,0E0,0E0,0E0,0E0,0E0,0E0],"parents":[2147483647,0,0,2,2,3,3,5,5,7,7,8,8,9,9,10,10,11,11,12,12],"right_children":[2,-1,4,6,-1,8,-1,10,12,14,16,18,20,-1,-1,-1,-1,-1,-1,-1,-1],"split_conditions":[5E-1,-3.190747E-1,8.9444447E-1,8.63354E-1,2.9698E-1,8.090909E-1,-2.0039104E-1,6.8333334E-1,8.4962404E-1,6.066177E-1,7.434211E-1,5E-1,5E-1,5.0669983E-2,2.1552965E-1,-2.2831677E-1,-4.647552E-3,1.316565E-1,-2.5021378E-3,9.460139E-2,2.5785762E-1],"split_indices":[1,0,0,0,0,0,0,0,0,0,0,2,2,0,0,0,0,0,0,0,0],"split_type":[0,0,0,0,0,0,0,0,0,0,0,0,0,0,0,0,0,0,0,0,0],"sum_hessian":[1.21880875E2,5.813173E1,6.374914E1,4.337909E1,2.037005E1,4.231839E1,1.0607007E0,2.61477E1,1.617069E1,1.0562833E1,1.5584867E1,9.413564E0,6.757126E0,8.963799E0,1.5990334E0,2.0858812E0,1.3498985E1,5.821322E0,3.5922418E0,3.8994572E0,2.8576686E0],"tree_param":{"num_deleted":"0","num_feature":"3","num_nodes":"21","size_leaf_vector":"0"}},{"base_weights":[-2.4753548E-1,-1.0359945E0,3.6887622E-1,1.3245139E-1,9.420595E-1,2.6774859E-2,2.9008865E-1,4.1588607E-1,9.921655E-1,2.4933967E-1,-1.2775634E-1,3.4622738E-1,1.8248795E-1,1.2593682E-1,6.549815E-1,-6.984655E-1,-1.1163195E-2,6.0086715E-1,1.590211E-1,-6.380089E-3,3.4187692E-1,3.187724E-1,-2.7111685E-1,6.71513E-2,-2.4659969E-1,-1.7138658E-2,2.5611553E-1],"categories":[],"categories_nodes":[],"categories_segments":[],"categories_sizes":[],"default_left":[1,0,1,1,1,1,1,0,0,1,1,1,1,1,0,0,1,0,1,0,0,0,0,0,0,0,0],"id":7,"left_children":[1,-1,3,5,7,9,11,-1,-1,13,15,17,19,21,-1,-1,23,-1,25,-1,-1,-1,-1,-1,-1,-1,-1],"loss_changes":[4.9997036E1,0E0,7.73926E0,6.960247E-1,2.9841423E-2,9.3963605E-1,3.8624406E-2,0E0,0E0,4.7590065E-1,1.0727758E0,3.792894E-1,2.3978549E-1,8.3608544E-1,0E0,0E0,2.8392458E-1,0E0,1.2583707E-1,0E0,0E0,0E0,0E0,0E0,0E0,0E0,0E0],"parents":[2147483647,0,0,2,2,3,3,4,4,5,5,6,6,9,9,10,10,11,11,12,12,13,13,16,16,18,18],"right_children":[2,-1,4,6,8,10,12,-1,-1,14,16,18,20,22,-1,-1,24,-1,26,-1,-1,-1,-1,-1,-1,-1,-1],"split_conditions":[5E-1,-3.1079838E-1,8.9444447E-1,8.090909E-1,9.045454E-1,6.8333334E-1,5E-1,1.2476583E-1,2.9764965E-1,6.066177E-1,7.434211E-1,8.301436E-1,8.3766234E-1,4.8076922E-1,1.9649446E-1,-2.0953967E-1,5E-1,1.8026015E-1,8.4962404E-1,-1.9140268E-3,1.0256308E-1,9.5631726E-2,-8.133506E-2,2.014539E-2,-7.397991E-2,-5.1415977E-3,7.6834664E-2],"split_indices":[1,0,0,0,0,0,2,0,0,0,0,0,0,0,0,0,2,0,0,0,0,0,0,0,0,0,0],"split_type":[0,0,0,0,0,0,0,0,0,0,0,0,0,0,0,0,0,0,0,0,0,0,0,0,0,0,0],"sum_hessian":[1.0108501E2,4.405416E1,5.703085E1,4.1248062E1,1.5782789E1,2.5394201E1,1.585386E1,2.1808944E0,1.3601894E1,1.0154942E1,1.523926E1,8.960944E0,6.8929167E0,8.79103E0,1.3639114E0,1.7385668E0,1.3500692E1,2.860462E0,6.100482E0,3.5940804E0,3.298836E0,6.049936E0,2.7410944E0,1.0667189E1,2.8335042E0,2.4602683E0,3.6402135E0],"tree_param":{"num_deleted":"0","num_feature":"3","num_nodes":"27","size_leaf_vector":"0"}},{"base_weights":[-2.1381068E-1,-1.0131667E0,3.0626178E-1,1.0476947E-1,8.965752E-1,1.395376E-1,-6.363579E-1,3.6072958E-1,9.565947E-1,6.4844124E-2,5.0392354E-1,2.0482202E-1,7.83035E-4,2.0656642E-1,7.6113546E-1,9.362522E-2,5.9901166E-1,-4.018462E-1,1.2242986E-1],"categories":[],"categories_nodes":[],"categories_segments":[],"categories_sizes":[],"default_left":[1,0,1,1,1,1,0,0,0,1,1,1,1,0,0,0,0,0,0],"id":8,"left_children":[1,-1,3,5,7,9,-1,-1,-1,11,13,15,17,-1,-1,-1,-1,-1,-1],"loss_changes":[3.6216904E1,0E0,6.2213473E0,1.1379485E0,8.520603E-2,1.0481642E0,0E0,0E0,0E0,3.0565298E-1,3.481655E-1,4.130825E-1,1.2442865E0,0E0,0E0,0E0,0E0,0E0,0E0],"parents":[2147483647,0,0,2,2,3,3,4,4,5,5,9,9,10,10,11,11,12,12],"right_children":[2,-1,4,6,8,10,-1,-1,-1,12,14,16,18,-1,-1,-1,-1,-1,-1],"split_conditions":[5E-1,-3.0395E-1,8.9444447E-1,8.63354E-1,9.045454E-1,8.4962404E-1,-1.9090737E-1,1.0821888E-1,2.8697842E-1,6.8333334E-1,5E-1,6.066177E-1,7.7225673E-1,6.196993E-2,2.2834064E-1,2.8087566E-2,1.797035E-1,-1.20553866E-1,3.672896E-2],"split_indices":[1,0,0,0,0,0,0,0,0,0,2,0,0,0,0,0,0,0,0],"split_type":[0,0,0,0,0,0,0,0,0,0,0,0,0,0,0,0,0,0,0],"sum_hessian":[8.537147E1,3.3276722E1,5.209474E1,3.9715942E1,1.2378802E1,3.8711605E1,1.0043353E0,1.952989E0,1.0425813E1,3.3103794E1,5.6078115E0,9.703558E0,2.3400236E1,3.4372177E0,2.1705937E0,8.53378E0,1.1697776E0,4.8950644E0,1.8505173E1],"tree_param":{"num_deleted":"0","num_feature":"3","num_nodes":"19","size_leaf_vector":"0"}},{"base_weights":[-1.8206848E-1,-9.9263746E-1,2.5303197E-1,1.0018404E-1,9.2124605E-1,8.691885E-3,2.2705413E-1,1.5319912E-1,-1.19474575E-1,3.4784093E-1,3.850295E-2,-2.47242E-1,4.5215935E-1,3.5549458E-2,-6.2657857E-1,2.5425395E-1,5.763266E-1,2.837293E-1,-6.134631E-1,-3.5634104E-2,-5.8274E-1,1.4142276E-1,9.906635E-1,5.0880283E-1,8.5587606E-2,-3.3711914E-2,7.001419E-1],"categories":[],"categories_nodes":[],"categories_segments":[],"categories_sizes":[],"default_left":[1,0,1,1,0,1,1,1,1,1,1,1,1,0,0,1,0,1,0,0,0,0,0,0,0,0,0],"id":9,"left_children":[1,-1,3,5,-1,7,9,11,13,15,17,19,21,-1,-1,23,-1,25,-1,-1,-1,-1,-1,-1,-1,-1,-1],"loss_changes":[2.6400991E1,0E0,4.9168777E0,4.743623E-1,0E0,4.7914818E-1,3.7728488E-1,1.5643954E0,1.103095E0,7.438898E-2,1.4247352E0,3.9334863E-1,1.0815386E0,0E0,0E0,3.479603E-1,0E0,8.654018E-1,0E0,0E0,0E0,0E0,0E0,0E0,0E0,0E0,0E0],"parents":[2147483647,0,0,2,2,3,3,5,5,6,6,7,7,8,8,9,9,10,10,11,11,12,12,15,15,17,17],"right_children":[2,-1,4,6,-1,8,10,12,14,16,18,20,22,-1,-1,24,-1,26,-1,-1,-1,-1,-1,-1,-1,-1,-1],"split_conditions":[5E-1,-2.9779124E-1,9.045454E-1,8.090909E-1,2.7637383E-1,7.5595236E-1,5E-1,5E-1,5E-1,8.785714E-1,8.63354E-1,6.166667E-1,6.066177E-1,1.0664837E-2,-1.8797357E-1,8.301436E-1,1.72898E-1,8.3766234E-1,-1.8403894E-1,-1.0690232E-2,-1.74822E-1,4.2426832E-2,2.9719907E-1,1.5264085E-1,2.5676282E-2,-1.0113575E-2,2.1004258E-1],"split_indices":[1,0,0,0,0,0,2,2,2,0,0,0,0,0,0,0,0,0,0,0,0,0,0,0,0,0,0],"split_type":[0,0,0,0,0,0,0,0,0,0,0,0,0,0,0,0,0,0,0,0,0,0,0,0,0,0,0],"sum_hessian":[7.3146255E1,2.5101707E1,4.8044548E1,4.003649E1,8.008057E0,2.388231E1,1.6154179E1,1.1133742E1,1.27485695E1,9.331539E0,6.822639E0,4.833082E0,6.30066E0,1.0475927E1,2.2726421E0,8.118859E0,1.2126802E0,5.368264E0,1.4543749E0,3.6421132E0,1.1909691E0,4.795882E0,1.5047777E0,2.4319584E0,5.6869006E0,3.5676224E0,1.8006415E0],"tree_param":{"num_deleted":"0","num_feature":"3","num_nodes":"27","size_leaf_vector":"0"}},{"base_weights":[-1.5104154E-1,-9.725447E-1,2.1069753E-1,6.606067E-2,8.034667E-1,4.853074E-3,1.6298093E-1,2.8996986E-1,8.84383E-1,2.0874843E-1,-6.7222506E-2,2.0874207E-1,8.109597E-2,-1.2593225E-1,3.4670824E-1,-2.2778244E-1,3.3654184E-3,4.4227087E-1,6.498845E-2,-2.575936E-2,2.0475791E-1,3.8517462E-3,6.844431E-1,-8.832785E-3,-5.773909E-1,2.5865901E-2,-7.16455E-2,-5.8667883E-2,1.4833468E-1],"categories":[],"categories_nodes":[],"categories_segments":[],"categories_sizes":[],"default_left":[1,0,1,1,1,1,1,0,0,1,1,1,1,0,1,1,1,0,1,0,0,0,0,0,0,0,0,0,0],"id":10,"left_children":[1,-1,3,5,7,9,11,-1,-1,13,15,17,19,-1,21,23,25,-1,27,-1,-1,-1,-1,-1,-1,-1,-1,-1,-1],"loss_changes":[1.9414122E1,0E0,3.8651252E0,2.2360481E-1,1.1228418E-1,3.698986E-1,3.782153E-2,0E0,0E0,3.4691954E-1,2.1210897E-1,2.6458564E-1,9.6098706E-2,0E0,5.6675506E-1,4.3191335E-1,2.5378015E-2,0E0,7.652455E-2,0E0,0E0,0E0,0E0,0E0,0E0,0E0,0E0,0E0,0E0],"parents":[2147483647,0,0,2,2,3,3,4,4,5,5,6,6,9,9,10,10,11,11,12,12,14,14,15,15,16,16,18,18],"right_children":[2,-1,4,6,8,10,12,-1,-1,14,16,18,20,-1,22,24,26,-1,28,-1,-1,-1,-1,-1,-1,-1,-1,-1,-1],"split_conditions":[5E-1,-2.9176342E-1,8.9444447E-1,8.090909E-1,9.045454E-1,4.8076922E-1,5E-1,8.699096E-2,2.653149E-1,5E-1,7.434211E-1,8.301436E-1,8.3766234E-1,-3.7779674E-2,4.4505495E-1,6.8333334E-1,5E-1,1.3268127E-1,8.4962404E-1,-7.7278083E-3,6.1427377E-2,1.1555239E-3,2.0533295E-1,-2.6498358E-3,-1.7321728E-1,7.759771E-3,-2.1493651E-2,-1.7600365E-2,4.4500407E-2],"split_indices":[1,0,0,0,0,0,2,0,0,2,0,0,0,0,0,0,2,0,0,0,0,0,0,0,0,0,0,0,0],"split_type":[0,0,0,0,0,0,0,0,0,0,0,0,0,0,0,0,0,0,0,0,0,0,0,0,0,0,0,0,0],"sum_hessian":[6.364052E1,1.893987E1,4.4700645E1,3.682638E1,7.8742666E0,2.3215363E1,1.3611016E1,1.6958628E0,6.178404E0,5.567934E0,1.7647429E1,7.737647E0,5.873369E0,1.650681E0,3.917253E0,4.709111E0,1.2938318E1,2.1569982E0,5.580649E0,3.5755014E0,2.2978678E0,2.445784E0,1.4714689E0,3.5260885E0,1.1830225E0,1.045683E1,2.4814885E0,2.3661757E0,3.2144735E0],"tree_param":{"num_deleted":"0","num_feature":"3","num_nodes":"29","size_leaf_vector":"0"}},{"base_weights":[-1.2229702E-1,-9.513892E-1,1.7280617E-1,6.7477986E-2,8.4500575E-1,2.8869E-3,1.603033E-1,1.2823124E-1,-1.0270049E-1,2.1478264E-1,-1.0283495E-1,-1.7674415E-1,3.577563E-1,1.8811608E-2,-5.270824E-1,9.862641E-2,3.6309087E-1,-2.6845867E-2,-3.6503604E-1,6.2056117E-2,8.9262694E-1,1.8179567E-1,-1.9690072E-2,1.1803593E-1,6.2792915E-1],"categories":[],"categories_nodes":[],"categories_segments":[],"categories_sizes":[],"default_left":[1,0,1,1,0,1,1,1,1,1,0,1,1,0,0,1,1,0,0,0,0,0,0,0,0],"id":11,"left_children":[1,-1,3,5,-1,7,9,11,13,15,-1,17,19,-1,-1,21,23,-1,-1,-1,-1,-1,-1,-1,-1],"loss_changes":[1.4296238E1,0E0,3.0188594E0,2.3124252E-1,0E0,3.2824612E-1,2.4914303E-1,8.5630524E-1,7.0489126E-1,1.95817E-1,0E0,1.4641032E-1,1.019342E0,0E0,0E0,9.128689E-2,2.849458E-1,0E0,0E0,0E0,0E0,0E0,0E0,0E0,0E0],"parents":[2147483647,0,0,2,2,3,3,5,5,6,6,7,7,8,8,9,9,11,11,12,12,15,15,16,16],"right_children":[2,-1,4,6,-1,8,10,12,14,16,-1,18,20,-1,-1,22,24,-1,-1,-1,-1,-1,-1,-1,-1],"split_conditions":[5E-1,-2.8541678E-1,9.045454E-1,8.090909E-1,2.5350174E-1,7.5595236E-1,8.63354E-1,5E-1,5E-1,8.4962404E-1,-3.0850485E-2,5.1666665E-1,6.066177E-1,5.6434823E-3,-1.5812472E-1,5E-1,5E-1,-8.05376E-3,-1.0951082E-1,1.8616837E-2,2.6778808E-1,5.4538704E-2,-5.907022E-3,3.541078E-2,1.8837875E-1],"split_indices":[1,0,0,0,0,0,0,2,2,0,0,0,0,0,0,2,2,0,0,0,0,0,0,0,0],"split_type":[0,0,0,0,0,0,0,0,0,0,0,0,0,0,0,0,0,0,0,0,0,0,0,0,0],"sum_hessian":[5.6759274E1,1.4315622E1,4.2443653E1,3.764532E1,4.7983303E0,2.2806715E1,1.4838606E1,1.0329709E1,1.2477007E1,1.244566E1,2.392946E0,4.534529E0,5.79518E0,1.0442661E1,2.0343454E0,7.9130807E0,4.5325794E0,3.160804E0,1.3737252E0,4.450672E0,1.3445078E0,4.331665E0,3.581416E0,3.1051102E0,1.4274693E0],"tree_param":{"num_deleted":"0","num_feature":"3","num_nodes":"25","size_leaf_vector":"0"}},{"base_weights":[-9.687962E-2,-9.279344E-1,1.426644E-1,3.916673E-2,7.078227E-1,1.7329556E-1,1.0393801E-2,2.6376814E-1,8.027942E-1,-9.660816E-2,2.9074016E-1,-2.2325219E-1,5.6822732E-2,-1.0184828E-2,6.1979336E-1,2.4487678E-4,-4.3428093E-1,1.0873097E-2,9.8526895E-2,-3.8534015E-2,2.8719638E-2,1.3621485E-1,3.6932964E-2],"categories":[],"categories_nodes":[],"categories_segments":[],"categories_sizes":[],"default_left":[1,0,1,1,1,1,1,0,0,0,1,1,1,0,0,0,0,1,1,0,0,0,0],"id":12,"left_children":[1,-1,3,5,7,9,11,-1,-1,-1,13,15,17,-1,-1,-1,-1,19,21,-1,-1,-1,-1],"loss_changes":[1.056187E1,0E0,2.4017398E0,1.3776661E-1,5.690217E-2,2.2854403E-1,3.4724078E-1,0E0,0E0,0E0,4.6733302E-1,2.5080365E-1,4.9758397E-2,0E0,0E0,0E0,0E0,1.3225574E-2,2.6959315E-2,0E0,0E0,0E0,0E0],"parents":[2147483647,0,0,2,2,3,3,4,4,5,5,6,6,10,10,11,11,12,12,17,17,18,18],"right_children":[2,-1,4,6,8,10,12,-1,-1,-1,14,16,18,-1,-1,-1,-1,20,22,-1,-1,-1,-1],"split_conditions":[5E-1,-2.7838033E-1,8.9444447E-1,4.8076922E-1,9.045454E-1,5E-1,7.434211E-1,7.913044E-2,2.4083827E-1,-2.898245E-2,4.4505495E-1,5.6078434E-1,8.090909E-1,-3.0554486E-3,1.8593802E-1,7.346304E-5,-1.3028428E-1,7.7225673E-1,5E-1,-1.1560205E-2,8.615891E-3,4.0864456E-2,1.107989E-2],"split_indices":[1,0,0,0,0,2,0,0,0,0,0,0,0,0,0,0,0,0,2,0,0,0,0],"split_type":[0,0,0,0,0,0,0,0,0,0,0,0,0,0,0,0,0,0,0,0,0,0,0],"sum_hessian":[5.1389946E1,1.0855386E1,4.053456E1,3.5164223E1,5.370337E0,5.3237915E0,2.9840431E1,1.6117383E0,3.7585986E0,1.667974E0,3.6558175E0,4.315403E0,2.5525028E1,2.4156818E0,1.2401356E0,2.5808775E0,1.7345252E0,1.2744196E1,1.2780832E1,3.074217E0,9.669979E0,7.1775503E0,5.603282E0],"tree_param":{"num_deleted":"0","num_feature":"3","num_nodes":"23","size_leaf_vector":"0"}},{"base_weights":[-7.618718E-2,-9.0119433E-1,1.1601719E-1,3.0348238E-2,6.537612E-1,1.1588255E-1,-7.0460346E-3,2.2638163E-1,7.580417E-1,-1.2316704E-1,2.9415438E-1,-3.9233547E-1,5.3040467E-2,-9.070433E-3,-2.838191E-1,1.3171686E-2,8.039868E-1,1.5116914E-2,-6.625492E-1,2.095418E-2,7.4360594E-2,-7.813526E-2,6.869607E-2,-8.011213E-3,3.419376E-2,1.3169725E-1,2.0618794E-2],"categories":[],"categories_nodes":[],"categories_segments":[],"categories_sizes":[],"default_left":[1,0,1,1,1,1,1,0,0,1,1,1,1,1,0,1,0,0,0,0,1,0,0,0,0,0,0],"id":13,"left_children":[1,-1,3,5,7,9,11,-1,-1,13,15,17,19,21,-1,23,-1,-1,-1,-1,25,-1,-1,-1,-1,-1,-1],"loss_changes":[7.7889123E0,0E0,1.8316135E0,1.1505221E-1,7.236147E-2,5.016711E-1,6.179513E-1,0E0,0E0,9.586512E-2,9.279169E-1,4.0625906E-1,1.4308959E-2,2.7781764E-2,0E0,2.607464E-3,0E0,0E0,0E0,0E0,3.9015338E-2,0E0,0E0,0E0,0E0,0E0,0E0],"parents":[2147483647,0,0,2,2,3,3,4,4,5,5,6,6,9,9,10,10,11,11,12,12,13,13,15,15,20,20],"right_children":[2,-1,4,6,8,10,12,-1,-1,14,16,18,20,22,-1,24,-1,-1,-1,-1,26,-1,-1,-1,-1,-1,-1],"split_conditions":[5E-1,-2.7035832E-1,8.9444447E-1,7.5595236E-1,9.045454E-1,5E-1,7.7225673E-1,6.791449E-2,2.274125E-1,5.1666665E-1,6.066177E-1,5E-1,8.090909E-1,4.8076922E-1,-8.5145734E-2,4.4505495E-1,2.4119605E-1,4.5350743E-3,-1.9876477E-1,6.2862546E-3,8.301436E-1,-2.3440579E-2,2.060882E-2,-2.4033638E-3,1.0258129E-2,3.9509177E-2,6.1856387E-3],"split_indices":[1,0,0,0,0,2,0,0,0,0,0,2,0,0,0,0,0,0,0,0,0,0,0,0,0,0,0],"split_type":[0,0,0,0,0,0,0,0,0,0,0,0,0,0,0,0,0,0,0,0,0,0,0,0,0,0,0],"sum_hessian":[4.746036E1,8.270747E0,3.9189613E1,3.4715466E1,4.4741464E0,9.921788E0,2.4793678E1,1.4995072E0,2.9746392E0,4.370445E0,5.5513434E0,2.598965E0,2.2194714E1,3.17324E0,1.1972047E0,4.240257E0,1.311087E0,1.4127499E0,1.186215E0,9.651808E0,1.2542907E1,1.6781363E0,1.4951036E0,2.4203274E0,1.8199292E0,5.3666835E0,7.1762233E0],"tree_param":{"num_deleted":"0","num_feature":"3","num_nodes":"27","size_leaf_vector":"0"}},{"base_weights":[-6.0424197E-2,-8.704849E-1,9.3237415E-2,3.3745434E-2,7.1152866E-1,5.0727244E-2,-1.5818626E-1,8.458342E-3,2.926674E-1,1.5752912E-1,-2.834267E-2,6.0531873E-2,5.73395E-1,-6.3229665E-2,2.5465092E-1,-2.1315794E-1,1.7996643E-2],"categories":[],"categories_nodes":[],"categories_segments":[],"categories_sizes":[],"default_left":[1,0,1,1,0,1,0,1,1,1,1,0,0,0,0,0,0],"id":14,"left_children":[1,-1,3,5,-1,7,-1,9,11,13,15,-1,-1,-1,-1,-1,-1],"loss_changes":[5.7370477E0,0E0,1.4140799E0,1.2768921E-1,0E0,3.5020906E-1,0E0,1.711711E-1,2.975988E-1,1.4836824E-1,2.1981546E-1,0E0,0E0,0E0,0E0,0E0,0E0],"parents":[2147483647,0,0,2,2,3,3,5,5,7,7,8,8,9,9,10,10],"right_children":[2,-1,4,6,-1,8,-1,10,12,14,16,-1,-1,-1,-1,-1,-1],"split_conditions":[5E-1,-2.6114547E-1,9.045454E-1,8.63354E-1,2.1345861E-1,8.4962404E-1,-4.745588E-2,4.8076922E-1,5E-1,5E-1,7.434211E-1,1.8159563E-2,1.7201851E-1,-1.89689E-2,7.639528E-2,-6.394739E-2,5.398993E-3],"split_indices":[1,0,0,0,0,0,0,0,2,2,0,0,0,0,0,0,0],"split_type":[0,0,0,0,0,0,0,0,0,0,0,0,0,0,0,0,0],"sum_hessian":[4.4437843E1,6.341627E0,3.8096214E1,3.571436E1,2.381857E0,3.3487167E1,2.2271895E0,2.9387836E1,4.0993323E0,5.169015E0,2.4218822E1,2.9092662E0,1.1900662E0,1.6859043E0,3.4831107E0,4.1334457E0,2.0085377E1],"tree_param":{"num_deleted":"0","num_feature":"3","num_nodes":"17","size_leaf_vector":"0"}},{"base_weights":[-4.5179166E-2,-8.3550715E-1,7.785456E-2,1.4250372E-2,5.639087E-1,1.02544814E-1,-2.3439687E-2,2.1663594E-1,6.643441E-1,-6.7147516E-2,2.2764315E-1,-3.497066E-1,2.7145319E-2,2.350624E-2,-2.1602406E-1,-3.0351158E-2,7.0681226E-1,9.263906E-3,-6.035513E-1,4.469932E-2,-1.1596079E-2,-5.1187713E-2,9.479582E-2,-6.115746E-2,1.7372075E-2,7.036464E-2,-2.1477068E-2,-1.2491197E-1,5.4755338E-2],"categories":[],"categories_nodes":[],"categories_segments":[],"categories_sizes":[],"default_left":[1,0,1,1,1,1,1,0,0,1,1,1,1,1,0,1,0,0,0,1,1,0,0,0,0,0,0,0,0],"id":15,"left_children":[1,-1,3,5,7,9,11,-1,-1,13,15,17,19,21,-1,23,-1,-1,-1,25,27,-1,-1,-1,-1,-1,-1,-1,-1],"loss_changes":[4.2634997E0,0E0,1.1752719E0,1.18454285E-1,9.656906E-3,2.4070317E-1,4.2629176E-1,0E0,0E0,7.631678E-2,8.0526257E-1,3.2104912E-1,1.6018547E-2,2.7124299E-2,0E0,8.531151E-3,0E0,0E0,0E0,2.8501317E-2,6.624508E-2,0E0,0E0,0E0,0E0,0E0,0E0,0E0,0E0],"parents":[2147483647,0,0,2,2,3,3,4,4,5,5,6,6,9,9,10,10,11,11,12,12,13,13,15,15,19,19,20,20],"right_children":[2,-1,4,6,8,10,12,-1,-1,14,16,18,20,22,-1,24,-1,-1,-1,26,28,-1,-1,-1,-1,-1,-1,-1,-1],"split_conditions":[5E-1,-2.5065216E-1,8.9444447E-1,7.5595236E-1,9.045454E-1,5E-1,7.7225673E-1,6.499079E-2,1.9930322E-1,5.1666665E-1,6.066177E-1,5E-1,8.301436E-1,4.8076922E-1,-6.480722E-2,4.4505495E-1,2.1204369E-1,2.7791718E-3,-1.8106541E-1,5E-1,8.4962404E-1,-1.5356314E-2,2.8438749E-2,-1.834724E-2,5.211623E-3,2.1109393E-2,-6.4431205E-3,-3.7473593E-2,1.6426602E-2],"split_indices":[1,0,0,0,0,2,0,0,0,0,0,2,0,0,0,0,0,0,0,2,0,0,0,0,0,0,0,0,0],"split_type":[0,0,0,0,0,0,0,0,0,0,0,0,0,0,0,0,0,0,0,0,0,0,0,0,0,0,0,0,0],"sum_hessian":[4.217751E1,4.901435E0,3.7276073E1,3.3872852E1,3.403223E0,9.618762E0,2.425409E1,1.4716624E0,1.9315606E0,4.2784324E0,5.34033E0,2.4618998E0,2.1792189E1,3.1825976E0,1.095835E0,4.0801525E0,1.2601775E0,1.4188961E0,1.0430038E0,1.4891128E1,6.901062E0,1.6918888E0,1.4907087E0,2.3084798E0,1.7716726E0,1.0684175E1,4.206953E0,2.2226338E0,4.6784277E0],"tree_param":{"num_deleted":"0","num_feature":"3","num_nodes":"29","size_leaf_vector":"0"}},{"base_weights":[-3.6114022E-2,-7.964206E-1,6.2455196E-2,8.858287E-3,5.135548E-1,1.12079024E-1,-2.4356369E-2,1.8547879E-1,6.1765367E-1,1.9216558E-2,1.5994951E-1,-4.5786452E-1,1.8050516E-2,1.4137489E-2,3.1944308E-1,-3.0932566E-3,3.8221084E-2,-1.9097656E-2,5.6828298E-2,8.348447E-2,-2.3412328E-2],"categories":[],"categories_nodes":[],"categories_segments":[],"categories_sizes":[],"default_left":[1,0,1,1,1,1,1,0,0,0,1,0,1,0,0,1,1,0,0,0,0],"id":16,"left_children":[1,-1,3,5,7,9,11,-1,-1,-1,13,-1,15,-1,-1,17,19,-1,-1,-1,-1],"loss_changes":[3.152898E0,0E0,9.04096E-1,1.2138358E-1,2.1144032E-2,3.5173684E-2,5.047136E-1,0E0,0E0,0E0,1.24338806E-1,0E0,1.1019351E-2,0E0,0E0,1.3940186E-2,3.8656946E-2,0E0,0E0,0E0,0E0],"parents":[2147483647,0,0,2,2,3,3,4,4,5,5,6,6,10,10,12,12,15,15,16,16],"right_children":[2,-1,4,6,8,10,12,-1,-1,-1,14,-1,16,-1,-1,18,20,-1,-1,-1,-1],"split_conditions":[5E-1,-2.3892619E-1,8.9444447E-1,5.6078434E-1,9.045454E-1,4.4505495E-1,7.434211E-1,5.564364E-2,1.852961E-1,5.7649678E-3,5E-1,-1.3735937E-1,8.090909E-1,4.2412467E-3,9.583293E-2,5E-1,5E-1,-5.729297E-3,1.704849E-2,2.5045343E-2,-7.0236987E-3],"split_indices":[1,0,0,0,0,0,0,0,0,0,2,0,0,0,0,2,2,0,0,0,0],"split_type":[0,0,0,0,0,0,0,0,0,0,0,0,0,0,0,0,0,0,0,0,0],"sum_hessian":[4.0407E1,3.8248086E0,3.6582195E1,3.3608654E1,2.9735386E0,7.6038594E0,2.6004797E1,1.3862901E0,1.5872486E0,3.0631592E0,4.5407E0,1.4442174E0,2.456058E1,2.9408028E0,1.5998973E0,1.2404364E1,1.2156216E1,1.0327333E1,2.0770302E0,6.8044877E0,5.3517275E0],"tree_param":{"num_deleted":"0","num_feature":"3","num_nodes":"21","size_leaf_vector":"0"}},{"base_weights":[-2.7820189E-2,-7.538591E-1,5.1732138E-2,6.3527655E-3,4.6629465E-1,8.890796E-2,-2.832585E-2,1.5858722E-1,5.7250834E-1,2.11562E-3,3.297367E-1,-3.1237665E-1,1.4925047E-2,1.1712318E-1,-1.8176258E-1,3.3891097E-2,-2.5289342E-2,-4.455331E-2,1.9225389E-1,-3.2141034E-3,9.1722704E-2,-1.1559547E-1,3.170864E-2],"categories":[],"categories_nodes":[],"categories_segments":[],"categories_sizes":[],"default_left":[1,0,1,1,1,1,1,0,0,1,0,0,1,1,0,1,1,0,0,0,0,0,0],"id":17,"left_children":[1,-1,3,5,7,9,11,-1,-1,13,-1,-1,15,17,-1,19,21,-1,-1,-1,-1,-1,-1],"loss_changes":[2.3514485E0,0E0,6.9346E-1,1.00945905E-1,2.8126836E-2,2.1692616E-1,3.1141496E-1,0E0,0E0,2.0442142E-1,0E0,0E0,1.8112367E-2,8.066658E-2,0E0,3.4200624E-2,4.3932866E-2,0E0,0E0,0E0,0E0,0E0,0E0],"parents":[2147483647,0,0,2,2,3,3,4,4,5,5,6,6,9,9,12,12,13,13,15,15,16,16],"right_children":[2,-1,4,6,8,10,12,-1,-1,14,-1,-1,16,18,-1,20,22,-1,-1,-1,-1,-1,-1],"split_conditions":[5E-1,-2.2615774E-1,8.9444447E-1,7.5595236E-1,9.045454E-1,6.066177E-1,7.7225673E-1,4.7576167E-2,1.7175251E-1,4.8076922E-1,9.8921016E-2,-9.3713E-2,8.301436E-1,5E-1,-5.4528777E-2,8.090909E-1,8.4962404E-1,-1.3365993E-2,5.767617E-2,-9.6423103E-4,2.7516812E-2,-3.467864E-2,9.512592E-3],"split_indices":[1,0,0,0,0,0,0,0,0,0,0,0,0,2,0,0,0,0,0,0,0,0,0],"split_type":[0,0,0,0,0,0,0,0,0,0,0,0,0,0,0,0,0,0,0,0,0,0,0],"sum_hessian":[3.9036816E1,3.0178616E0,3.6018955E1,3.3380356E1,2.638599E0,9.411578E0,2.3968777E1,1.3168118E0,1.3217872E0,7.659834E0,1.7517446E0,2.3450696E0,2.1623707E1,4.9357705E0,2.7240636E0,1.4800625E1,6.823082E0,1.6950723E0,3.240698E0,9.591237E0,5.209388E0,2.24233E0,4.580752E0],"tree_param":{"num_deleted":"0","num_feature":"3","num_nodes":"23","size_leaf_vector":"0"}},{"base_weights":[-2.1638818E-2,-7.0885694E-1,4.3147758E-2,4.3590805E-3,4.226774E-1,9.145532E-2,-2.3014259E-2,1.3545743E-1,5.297266E-1,-1.5513255E-2,1.5320164E-1,-4.2251104E-1,1.6610706E-2,4.1572683E-2,2.6913625E-1,7.5401336E-2,4.074924E-3,1.8988177E-2,-3.563715E-2],"categories":[],"categories_nodes":[],"categories_segments":[],"categories_sizes":[],"default_left":[1,0,1,1,1,1,1,0,0,0,1,0,1,0,0,0,1,0,0],"id":18,"left_children":[1,-1,3,5,7,9,11,-1,-1,-1,13,-1,15,-1,-1,-1,17,-1,-1],"loss_changes":[1.7634907E0,0E0,5.3565866E-1,8.3489664E-2,3.2018006E-2,5.762107E-2,4.3082306E-1,0E0,0E0,0E0,5.8631256E-2,0E0,1.8352147E-2,0E0,0E0,0E0,1.366197E-2,0E0,0E0],"parents":[2147483647,0,0,2,2,3,3,4,4,5,5,6,6,10,10,12,12,16,16],"right_children":[2,-1,4,6,8,10,12,-1,-1,-1,14,-1,16,-1,-1,-1,18,-1,-1],"split_conditions":[5E-1,-2.126571E-1,8.9444447E-1,5.6078434E-1,9.045454E-1,4.4505495E-1,7.434211E-1,4.063723E-2,1.58918E-1,-4.6539768E-3,5E-1,-1.2675332E-1,7.9130435E-1,1.2471805E-2,8.074088E-2,2.2620402E-2,5E-1,5.696453E-3,-1.0691145E-2],"split_indices":[1,0,0,0,0,0,0,0,0,0,2,0,0,0,0,0,2,0,0],"split_type":[0,0,0,0,0,0,0,0,0,0,0,0,0,0,0,0,0,0,0],"sum_hessian":[3.7922005E1,2.4105785E0,3.5511425E1,3.3136314E1,2.3751109E0,7.364136E0,2.5772177E1,1.2599522E0,1.1151587E0,2.9691591E0,4.394977E0,1.4536641E0,2.4318514E1,2.9312131E0,1.4637642E0,3.3926568E0,2.0925858E1,1.5592274E1,5.333583E0],"tree_param":{"num_deleted":"0","num_feature":"3","num_nodes":"19","size_leaf_vector":"0"}},{"base_weights":[-1.7208375E-2,-6.626874E-1,3.5855502E-2,2.5348936E-3,3.8295785E-1,7.575905E-2,-2.774014E-2,-1.2563724E-2,3.2048383E-1,-2.7098894E-1,8.542875E-3,8.1413016E-2,-1.5452616E-1,2.3182314E-2,-2.194712E-2,-1.20045785E-2,1.8575746E-1,-8.578303E-3,7.409556E-2,-9.40044E-2,2.4727203E-2],"categories":[],"categories_nodes":[],"categories_segments":[],"categories_sizes":[],"default_left":[1,0,1,1,0,1,1,1,0,0,1,1,0,1,1,0,0,0,0,0,0],"id":19,"left_children":[1,-1,3,5,-1,7,9,11,-1,-1,13,15,-1,17,19,-1,-1,-1,-1,-1,-1],"loss_changes":[1.3311924E0,0E0,4.1794226E-1,7.759595E-2,0E0,2.2513458E-1,2.2141638E-1,1.256995E-1,0E0,0E0,1.0584057E-2,5.8343466E-2,0E0,2.6081951E-2,2.8678197E-2,0E0,0E0,0E0,0E0,0E0,0E0],"parents":[2147483647,0,0,2,2,3,3,5,5,6,6,7,7,10,10,11,11,13,13,14,14],"right_children":[2,-1,4,6,-1,8,10,12,-1,-1,14,16,-1,18,20,-1,-1,-1,-1,-1,-1],"split_conditions":[5E-1,-1.9880624E-1,8.9444447E-1,7.5595236E-1,1.1488736E-1,6.066177E-1,7.7225673E-1,4.8076922E-1,9.614515E-2,-8.129668E-2,8.301436E-1,4.4505495E-1,-4.6357848E-2,8.090909E-1,8.4962404E-1,-3.6013736E-3,5.572724E-2,-2.573491E-3,2.222867E-2,-2.8201321E-2,7.4181613E-3],"split_indices":[1,0,0,0,0,0,0,0,0,0,0,0,0,0,0,0,0,0,0,0,0],"split_type":[0,0,0,0,0,0,0,0,0,0,0,0,0,0,0,0,0,0,0,0,0],"sum_hessian":[3.7171375E1,1.9509662E0,3.522041E1,3.305459E1,2.1658213E0,9.229489E0,2.3825098E1,7.4789495E0,1.75054E0,2.2528398E0,2.1572258E1,4.7566466E0,2.722303E0,1.4736406E1,6.835851E0,2.9766555E0,1.7799909E0,9.587229E0,5.149178E0,2.2885957E0,4.5472555E0],"tree_param":{"num_deleted":"0","num_feature":"3","num_nodes":"21","size_leaf_vector":"0"}},{"base_weights":[-1.46572525E-2,-6.166607E-1,2.9419983E-2,2.2987877E-3,3.322929E-1,7.976868E-2,-2.1746248E-2,-9.292798E-3,1.3199294E-1,-3.9162093E-1,1.5273434E-2,4.1916285E-2,2.2554222E-1,8.942183E-2,-7.7903445E-5,1.563235E-2,-4.1181903E-2],"categories":[],"categories_nodes":[],"categories_segments":[],"categories_sizes":[],"default_left":[1,0,1,1,0,1,1,0,1,0,1,0,0,0,1,0,0],"id":20,"left_children":[1,-1,3,5,-1,7,9,-1,11,-1,13,-1,-1,-1,15,-1,-1],"loss_changes":[1.0119089E0,0E0,2.937268E-1,6.4903975E-2,0E0,3.958281E-2,3.7109542E-1,0E0,3.49048E-2,0E0,2.8693182E-2,0E0,0E0,0E0,1.4771528E-2,0E0,0E0],"parents":[2147483647,0,0,2,2,3,3,5,5,6,6,8,8,10,10,14,14],"right_children":[2,-1,4,6,-1,8,10,-1,12,-1,14,-1,-1,-1,16,-1,-1],"split_conditions":[5E-1,-1.8499821E-1,8.9444447E-1,5.6078434E-1,9.968788E-2,4.4505495E-1,7.434211E-1,-2.7878396E-3,5E-1,-1.1748628E-1,7.9130435E-1,1.2574886E-2,6.766267E-2,2.6826551E-2,5E-1,4.689705E-3,-1.2354571E-2],"split_indices":[1,0,0,0,0,0,0,0,2,0,0,0,0,0,2,0,0],"split_type":[0,0,0,0,0,0,0,0,0,0,0,0,0,0,0,0,0],"sum_hessian":[3.645166E1,1.6005818E0,3.4851078E1,3.2911556E1,1.9395231E0,7.246578E0,2.5664978E1,2.9824567E0,4.2641215E0,1.4635445E0,2.4201433E1,2.9101071E0,1.3540146E0,3.3235168E0,2.0877916E1,1.5553096E1,5.3248205E0],"tree_param":{"num_deleted":"0","num_feature":"3","num_nodes":"17","size_leaf_vector":"0"}},{"base_weights":[-1.3680427E-2,-5.7193935E-1,2.3231613E-2,1.0402154E-3,2.8693336E-1,6.766876E-2,-2.632183E-2,-1.9148884E-2,3.082707E-1,-2.3903483E-1,4.872825E-3,8.160598E-2,-1.13520496E-1,1.603353E-2,-1.8065877E-2,-6.2256604E-2,1.8474276E-1,3.9075565E-2,-3.7727725E-2,-7.662422E-2,2.0479143E-2],"categories":[],"categories_nodes":[],"categories_segments":[],"categories_sizes":[],"default_left":[1,0,1,1,0,1,1,1,0,0,1,1,0,1,1,0,0,0,0,0,0],"id":21,"left_children":[1,-1,3,5,-1,7,9,11,-1,-1,13,15,-1,17,19,-1,-1,-1,-1,-1,-1],"loss_changes":[7.7485484E-1,0E0,2.0818502E-1,6.351991E-2,0E0,2.176831E-1,1.652359E-1,8.905647E-2,0E0,0E0,6.0611656E-3,8.035371E-2,0E0,2.0916821E-2,1.928496E-2,0E0,0E0,0E0,0E0,0E0,0E0],"parents":[2147483647,0,0,2,2,3,3,5,5,6,6,7,7,10,10,11,11,13,13,14,14],"right_children":[2,-1,4,6,-1,8,10,12,-1,-1,14,16,-1,18,20,-1,-1,-1,-1,-1,-1],"split_conditions":[5E-1,-1.715818E-1,8.9444447E-1,7.5595236E-1,8.6080015E-2,6.066177E-1,7.7225673E-1,5E-1,9.248121E-2,-7.171045E-2,8.301436E-1,4.8076922E-1,-3.405615E-2,5E-1,8.4962404E-1,-1.8676981E-2,5.542283E-2,1.172267E-2,-1.1318318E-2,-2.2987267E-2,6.143743E-3],"split_indices":[1,0,0,0,0,0,0,2,0,0,0,0,0,2,0,0,0,0,0,0,0],"split_type":[0,0,0,0,0,0,0,0,0,0,0,0,0,0,0,0,0,0,0,0,0],"sum_hessian":[3.595769E1,1.3311206E0,3.462657E1,3.286483E1,1.7617421E0,9.138598E0,2.372623E1,7.391793E0,1.746806E0,2.182348E0,2.1543882E1,3.6404133E0,3.7513793E0,1.469509E1,6.848792E0,1.6855942E0,1.9548191E0,1.0477574E1,4.217516E0,2.3264656E0,4.5223265E0],"tree_param":{"num_deleted":"0","num_feature":"3","num_nodes":"21","size_leaf_vector":"0"}},{"base_weights":[-1.2192296E-2,-5.294204E-1,1.907574E-2,8.869837E-4,2.4682717E-1,7.061568E-2,-2.088577E-2,1.55212525E-2,9.957941E-2,-3.648503E-1,1.38142E-2,9.284755E-3,2.0957774E-1,9.652528E-2,-2.978232E-3,1.2826994E-1,3.9677292E-2,-3.5344362E-2,2.1892216E-2],"categories":[],"categories_nodes":[],"categories_segments":[],"categories_sizes":[],"default_left":[1,0,1,1,0,1,1,0,1,0,1,0,0,1,1,0,0,0,0],"id":22,"left_children":[1,-1,3,5,-1,7,9,-1,11,-1,13,-1,-1,15,17,-1,-1,-1,-1],"loss_changes":[6.021856E-1,0E0,1.4679241E-1,5.289193E-2,0E0,1.1678323E-2,3.2229245E-1,0E0,5.0167933E-2,0E0,3.5160735E-2,0E0,0E0,2.6113503E-3,1.8354852E-2,0E0,0E0,0E0,0E0],"parents":[2147483647,0,0,2,2,3,3,5,5,6,6,8,8,10,10,13,13,14,14],"right_children":[2,-1,4,6,-1,8,10,-1,12,-1,14,-1,-1,16,18,-1,-1,-1,-1],"split_conditions":[5E-1,-1.5882611E-1,8.9444447E-1,5.6078434E-1,7.4048154E-2,4.4505495E-1,7.434211E-1,4.656376E-3,5E-1,-1.094551E-1,7.9130435E-1,2.7854266E-3,6.2873326E-2,5E-1,8.090909E-1,3.8480982E-2,1.1903188E-2,-1.0603309E-2,6.567665E-3],"split_indices":[1,0,0,0,0,0,0,0,2,0,0,0,0,2,0,0,0,0,0],"split_type":[0,0,0,0,0,0,0,0,0,0,0,0,0,0,0,0,0,0,0],"sum_hessian":[3.5610233E1,1.1218122E0,3.448842E1,3.2867443E1,1.6209756E0,7.287009E0,2.5580435E1,3.0400853E0,4.2469234E0,1.4722532E0,2.4108183E1,2.927899E0,1.3190248E0,3.2672431E0,2.0840939E1,1.2903354E0,1.9769076E0,8.872815E0,1.1968124E1],"tree_param":{"num_deleted":"0","num_feature":"3","num_nodes":"19","size_leaf_vector":"0"}},{"base_weights":[-1.0962748E-2,-2.6712103E-2,2.1171157E-1,-9.959187E-2,4.486679E-3,1.2330995E-2,-3.9938533E-1,2.1466509E-2,-3.1673197E-2,-6.646998E-2,7.595619E-2,5.0156128E-2,-4.2809177E-2,-5.485703E-2,3.4869988E-2,3.3778977E-3,1.682692E-1,-2.1168198E-3,2.6074097E-1,-6.455883E-2,-1.1397793E-2,4.4875923E-3,-8.242658E-2,9.919104E-2,-2.572723E-2],"categories":[],"categories_nodes":[],"categories_segments":[],"categories_sizes":[],"default_left":[1,1,0,1,1,1,0,1,1,0,1,1,1,1,0,0,0,1,0,0,0,0,0,0,0],"id":23,"left_children":[1,3,-1,5,7,9,-1,11,13,-1,15,17,19,21,-1,-1,-1,23,-1,-1,-1,-1,-1,-1,-1],"loss_changes":[1.3289362E-1,7.951194E-2,0E0,3.5612115E-1,1.621761E-2,4.8123844E-2,0E0,3.5000782E-2,1.5010745E-2,0E0,3.440602E-2,1.4121538E-1,3.3890177E-3,1.1307299E-2,0E0,0E0,0E0,2.9411256E-2,0E0,0E0,0E0,0E0,0E0,0E0,0E0],"parents":[2147483647,0,0,1,1,3,3,4,4,5,5,7,7,8,8,10,10,11,11,12,12,13,13,17,17],"right_children":[2,4,-1,6,8,10,-1,12,14,-1,16,18,20,22,-1,-1,-1,24,-1,-1,-1,-1,-1,-1,-1],"split_conditions":[8.9444447E-1,7.434211E-1,6.351347E-2,5.52381E-1,5E-1,4.5299146E-1,-1.198156E-1,8.301436E-1,8.3766234E-1,-1.9940995E-2,5E-1,8.090909E-1,8.4962404E-1,7.9130435E-1,1.0460997E-2,1.0133693E-3,5.0480764E-2,7.809524E-1,7.822229E-2,-1.9367648E-2,-3.419338E-3,1.3462778E-3,-2.4727974E-2,2.9757313E-2,-7.718169E-3],"split_indices":[0,0,0,0,2,0,0,0,0,0,2,0,0,0,0,0,0,0,0,0,0,0,0,0,0],"split_type":[0,0,0,0,0,0,0,0,0,0,0,0,0,0,0,0,0,0,0,0,0,0,0,0,0],"sum_hessian":[3.52815E1,3.3772846E1,1.5086532E0,9.466682E0,2.4306164E1,7.5914207E0,1.8752615E0,1.6816074E1,7.4900894E0,3.3712964E0,4.2201242E0,1.17784195E1,5.037656E0,5.6850276E0,1.8050618E0,2.9429286E0,1.2771958E0,1.0229199E1,1.5492203E0,2.3530827E0,2.6845732E0,2.0688868E0,3.6161408E0,1.3283482E0,8.900851E0],"tree_param":{"num_deleted":"0","num_feature":"3","num_nodes":"25","size_leaf_vector":"0"}},{"base_weights":[-6.432476E-3,-1.932081E-2,1.8118694E-1,-7.870073E-2,5.8652675E-3,1.2509987E-2,-3.26448E-1,1.9630453E-2,-2.3618925E-2,-5.0736025E-2,6.386037E-2,4.3461252E-2,-3.347133E-2,-4.1738983E-2,2.8183939E-2,2.621509E-3,1.4354488E-1,4.6002382E-4,2.2368056E-1,-5.040139E-2,-8.885139E-3,3.5780699E-3,-6.27539E-2,8.139499E-2,-1.8742424E-2],"categories":[],"categories_nodes":[],"categories_segments":[],"categories_sizes":[],"default_left":[1,1,0,1,1,1,0,1,1,0,1,1,1,1,0,0,0,1,0,0,0,0,0,0,0],"id":24,"left_children":[1,3,-1,5,7,9,-1,11,13,-1,15,17,19,21,-1,-1,-1,23,-1,-1,-1,-1,-1,-1,-1],"loss_changes":[9.085151E-2,5.236514E-2,0E0,2.3922077E-1,1.0731713E-2,3.1068372E-2,0E0,2.3971792E-2,9.160871E-3,0E0,2.4860868E-2,9.844872E-2,2.0815847E-3,6.609874E-3,0E0,0E0,0E0,1.9039534E-2,0E0,0E0,0E0,0E0,0E0,0E0,0E0],"parents":[2147483647,0,0,1,1,3,3,4,4,5,5,7,7,8,8,10,10,11,11,12,12,13,13,17,17],"right_children":[2,4,-1,6,8,10,-1,12,14,-1,16,18,20,22,-1,-1,-1,24,-1,-1,-1,-1,-1,-1,-1],"split_conditions":[8.9444447E-1,7.434211E-1,5.4356087E-2,5.52381E-1,5E-1,4.5299146E-1,-9.79344E-2,8.301436E-1,8.3766234E-1,-1.5220808E-2,5E-1,8.090909E-1,8.4962404E-1,7.9130435E-1,8.455182E-3,7.864527E-4,4.3063466E-2,7.809524E-1,6.710417E-2,-1.5120418E-2,-2.6655416E-3,1.073421E-3,-1.8826172E-2,2.44185E-2,-5.6227273E-3],"split_indices":[0,0,0,0,2,0,0,0,0,0,2,0,0,0,0,0,0,0,0,0,0,0,0,0,0],"split_type":[0,0,0,0,0,0,0,0,0,0,0,0,0,0,0,0,0,0,0,0,0,0,0,0,0],"sum_hessian":[3.512372E1,3.370538E1,1.4183373E0,9.405574E0,2.4299807E1,7.5686154E0,1.8369586E0,1.6793627E1,7.50618E0,3.3968403E0,4.171775E0,1.1716909E1,5.0767183E0,5.7049317E0,1.8012478E0,2.94296E0,1.228815E0,1.0269183E1,1.447726E0,2.3846557E0,2.6920626E0,2.070277E0,3.634655E0,1.3481565E0,8.921026E0],"tree_param":{"num_deleted":"0","num_feature":"3","num_nodes":"25","size_leaf_vector":"0"}},{"base_weights":[-3.1610276E-3,1.4492756E-2,-1.9144073E-1,-1.7075034E-2,2.1463367E-1,-6.1982963E-2,6.1340127E-3,1.2246017E-2,-2.6513398E-1,2.262606E-2,-3.1776723E-2,-3.8770467E-2,5.37649E-2,3.7538197E-2,-3.9404564E-2,2.8530522E-3,-4.782275E-2,2.0343955E-3,1.2239198E-1,1.9706874E-3,1.915952E-1],"categories":[],"categories_nodes":[],"categories_segments":[],"categories_sizes":[],"default_left":[1,1,0,1,0,1,1,1,0,1,1,0,1,1,0,0,0,0,0,0,0],"id":25,"left_children":[1,3,-1,5,-1,7,9,11,-1,13,15,-1,17,19,-1,-1,-1,-1,-1,-1,-1],"loss_changes":[1.224393E-1,2.1749917E-1,0E0,3.181558E-2,0E0,1.5956944E-1,1.37199545E-2,2.0190727E-2,0E0,1.5423223E-2,3.8702977E-3,0E0,1.796925E-2,6.901966E-2,0E0,0E0,0E0,0E0,0E0,0E0,0E0],"parents":[2147483647,0,0,1,1,3,3,5,5,6,6,7,7,9,9,10,10,12,12,13,13],"right_children":[2,4,-1,6,-1,8,10,12,-1,14,16,-1,18,20,-1,-1,-1,-1,-1,-1,-1],"split_conditions":[8.63354E-1,8.4962404E-1,-5.7432223E-2,7.434211E-1,6.439011E-2,5.52381E-1,5E-1,4.5299146E-1,-7.954019E-2,8.301436E-1,7.9130435E-1,-1.16311405E-2,5E-1,8.090909E-1,-1.182137E-2,8.559157E-4,-1.4346826E-2,6.103187E-4,3.6717594E-2,5.9120625E-4,5.7478562E-2],"split_indices":[0,0,0,0,0,0,2,0,0,0,0,0,2,0,0,0,0,0,0,0,0],"split_type":[0,0,0,0,0,0,0,0,0,0,0,0,0,0,0,0,0,0,0,0,0],"sum_hessian":[3.5001877E1,3.284522E1,2.1566606E0,2.9160482E1,3.6847343E0,9.366433E0,1.979405E1,7.5481486E0,1.8182846E0,1.4074494E1,5.719555E0,3.4164138E0,4.131735E0,1.1665062E1,2.4094324E0,2.0713854E0,3.6481695E0,2.9429834E0,1.1887513E0,1.0299893E1,1.3651692E0],"tree_param":{"num_deleted":"0","num_feature":"3","num_nodes":"21","size_leaf_vector":"0"}},{"base_weights":[-2.3369417E-3,-1.5311146E-2,1.8267629E-1,3.5292033E-2,-3.7035823E-2,-6.2433E-2,3.0932298E-1,-2.5725332E-1,-3.1984833E-3,1.7346218E-2,-1.7378043E-1,1.1658011E-2,-3.2846436E-2,-1.4270405E-1,1.3274543E-1,-8.868327E-3,4.6963867E-2,-5.0198417E-2,1.7608931E-2,1.639221E-1,-2.1837322E-2],"categories":[],"categories_nodes":[],"categories_segments":[],"categories_sizes":[],"default_left":[1,1,0,1,1,1,0,0,1,1,0,1,1,0,0,0,1,0,0,0,0],"id":26,"left_children":[1,3,-1,5,7,9,-1,-1,11,13,-1,15,17,-1,-1,-1,19,-1,-1,-1,-1],"loss_changes":[8.870467E-2,3.908726E-2,0E0,3.0945528E-1,1.8197817E-1,8.135028E-2,0E0,0E0,1.0195186E-2,1.3062418E-1,0E0,1.1706287E-2,7.623979E-3,0E0,0E0,0E0,5.0945077E-2,0E0,0E0,0E0,0E0],"parents":[2147483647,0,0,1,1,3,3,4,4,5,5,8,8,9,9,11,11,12,12,16,16],"right_children":[2,4,-1,6,8,10,-1,-1,12,14,-1,16,18,-1,-1,-1,20,-1,-1,-1,-1],"split_conditions":[8.9444447E-1,7.5595236E-1,5.4802887E-2,6.168478E-1,7.7225673E-1,4.8076922E-1,9.27969E-2,-7.7176E-2,8.301436E-1,5E-1,-5.213413E-2,8.090909E-1,5E-1,-4.281122E-2,3.982363E-2,-2.6604983E-3,5E-1,-1.5059526E-2,5.2826796E-3,4.9176633E-2,-6.551197E-3],"split_indices":[0,0,0,0,0,0,0,0,0,2,0,0,2,0,0,0,2,0,0,0,0],"split_type":[0,0,0,0,0,0,0,0,0,0,0,0,0,0,0,0,0,0,0,0,0],"sum_hessian":[3.4788914E1,3.3366314E1,1.4225974E0,9.8344555E0,2.353186E1,7.818416E0,2.016039E0,2.254787E0,2.1277073E1,5.0467153E0,2.771701E0,1.4578579E1,6.698494E0,2.0151865E0,3.0315287E0,9.692378E0,4.8862004E0,4.9881306E0,1.7103634E0,1.2976758E0,3.5885248E0],"tree_param":{"num_deleted":"0","num_feature":"3","num_nodes":"21","size_leaf_vector":"0"}},{"base_weights":[-3.252377E-4,1.6388508E-2,-1.7855722E-1,-8.723926E-3,1.7898187E-1,-5.1892903E-2,1.3201384E-2,2.3237664E-2,-2.5867188E-1,6.716096E-2,-1.0521599E-3,-4.129635E-2,7.397758E-2,1.1262949E-1,9.937225E-3,-1.8654283E-2,2.0331243E-2,1.2165924E-2,-6.1748095E-2,3.82224E-2,1.05027884E-1,5.2217133E-2,-1.6692713E-2],"categories":[],"categories_nodes":[],"categories_segments":[],"categories_sizes":[],"default_left":[1,1,0,1,0,1,1,1,0,1,1,1,1,0,0,0,1,0,0,0,0,0,0],"id":27,"left_children":[1,3,-1,5,-1,7,9,11,-1,13,15,17,19,-1,-1,-1,21,-1,-1,-1,-1,-1,-1],"loss_changes":[1.0881709E-1,1.3799869E-1,0E0,2.8983358E-2,0E0,1.6560914E-1,1.5933562E-2,3.073357E-2,0E0,1.0134205E-2,6.8907756E-3,5.5211093E-3,1.637036E-3,0E0,0E0,0E0,1.065763E-2,0E0,0E0,0E0,0E0,0E0,0E0],"parents":[2147483647,0,0,1,1,3,3,5,5,6,6,7,7,9,9,10,10,11,11,12,12,16,16],"right_children":[2,4,-1,6,-1,8,10,12,-1,14,16,18,20,-1,-1,-1,22,-1,-1,-1,-1,-1,-1],"split_conditions":[8.63354E-1,8.4962404E-1,-5.3567167E-2,7.434211E-1,5.3694565E-2,5.52381E-1,7.9130435E-1,4.5299146E-1,-7.760157E-2,5E-1,8.090909E-1,5E-1,5E-1,3.378885E-2,2.9811675E-3,-5.596285E-3,5E-1,3.6497773E-3,-1.8524429E-2,1.146672E-2,3.1508368E-2,1.566514E-2,-5.007814E-3],"split_indices":[0,0,0,0,0,0,0,0,0,2,0,2,2,0,0,0,2,0,0,0,0,0,0],"split_type":[0,0,0,0,0,0,0,0,0,0,0,0,0,0,0,0,0,0,0,0,0,0,0],"sum_hessian":[3.4546665E1,3.241499E1,2.1316736E0,2.8898052E1,3.5169392E0,9.273182E0,1.962487E1,7.4528885E0,1.8202934E0,3.3251162E0,1.6299753E1,3.3624475E0,4.090441E0,1.3133394E0,2.0117767E0,9.010352E0,7.2894015E0,1.042478E0,2.3199694E0,2.938114E0,1.1523273E0,3.6959784E0,3.5934234E0],"tree_param":{"num_deleted":"0","num_feature":"3","num_nodes":"23","size_leaf_vector":"0"}},{"base_weights":[-2.807379E-4,-1.3255016E-2,1.820795E-1,3.8711995E-2,-3.5750456E-2,-5.1074903E-2,2.8661308E-1,-2.250797E-1,-6.9043995E-3,1.3512336E-2,-1.3990526E-1,1.3877036E-2,-4.8796117E-2,-1.19159505E-1,1.1098747E-1,-1.9245296E-3,4.0569585E-2,-6.761615E-2,1.1902869E-2,1.3252665E-1,-1.2762697E-2,-3.1278916E-2,-8.398534E-2],"categories":[],"categories_nodes":[],"categories_segments":[],"categories_sizes":[],"default_left":[1,1,0,1,1,1,0,0,1,1,0,1,1,0,0,0,1,1,0,0,0,0,0],"id":28,"left_children":[1,3,-1,5,7,9,-1,-1,11,13,-1,15,17,-1,-1,-1,19,21,-1,-1,-1,-1,-1],"loss_changes":[8.623134E-2,4.1136768E-2,0E0,2.5398725E-1,1.3089573E-1,5.205082E-2,0E0,0E0,1.9896843E-2,9.048376E-2,0E0,6.630614E-3,9.420315E-3,0E0,0E0,0E0,3.0244775E-2,8.8633224E-4,0E0,0E0,0E0,0E0,0E0],"parents":[2147483647,0,0,1,1,3,3,4,4,5,5,8,8,9,9,11,11,12,12,16,16,17,17],"right_children":[2,4,-1,6,8,10,-1,-1,12,14,-1,16,18,-1,-1,-1,20,22,-1,-1,-1,-1,-1],"split_conditions":[8.9444447E-1,7.5595236E-1,5.462385E-2,6.168478E-1,7.7225673E-1,4.8076922E-1,8.5983925E-2,-6.752391E-2,8.301436E-1,5E-1,-4.197158E-2,8.090909E-1,5E-1,-3.5747852E-2,3.3296242E-2,-5.773589E-4,5E-1,8.4962404E-1,3.5708607E-3,3.9757997E-2,-3.8288094E-3,-9.383675E-3,-2.5195604E-2],"split_indices":[0,0,0,0,0,0,0,0,0,2,0,0,2,0,0,0,2,0,0,0,0,0,0],"split_type":[0,0,0,0,0,0,0,0,0,0,0,0,0,0,0,0,0,0,0,0,0,0,0],"sum_hessian":[3.44261E1,3.300521E1,1.4208887E0,9.753241E0,2.325197E1,7.742843E0,2.0103974E0,2.174829E0,2.1077143E1,4.97412E0,2.768723E0,1.4535289E1,6.5418534E0,2.0124907E0,2.9616294E0,9.713155E0,4.822134E0,4.906584E0,1.6352699E0,1.2250109E0,3.597123E0,2.4278812E0,2.4787025E0],"tree_param":{"num_deleted":"0","num_feature":"3","num_nodes":"23","size_leaf_vector":"0"}},{"base_weights":[7.869074E-4,1.660008E-2,-1.682445E-1,-4.5083924E-3,1.5509135E-1,-4.534888E-2,1.6048944E-2,2.9189562E-2,-2.5097135E-1,8.0502704E-2,-7.7068066E-4,-4.1747466E-2,8.421207E-2,1.3292181E-1,1.2791617E-2,7.41114E-3,-2.4407394E-2,2.8591756E-2,-7.250229E-2,-6.226657E-3,3.5164855E-2],"categories":[],"categories_nodes":[],"categories_segments":[],"categories_sizes":[],"default_left":[1,1,0,1,0,1,1,1,0,1,1,1,0,0,0,1,0,0,0,0,0],"id":29,"left_children":[1,3,-1,5,-1,7,9,11,-1,13,15,17,-1,-1,-1,19,-1,-1,-1,-1,-1],"loss_changes":[9.695245E-2,9.75312E-2,0E0,2.5675341E-2,0E0,1.638197E-1,2.2290304E-2,3.626193E-2,0E0,1.3394531E-2,3.5171348E-3,1.1447349E-2,0E0,0E0,0E0,5.359878E-3,0E0,0E0,0E0,0E0,0E0],"parents":[2147483647,0,0,1,1,3,3,5,5,6,6,7,7,9,9,10,10,11,11,15,15],"right_children":[2,4,-1,6,-1,8,10,12,-1,14,16,18,-1,-1,-1,20,-1,-1,-1,-1,-1],"split_conditions":[8.63354E-1,8.4962404E-1,-5.047335E-2,7.434211E-1,4.6527404E-2,5.52381E-1,7.9130435E-1,4.5299146E-1,-7.529141E-2,5E-1,5E-1,5E-1,2.5263622E-2,3.9876547E-2,3.837485E-3,8.090909E-1,-7.3222187E-3,8.5775275E-3,-2.1750689E-2,-1.8679971E-3,1.0549457E-2],"split_indices":[0,0,0,0,0,0,0,0,0,2,2,2,0,0,0,0,0,0,0,0,0],"split_type":[0,0,0,0,0,0,0,0,0,0,0,0,0,0,0,0,0,0,0,0,0],"sum_hessian":[3.42272E1,3.212376E1,2.1034389E0,2.8714603E1,3.4091573E0,9.210493E0,1.950411E1,7.3897433E0,1.8207498E0,3.252833E0,1.6251278E1,3.3334298E0,4.0563135E0,1.2906173E0,1.9622155E0,1.2582364E1,3.668914E0,1.0354924E0,2.2979374E0,8.956774E0,3.6255903E0],"tree_param":{"num_deleted":"0","num_feature":"3","num_nodes":"21","size_leaf_vector":"0"}},{"base_weights":[3.5496403E-5,-1.2853979E-2,1.8007407E-1,3.8155995E-2,-3.501122E-2,-4.5448635E-2,2.6742417E-1,-2.0096572E-1,-9.846339E-3,3.633596E-2,-1.22960456E-1,1.39180655E-2,-5.807476E-2,-1.0654439E-1,1.6781531E-1,-5.6682218E-2,-1.6438456E-1,-3.8762093E-5,3.741064E-2,-7.756628E-2,8.957887E-3,1.0806051E-1,-4.0202737E-3,-3.212258E-2,-1.0030871E-1],"categories":[],"categories_nodes":[],"categories_segments":[],"categories_sizes":[],"default_left":[1,1,0,1,1,1,0,0,1,1,1,1,1,0,0,0,0,0,1,1,0,0,0,0,0],"id":30,"left_children":[1,3,-1,5,7,9,-1,-1,11,13,15,17,19,-1,-1,-1,-1,-1,21,23,-1,-1,-1,-1,-1],"loss_changes":[8.388994E-2,3.946732E-2,0E0,2.1715896E-1,9.8426975E-2,5.9569035E-2,0E0,0E0,2.5940496E-2,1.1183404E-1,3.560692E-3,5.082446E-3,1.0404795E-2,0E0,0E0,0E0,0E0,0E0,1.7342236E-2,2.8352067E-3,0E0,0E0,0E0,0E0,0E0],"parents":[2147483647,0,0,1,1,3,3,4,4,5,5,8,8,9,9,10,10,11,11,12,12,18,18,19,19],"right_children":[2,4,-1,6,8,10,-1,-1,12,14,16,18,20,-1,-1,-1,-1,-1,22,24,-1,-1,-1,-1,-1],"split_conditions":[8.9444447E-1,7.5595236E-1,5.4022223E-2,6.168478E-1,7.7225673E-1,5E-1,8.0227256E-2,-6.028972E-2,8.301436E-1,4.8076922E-1,4.4505495E-1,8.090909E-1,5E-1,-3.196332E-2,5.0344598E-2,-1.7004667E-2,-4.931537E-2,-1.1628628E-5,5E-1,8.4962404E-1,2.6873662E-3,3.2418154E-2,-1.2060822E-3,-9.636774E-3,-3.0092614E-2],"split_indices":[0,0,0,0,0,2,0,0,0,0,0,0,2,0,0,0,0,0,2,0,0,0,0,0,0],"split_type":[0,0,0,0,0,0,0,0,0,0,0,0,0,0,0,0,0,0,0,0,0,0,0,0,0],"sum_hessian":[3.4152622E1,3.2737457E1,1.415164E0,9.6952305E0,2.3042229E1,7.692031E0,2.0031993E0,2.114145E0,2.0928083E1,4.0013404E0,3.6906905E0,1.4496428E1,6.431656E0,2.0084167E0,1.9929237E0,2.3304029E0,1.3602875E0,9.720107E0,4.77632E0,4.861038E0,1.5706174E0,1.1710992E0,3.6052208E0,2.42596E0,2.4350781E0],"tree_param":{"num_deleted":"0","num_feature":"3","num_nodes":"25","size_leaf_vector":"0"}},{"base_weights":[6.5603206E-4,1.5563784E-2,-1.5987593E-1,-2.888103E-3,1.3844123E-1,-4.253199E-2,1.7270844E-2,2.8780676E-2,-2.4183716E-1,8.814109E-2,-1.0043444E-3,-1.5178156E-2,6.0958408E-2,1.4523764E-1,1.34058315E-2,4.691138E-3,-2.5159497E-2,4.0561497E-2,-4.437858E-2,9.943464E-2,1.5277901E-2,-1.13378605E-2,3.186604E-2],"categories":[],"categories_nodes":[],"categories_segments":[],"categories_sizes":[],"default_left":[1,1,0,1,0,1,1,1,0,1,1,1,1,0,0,1,0,0,0,0,0,0,0],"id":31,"left_children":[1,3,-1,5,-1,7,9,11,-1,13,15,17,19,-1,-1,21,-1,-1,-1,-1,-1,-1,-1],"loss_changes":[8.655242E-2,7.534187E-2,0E0,2.4484001E-2,0E0,1.5344214E-1,2.6524296E-2,1.2925791E-2,0E0,1.5956227E-2,2.4864483E-3,8.93921E-3,7.4406993E-3,0E0,0E0,6.7964783E-3,0E0,0E0,0E0,0E0,0E0,0E0,0E0],"parents":[2147483647,0,0,1,1,3,3,5,5,6,6,7,7,9,9,10,10,11,11,12,12,15,15],"right_children":[2,4,-1,6,-1,8,10,12,-1,14,16,18,20,-1,-1,22,-1,-1,-1,-1,-1,-1,-1],"split_conditions":[8.63354E-1,8.4962404E-1,-4.796278E-2,7.434211E-1,4.153237E-2,5.52381E-1,7.9130435E-1,4.5299146E-1,-7.255115E-2,5E-1,8.301436E-1,5E-1,4.8076922E-1,4.3571293E-2,4.02175E-3,8.090909E-1,-7.5478493E-3,1.2168449E-2,-1.3313574E-2,2.9830392E-2,4.5833704E-3,-3.4013584E-3,9.559812E-3],"split_indices":[0,0,0,0,0,0,0,0,0,2,0,2,0,0,0,0,0,0,0,0,0,0,0],"split_type":[0,0,0,0,0,0,0,0,0,0,0,0,0,0,0,0,0,0,0,0,0,0,0],"sum_hessian":[3.4126682E1,3.2053127E1,2.0735555E0,2.8717295E1,3.335835E0,9.306205E0,1.9411089E1,7.4839826E0,1.8222219E0,3.1956255E0,1.6215464E1,3.3862462E0,4.0977364E0,1.2768052E0,1.9188204E0,1.377361E1,2.4418533E0,1.0303587E0,2.3558874E0,1.5855241E0,2.5122123E0,9.030054E0,4.743556E0],"tree_param":{"num_deleted":"0","num_feature":"3","num_nodes":"23","size_leaf_vector":"0"}},{"base_weights":[5.551528E-4,-1.2084704E-2,1.7714909E-1,3.799664E-2,-3.413782E-2,-3.9022908E-2,2.5091094E-1,-1.8262045E-1,-1.1719852E-2,2.7192043E-2,-1.3291386E-1,5.4317135E-3,-7.1714364E-2,-9.917506E-2,1.1597476E-1,1.0701062E-2,-1.971931E-2,-1.091146E-1,7.5920844E-3,2.5766974E-3,2.4054572E-2],"categories":[],"categories_nodes":[],"categories_segments":[],"categories_sizes":[],"default_left":[1,1,0,1,1,1,0,0,1,1,0,1,1,0,0,1,0,0,0,0,0],"id":32,"left_children":[1,3,-1,5,7,9,-1,-1,11,13,-1,15,17,-1,-1,19,-1,-1,-1,-1,-1],"loss_changes":[8.04381E-2,3.848467E-2,0E0,1.8635665E-1,7.7426895E-2,5.8151435E-2,0E0,0E0,2.2859344E-2,7.853104E-2,0E0,2.5847955E-3,1.54370535E-2,0E0,0E0,1.6149286E-3,0E0,0E0,0E0,0E0,0E0],"parents":[2147483647,0,0,1,1,3,3,4,4,5,5,8,8,9,9,11,11,12,12,15,15],"right_children":[2,4,-1,6,8,10,-1,-1,12,14,-1,16,18,-1,-1,20,-1,-1,-1,-1,-1],"split_conditions":[8.9444447E-1,7.5595236E-1,5.3144727E-2,6.168478E-1,7.7225673E-1,4.8076922E-1,7.527328E-2,-5.478614E-2,8.4962404E-1,5E-1,-3.987416E-2,8.301436E-1,5E-1,-2.9752519E-2,3.479243E-2,8.090909E-1,-5.915793E-3,-3.2734383E-2,2.2776255E-3,7.7300926E-4,7.216372E-3],"split_indices":[0,0,0,0,0,0,0,0,0,2,0,0,2,0,0,0,0,0,0,0,0],"split_type":[0,0,0,0,0,0,0,0,0,0,0,0,0,0,0,0,0,0,0,0,0],"sum_hessian":[3.4077522E1,3.2670662E1,1.4068617E0,9.767126E0,2.2903536E1,7.772298E0,1.9948282E0,2.0669806E0,2.0836555E1,4.974503E0,2.7977946E0,1.6911318E1,3.9252381E0,2.0044525E0,2.9700506E0,1.4456986E1,2.454331E0,2.4119318E0,1.5133065E0,9.730093E0,4.726893E0],"tree_param":{"num_deleted":"0","num_feature":"3","num_nodes":"21","size_leaf_vector":"0"}},{"base_weights":[7.566129E-4,1.49572E-2,-1.5296136E-1,-1.704177E-3,1.2659387E-1,-3.8295917E-2,1.6778605E-2,3.115661E-2,-2.3213282E-1,9.195796E-2,-2.3149268E-3,-2.2699518E-2,7.1222335E-2,1.5201588E-1,1.2700749E-2,7.6063527E-3,-3.065928E-2,4.9563143E-2,-5.9928555E-2,-2.1664968E-3,2.7196541E-2],"categories":[],"categories_nodes":[],"categories_segments":[],"categories_sizes":[],"default_left":[1,1,0,1,0,1,1,1,0,1,1,1,0,0,0,1,0,0,0,0,0],"id":33,"left_children":[1,3,-1,5,-1,7,9,11,-1,13,15,17,-1,-1,-1,19,-1,-1,-1,-1,-1],"loss_changes":[7.853742E-2,6.1387207E-2,0E0,2.0663785E-2,0E0,1.4508006E-1,2.9444039E-2,1.9785345E-2,0E0,1.7818402E-2,5.074262E-3,1.4673412E-2,0E0,0E0,0E0,2.6536295E-3,0E0,0E0,0E0,0E0,0E0],"parents":[2147483647,0,0,1,1,3,3,5,5,6,6,7,7,9,9,10,10,11,11,15,15],"right_children":[2,4,-1,6,-1,8,10,12,-1,14,16,18,-1,-1,-1,20,-1,-1,-1,-1,-1],"split_conditions":[8.63354E-1,8.4962404E-1,-4.588841E-2,7.434211E-1,3.7978165E-2,5.52381E-1,7.9130435E-1,4.5299146E-1,-6.963985E-2,5E-1,5E-1,5E-1,2.13667E-2,4.5604765E-2,3.8102248E-3,8.090909E-1,-9.197785E-3,1.4868944E-2,-1.7978568E-2,-6.4994907E-4,8.158963E-3],"split_indices":[0,0,0,0,0,0,0,0,0,2,2,2,0,0,0,0,0,0,0,0,0],"split_type":[0,0,0,0,0,0,0,0,0,0,0,0,0,0,0,0,0,0,0,0,0],"sum_hessian":[3.3930622E1,3.1887526E1,2.0430977E0,2.8603315E1,3.284209E0,9.239404E0,1.9363913E1,7.420038E0,1.8193653E0,3.148955E0,1.6214958E1,3.3501835E0,4.0698547E0,1.2691996E0,1.8797554E0,1.2552791E1,3.6621666E0,1.0264705E0,2.3237128E0,8.968256E0,3.5845351E0],"tree_param":{"num_deleted":"0","num_feature":"3","num_nodes":"21","size_leaf_vector":"0"}},{"base_weights":[2.6169428E-4,-1.2154689E-2,1.7362675E-1,3.6679182E-2,-3.3615086E-2,-3.5967145E-2,2.3648062E-1,-1.6840513E-1,-1.33027425E-2,3.187604E-2,-1.00302994E-1,4.3584937E-3,-7.55583E-2,-9.1408685E-2,1.4468722E-1,-4.6906672E-2,-1.3355015E-1,9.816989E-3,-2.133494E-2,-1.13163054E-1,7.104933E-3,2.2309711E-3,2.234819E-2],"categories":[],"categories_nodes":[],"categories_segments":[],"categories_sizes":[],"default_left":[1,1,0,1,1,1,0,0,1,1,1,1,1,0,0,0,0,1,0,0,0,0,0],"id":34,"left_children":[1,3,-1,5,7,9,-1,-1,11,13,15,17,19,-1,-1,-1,-1,21,-1,-1,-1,-1,-1],"loss_changes":[7.720371E-2,3.632878E-2,0E0,1.6384406E-1,6.2884845E-2,4.1242182E-2,0E0,0E0,2.4251545E-2,8.278464E-2,2.1060407E-3,2.719089E-3,1.5920078E-2,0E0,0E0,0E0,0E0,1.4182566E-3,0E0,0E0,0E0,0E0,0E0],"parents":[2147483647,0,0,1,1,3,3,4,4,5,5,8,8,9,9,10,10,11,11,12,12,17,17],"right_children":[2,4,-1,6,8,10,-1,-1,12,14,16,18,20,-1,-1,-1,-1,22,-1,-1,-1,-1,-1],"split_conditions":[8.9444447E-1,7.5595236E-1,5.2088026E-2,6.168478E-1,7.7225673E-1,5E-1,7.094419E-2,-5.052154E-2,8.4962404E-1,4.8076922E-1,4.4505495E-1,8.301436E-1,5E-1,-2.7422607E-2,4.3406166E-2,-1.4072002E-2,-4.0065046E-2,8.090909E-1,-6.4004823E-3,-3.3948917E-2,2.13148E-3,6.6929136E-4,6.704457E-3],"split_indices":[0,0,0,0,0,2,0,0,0,0,0,0,2,0,0,0,0,0,0,0,0,0,0],"split_type":[0,0,0,0,0,0,0,0,0,0,0,0,0,0,0,0,0,0,0,0,0,0,0],"sum_hessian":[3.3885483E1,3.2488544E1,1.3969359E0,9.702047E0,2.2786497E1,7.7164054E0,1.9856423E0,2.0293334E0,2.0757164E1,4.001401E0,3.7150044E0,1.6894396E1,3.8627694E0,2.0025983E0,1.9988027E0,2.3506346E0,1.3643699E0,1.4443775E1,2.45062E0,2.4013803E0,1.461389E0,9.730968E0,4.712807E0],"tree_param":{"num_deleted":"0","num_feature":"3","num_nodes":"23","size_leaf_vector":"0"}},{"base_weights":[3.415214E-4,1.3849609E-2,-1.4714167E-1,-1.5345408E-3,1.17904834E-1,-3.6647104E-2,1.637444E-2,2.9360428E-2,-2.2271793E-1,9.34166E-2,-2.9860854E-3,-2.419032E-3,5.09867E-2,1.549901E-1,1.1498724E-2,6.0614217E-3,-2.8604772E-2,5.5990357E-2,-3.675787E-2,9.883938E-3,1.0324952E-1,1.2637228E-2,-1.6728222E-2],"categories":[],"categories_nodes":[],"categories_segments":[],"categories_sizes":[],"default_left":[1,1,0,1,0,1,1,1,0,1,1,1,1,0,0,1,0,0,0,0,0,0,0],"id":35,"left_children":[1,3,-1,5,-1,7,9,11,-1,13,15,17,19,-1,-1,21,-1,-1,-1,-1,-1,-1,-1],"loss_changes":[7.15282E-2,5.2796375E-2,0E0,1.9227175E-2,0E0,1.3321804E-1,3.0569432E-2,5.962992E-3,0E0,1.8945329E-2,4.159705E-3,1.0874091E-2,9.938078E-3,0E0,0E0,2.239742E-3,0E0,0E0,0E0,0E0,0E0,0E0,0E0],"parents":[2147483647,0,0,1,1,3,3,5,5,6,6,7,7,9,9,10,10,11,11,12,12,15,15],"right_children":[2,4,-1,6,-1,8,10,12,-1,14,16,18,20,-1,-1,22,-1,-1,-1,-1,-1,-1,-1],"split_conditions":[8.63354E-1,8.4962404E-1,-4.41425E-2,7.434211E-1,3.5371453E-2,5.52381E-1,7.9130435E-1,4.5299146E-1,-6.6815384E-2,5E-1,5E-1,5E-1,5E-1,4.6497032E-2,3.4496174E-3,8.301436E-1,-8.581432E-3,1.6797109E-2,-1.1027362E-2,2.9651816E-3,3.0974858E-2,3.7911686E-3,-5.018467E-3],"split_indices":[0,0,0,0,0,0,0,0,0,2,2,2,2,0,0,0,0,0,0,0,0,0,0],"split_type":[0,0,0,0,0,0,0,0,0,0,0,0,0,0,0,0,0,0,0,0,0,0,0],"sum_hessian":[3.388093E1,3.1868196E1,2.0127368E0,2.8621826E1,3.2463703E0,9.314132E0,1.9307695E1,7.4968696E0,1.817262E0,3.109364E0,1.6198332E1,3.3954518E0,4.1014175E0,1.2658617E0,1.8435022E0,1.2534899E1,3.6634321E0,1.0236784E0,2.3717735E0,2.9614596E0,1.139958E0,1.0073685E1,2.4612138E0],"tree_param":{"num_deleted":"0","num_feature":"3","num_nodes":"23","size_leaf_vector":"0"}},{"base_weights":[4.1555098E-4,-1.1677966E-2,1.6977537E-1,3.656351E-2,-3.3055276E-2,-3.1121578E-2,2.2375263E-1,-1.5716818E-1,-1.4387401E-2,3.5723537E-2,-1.2767386E-1,3.2926337E-3,-7.714053E-2,-7.978523E-2,1.14340074E-1,6.7714667E-3,-1.3122071E-2,-1.14264004E-1,7.091964E-3,-1.7133331E-3,2.1532334E-2],"categories":[],"categories_nodes":[],"categories_segments":[],"categories_sizes":[],"default_left":[1,1,0,1,1,1,0,0,1,1,0,1,1,0,0,1,0,0,0,0,0],"id":36,"left_children":[1,3,-1,5,7,9,-1,-1,11,13,-1,15,17,-1,-1,19,-1,-1,-1,-1,-1],"loss_changes":[7.333415E-2,3.57055E-2,0E0,1.4311796E-1,5.2660286E-2,6.1165314E-2,0E0,0E0,2.4336336E-2,6.3279495E-2,0E0,1.1106681E-3,1.585794E-2,0E0,0E0,1.9686832E-3,0E0,0E0,0E0,0E0,0E0],"parents":[2147483647,0,0,1,1,3,3,4,4,5,5,8,8,9,9,11,11,12,12,15,15],"right_children":[2,4,-1,6,8,10,-1,-1,12,14,-1,16,18,-1,-1,20,-1,-1,-1,-1,-1],"split_conditions":[8.9444447E-1,7.5595236E-1,5.0932612E-2,6.168478E-1,7.7225673E-1,4.8076922E-1,6.712579E-2,-4.7150455E-2,8.4962404E-1,5E-1,-3.830216E-2,8.301436E-1,5E-1,-2.393557E-2,3.4302022E-2,8.090909E-1,-3.9366214E-3,-3.42792E-2,2.1275894E-3,-5.1399996E-4,6.4597004E-3],"split_indices":[0,0,0,0,0,0,0,0,0,2,0,0,2,0,0,0,0,0,0,0,0],"split_type":[0,0,0,0,0,0,0,0,0,0,0,0,0,0,0,0,0,0,0,0,0],"sum_hessian":[3.3836956E1,3.2450783E1,1.3861743E0,9.746281E0,2.2704502E1,7.770364E0,1.9759172E0,1.9984797E0,2.0706022E1,4.9638195E0,2.8065445E0,1.6893879E1,3.8121426E0,2.0042188E0,2.9596004E0,1.4424346E1,2.4695332E0,2.3985205E0,1.4136221E0,9.720667E0,4.703679E0],"tree_param":{"num_deleted":"0","num_feature":"3","num_nodes":"21","size_leaf_vector":"0"}},{"base_weights":[7.435135E-4,1.3742334E-2,-1.4211853E-1,-6.651996E-4,1.112942E-1,3.91987E-2,-1.8795444E-2,4.5669745E-3,1.3015275E-1,-1.0744123E-1,2.4202548E-3,2.7253311E-2,-4.0656906E-2,-2.7608188E-2,-1.2875238E-1,5.131038E-3,-1.0296726E-2,-6.385959E-2,9.054145E-2,-1.247343E-3,1.624316E-2],"categories":[],"categories_nodes":[],"categories_segments":[],"categories_sizes":[],"default_left":[1,1,0,1,0,1,1,1,0,1,1,1,0,0,0,1,0,0,0,0,0],"id":37,"left_children":[1,3,-1,5,-1,7,9,11,-1,13,15,17,-1,-1,-1,19,-1,-1,-1,-1,-1],"loss_changes":[6.641055E-2,4.607105E-2,0E0,2.206449E-2,0E0,2.94852E-2,3.967925E-2,9.266919E-3,0E0,3.3692867E-3,6.6956715E-4,3.9771687E-2,0E0,0E0,0E0,1.1127855E-3,0E0,0E0,0E0,0E0,0E0],"parents":[2147483647,0,0,1,1,3,3,5,5,6,6,7,7,9,9,10,10,11,11,15,15],"right_children":[2,4,-1,6,-1,8,10,12,-1,14,16,18,-1,-1,-1,20,-1,-1,-1,-1,-1],"split_conditions":[8.63354E-1,8.4962404E-1,-4.263556E-2,6.8115944E-1,3.338826E-2,5.1666665E-1,7.7225673E-1,4.8076922E-1,3.9045826E-2,7.5595236E-1,8.301436E-1,5E-1,-1.2197073E-2,-8.282457E-3,-3.8625717E-2,8.090909E-1,-3.089018E-3,-1.9157877E-2,2.7162436E-2,-3.7420294E-4,4.872948E-3],"split_indices":[0,0,0,0,0,0,0,0,0,0,0,2,0,0,0,0,0,0,0,0,0],"split_type":[0,0,0,0,0,0,0,0,0,0,0,0,0,0,0,0,0,0,0,0,0],"sum_hessian":[3.3709846E1,3.1726868E1,1.9829769E0,2.8509459E1,3.2174096E0,8.549397E0,1.996006E1,6.952407E0,1.5969911E0,3.0696936E0,1.6890368E1,4.8944826E0,2.057924E0,1.1304456E0,1.939248E0,1.4414299E1,2.4760673E0,2.0025208E0,2.891962E0,9.721746E0,4.692553E0],"tree_param":{"num_deleted":"0","num_feature":"3","num_nodes":"21","size_leaf_vector":"0"}},{"base_weights":[1.3322085E-5,-1.1857377E-2,1.6575022E-1,3.1397574E-2,-2.8005563E-2,2.7785883E-3,1.0671722E-1,-8.809517E-2,-1.5565388E-2,2.0746896E-2,-3.241222E-2,-2.8780978E-2,-1.1953105E-1,1.7748751E-3,-7.733602E-2,-5.1114175E-2,7.1516216E-2,5.111817E-3,-6.988647E-3,-1.1357446E-1,7.3166206E-3,-4.798222E-3,2.5585808E-2],"categories":[],"categories_nodes":[],"categories_segments":[],"categories_sizes":[],"default_left":[1,1,0,1,1,1,0,1,1,1,0,0,0,1,1,0,0,1,0,0,0,0,0],"id":38,"left_children":[1,3,-1,5,7,9,-1,11,13,15,-1,-1,-1,17,19,-1,-1,21,-1,-1,-1,-1,-1],"loss_changes":[6.991178E-2,2.4041824E-2,0E0,2.0151075E-2,1.7073926E-2,5.668254E-3,0E0,4.050974E-3,2.3334881E-2,2.4961581E-2,0E0,0E0,0E0,5.5882614E-4,1.5462276E-2,0E0,0E0,2.8684817E-3,0E0,0E0,0E0,0E0,0E0],"parents":[2147483647,0,0,1,1,3,3,4,4,5,5,7,7,8,8,9,9,13,13,14,14,17,17],"right_children":[2,4,-1,6,8,10,-1,12,14,16,-1,-1,-1,18,20,-1,-1,22,-1,-1,-1,-1,-1],"split_conditions":[8.9444447E-1,6.8115944E-1,4.9725067E-2,5.1666665E-1,7.7225673E-1,4.8076922E-1,3.2015167E-2,5E-1,8.4962404E-1,5E-1,-9.723666E-3,-8.634293E-3,-3.5859317E-2,5E-1,5E-1,-1.5334253E-2,2.1454865E-2,8.090909E-1,-2.096594E-3,-3.407234E-2,2.1949862E-3,-1.4394666E-3,7.6757427E-3],"split_indices":[0,0,0,0,0,0,0,2,0,2,0,0,0,2,2,0,0,0,0,0,0,0,0],"split_type":[0,0,0,0,0,0,0,0,0,0,0,0,0,0,0,0,0,0,0,0,0,0,0],"sum_hessian":[3.353592E1,3.2160892E1,1.3750274E0,8.485928E0,2.3674967E1,6.9007573E0,1.5851699E0,3.0175982E0,2.0657368E1,4.839944E0,2.0608134E0,1.7088441E0,1.3087542E0,1.6887869E1,3.7694988E0,2.000938E0,2.839006E0,1.2532488E1,4.355381E0,2.4003112E0,1.3691875E0,8.96082E0,3.5716684E0],"tree_param":{"num_deleted":"0","num_feature":"3","num_nodes":"23","size_leaf_vector":"0"}},{"base_weights":[2.7014388E-4,1.2807878E-2,-1.37713E-1,-4.536984E-2,3.7419025E-2,2.411657E-2,-2.3840891E-1,9.441515E-3,9.947303E-2,-3.1517364E-2,6.636481E-2,1.8406302E-1,-1.5544696E-2,1.1309656E-2,1.2784249E-1,7.7311076E-2,-8.9015186E-2,8.9828834E-2,3.097729E-2,4.0502506E-3,-8.739879E-2,-3.501482E-3,1.9693624E-2],"categories":[],"categories_nodes":[],"categories_segments":[],"categories_sizes":[],"default_left":[1,1,0,1,1,1,0,1,1,1,1,0,1,0,0,0,0,0,0,1,0,0,0],"id":39,"left_children":[1,3,-1,5,7,9,-1,11,13,15,17,-1,19,-1,-1,-1,-1,-1,-1,21,-1,-1,-1],"loss_changes":[6.1349936E-2,4.8215955E-2,0E0,1.4136304E-1,3.9649032E-2,2.1699652E-2,0E0,7.798824E-2,1.6462684E-2,3.3655602E-2,1.4217868E-3,0E0,2.2861019E-2,0E0,0E0,0E0,0E0,0E0,0E0,1.6656476E-3,0E0,0E0,0E0],"parents":[2147483647,0,0,1,1,3,3,4,4,5,5,7,7,8,8,9,9,10,10,12,12,19,19],"right_children":[2,4,-1,6,8,10,-1,12,14,16,18,-1,20,-1,-1,-1,-1,-1,-1,22,-1,-1,-1],"split_conditions":[8.63354E-1,7.434211E-1,-4.13139E-2,5.52381E-1,5E-1,4.5299146E-1,-7.1522675E-2,7.809524E-1,8.090909E-1,5E-1,4.8076922E-1,5.521891E-2,8.4962404E-1,3.392897E-3,3.8352747E-2,2.3193324E-2,-2.6704557E-2,2.6948651E-2,9.293187E-3,8.090909E-1,-2.6219638E-2,-1.0504447E-3,5.9080874E-3],"split_indices":[0,0,0,0,2,0,0,0,0,2,0,0,0,0,0,0,0,0,0,0,0,0,0],"split_type":[0,0,0,0,0,0,0,0,0,0,0,0,0,0,0,0,0,0,0,0,0,0,0],"sum_hessian":[3.3442924E1,3.148889E1,1.954036E0,9.11015E0,2.2378738E1,7.342287E0,1.7678634E0,1.6218609E1,6.1601305E0,3.2787337E0,4.0635533E0,1.2332429E0,1.4985366E1,1.8401567E0,4.319974E0,1.0143124E0,2.2644212E0,1.5183588E0,2.5451944E0,1.2515864E1,2.469502E0,8.964487E0,3.551377E0],"tree_param":{"num_deleted":"0","num_feature":"3","num_nodes":"23","size_leaf_vector":"0"}},{"base_weights":[1.0318422E-4,-1.1419897E-2,1.6166936E-1,2.9612165E-2,-2.9325057E-2,-3.5006568E-2,2.1073623E-1,8.519802E-3,-1.15152344E-1,4.534815E-2,-1.141461E-1,1.5057144E-1,-1.2138994E-2,-2.699229E-1,-3.261324E-2,-5.7581168E-2,1.330388E-1,3.2010202E-3,-6.747614E-2,-4.496082E-2,5.690889E-3,9.498965E-3,-1.7835254E-2],"categories":[],"categories_nodes":[],"categories_segments":[],"categories_sizes":[],"default_left":[1,1,0,1,1,1,0,1,1,1,0,0,1,0,1,0,0,1,0,0,0,0,0],"id":40,"left_children":[1,3,-1,5,7,9,-1,11,13,15,-1,-1,17,-1,19,-1,-1,21,-1,-1,-1,-1,-1],"loss_changes":[6.6106535E-2,2.5224986E-2,0E0,1.3108018E-1,7.758196E-2,6.0168512E-2,0E0,5.2589532E-2,8.426716E-2,5.284924E-2,0E0,0E0,1.3820671E-2,0E0,3.0411389E-3,0E0,0E0,1.9583607E-3,0E0,0E0,0E0,0E0,0E0],"parents":[2147483647,0,0,1,1,3,3,4,4,5,5,7,7,8,8,9,9,12,12,14,14,17,17],"right_children":[2,4,-1,6,8,10,-1,12,14,16,-1,-1,18,-1,20,-1,-1,22,-1,-1,-1,-1,-1],"split_conditions":[8.9444447E-1,7.5595236E-1,4.850081E-2,6.168478E-1,5E-1,5E-1,6.322087E-2,7.809524E-1,8.090909E-1,4.8076922E-1,-3.424383E-2,4.5171432E-2,8.4962404E-1,-8.097687E-2,8.3766234E-1,-1.7274352E-2,3.9911643E-2,8.301436E-1,-2.0242842E-2,-1.3488246E-2,1.7072668E-3,2.8496897E-3,-5.3505762E-3],"split_indices":[0,0,0,0,2,2,0,0,0,0,0,0,0,0,0,0,0,0,0,0,0,0,0],"split_type":[0,0,0,0,0,0,0,0,0,0,0,0,0,0,0,0,0,0,0,0,0,0,0],"sum_hessian":[3.351625E1,3.215242E1,1.3638291E0,9.569288E0,2.2583134E1,7.6476135E0,1.921675E0,1.6297579E1,6.285555E0,4.006539E0,3.6410744E0,1.2708204E0,1.5026758E1,1.3965727E0,4.888982E0,2.0010784E0,2.0054607E0,1.2502965E1,2.5237935E0,3.5657537E0,1.3232282E0,1.00443E1,2.4586647E0],"tree_param":{"num_deleted":"0","num_feature":"3","num_nodes":"23","size_leaf_vector":"0"}},{"base_weights":[9.137147E-4,1.2957862E-2,-1.3366517E-1,-3.7708667E-3,1.2506534E-1,3.326077E-2,-2.0588115E-2,1.0246425E-2,9.146986E-2,-9.910452E-2,-1.7969917E-3,3.7430365E-2,-4.510801E-2,-2.1738254E-2,-1.2116458E-1,4.333793E-3,-9.645416E-3,-4.609009E-2,9.2186764E-2,1.7351441E-2,-3.433123E-2],"categories":[],"categories_nodes":[],"categories_segments":[],"categories_sizes":[],"default_left":[1,1,0,1,0,1,1,1,0,1,1,1,0,0,0,0,1,0,0,0,0],"id":41,"left_children":[1,3,-1,5,-1,7,9,11,-1,13,15,17,-1,-1,-1,-1,19,-1,-1,-1,-1],"loss_changes":[5.7720933E-2,6.164079E-2,0E0,1.896433E-2,0E0,1.1855151E-2,3.0514758E-2,1.3680595E-2,0E0,4.1908585E-3,8.984817E-4,3.119142E-2,0E0,0E0,0E0,0E0,6.0060294E-3,0E0,0E0,0E0,0E0],"parents":[2147483647,0,0,1,1,3,3,5,5,6,6,7,7,9,9,10,10,11,11,16,16],"right_children":[2,4,-1,6,-1,8,10,12,-1,14,16,18,-1,-1,-1,-1,20,-1,-1,-1,-1],"split_conditions":[8.63354E-1,8.4962404E-1,-4.0099554E-2,6.8115944E-1,3.7519604E-2,5.1666665E-1,7.7225673E-1,4.8076922E-1,2.744096E-2,7.5595236E-1,8.090909E-1,5E-1,-1.3532403E-2,-6.5214764E-3,-3.6349375E-2,1.300138E-3,5E-1,-1.3827027E-2,2.765603E-2,5.2054324E-3,-1.0299369E-2],"split_indices":[0,0,0,0,0,0,0,0,0,0,0,2,0,0,0,0,2,0,0,0,0],"split_type":[0,0,0,0,0,0,0,0,0,0,0,0,0,0,0,0,0,0,0,0,0],"sum_hessian":[3.3542126E1,3.1616335E1,1.9257904E0,2.8352E1,3.2643342E0,8.549092E0,1.9802908E1,6.9695454E0,1.5795473E0,2.9987967E0,1.6804111E1,4.891292E0,2.078253E0,1.1058636E0,1.892933E0,9.685843E0,7.118268E0,1.9995818E0,2.8917105E0,3.5418954E0,3.5763726E0],"tree_param":{"num_deleted":"0","num_feature":"3","num_nodes":"21","size_leaf_vector":"0"}},{"base_weights":[9.657253E-5,-1.113161E-2,1.5757549E-1,2.6441867E-2,-2.5221806E-2,-1.1702177E-2,4.8927084E-2,-8.1226714E-2,-1.3785841E-2,8.136237E-2,-6.4688034E-2,-1.3196229E-2,1.164051E-1,-1.8345164E-2,-9.912145E-2,-1.4672667E-3,-5.6874126E-2,2.2963888E-3,-1.7731037E-2,-8.05825E-2,4.346039E-3,5.3577395E-3,-4.4917422E-3],"categories":[],"categories_nodes":[],"categories_segments":[],"categories_sizes":[],"default_left":[1,1,0,1,1,1,1,1,1,0,0,0,0,0,0,1,1,1,0,0,0,0,0],"id":42,"left_children":[1,3,-1,5,7,9,11,13,15,-1,-1,-1,-1,-1,-1,17,19,21,-1,-1,-1,-1,-1],"loss_changes":[6.2507086E-2,1.8140843E-2,0E0,8.711806E-3,1.4582031E-2,2.6597321E-2,2.7372975E-2,2.6294626E-3,1.1362046E-2,0E0,0E0,0E0,0E0,0E0,0E0,1.1300087E-3,7.2701564E-3,3.4277543E-4,0E0,0E0,0E0,0E0,0E0],"parents":[2147483647,0,0,1,1,3,3,4,4,5,5,6,6,7,7,8,8,15,15,16,16,17,17],"right_children":[2,4,-1,6,8,10,12,14,16,-1,-1,-1,-1,-1,-1,18,20,22,-1,-1,-1,-1,-1],"split_conditions":[8.9444447E-1,6.8115944E-1,4.727265E-2,4.5299146E-1,7.7225673E-1,5E-1,5E-1,7.5595236E-1,8.4962404E-1,2.4408711E-2,-1.9406412E-2,-3.958869E-3,3.492153E-2,-5.5035492E-3,-2.9736437E-2,8.301436E-1,5E-1,5E-1,-5.3193113E-3,-2.4174752E-2,1.3038118E-3,1.6073219E-3,-1.3475227E-3],"split_indices":[0,0,0,0,0,2,2,0,0,0,0,0,0,0,0,0,2,2,0,0,0,0,0],"split_type":[0,0,0,0,0,0,0,0,0,0,0,0,0,0,0,0,0,0,0,0,0,0,0],"sum_hessian":[3.3358643E1,3.2005947E1,1.3526974E0,8.489881E0,2.3516066E1,3.326444E0,5.1634364E0,2.9527817E0,2.0563284E1,1.0125133E0,2.3139305E0,3.107223E0,2.0562134E0,1.1027884E0,1.8499933E0,1.6795614E1,3.7676704E0,1.4336709E1,2.4589043E0,2.487916E0,1.2797543E0,1.0025893E1,4.310816E0],"tree_param":{"num_deleted":"0","num_feature":"3","num_nodes":"23","size_leaf_vector":"0"}},{"base_weights":[7.279034E-4,1.238817E-2,-1.298878E-1,-4.634888E-2,3.7458323E-2,2.4265649E-2,-2.4718462E-1,1.4841674E-1,1.4251301E-2,-6.9304896E-3,4.6390686E-2,-1.0661506E-2,1.1223686E-1,6.885907E-2,-5.0609276E-2,8.2307905E-2,8.1448825E-3,-3.901628E-4,-3.817821E-2,-7.7424026E-3,1.5829349E-2],"categories":[],"categories_nodes":[],"categories_segments":[],"categories_sizes":[],"default_left":[1,1,0,1,1,1,0,0,1,1,1,1,0,0,0,0,0,1,0,0,0],"id":43,"left_children":[1,3,-1,5,7,9,-1,-1,11,13,15,17,-1,-1,-1,-1,-1,19,-1,-1,-1],"loss_changes":[5.385342E-2,4.945382E-2,0E0,1.4981088E-1,5.7790726E-2,6.128455E-3,0E0,0E0,5.086413E-2,1.7921552E-2,6.2697716E-3,4.828092E-3,0E0,0E0,0E0,0E0,0E0,1.730991E-3,0E0,0E0,0E0],"parents":[2147483647,0,0,1,1,3,3,4,4,5,5,8,8,9,9,10,10,11,11,17,17],"right_children":[2,4,-1,6,8,10,-1,-1,12,14,16,18,-1,-1,-1,-1,-1,20,-1,-1,-1],"split_conditions":[8.63354E-1,7.434211E-1,-3.8966343E-2,5.52381E-1,7.9130435E-1,4.5299146E-1,-7.415539E-2,4.4525024E-2,8.4962404E-1,5E-1,4.8076922E-1,5E-1,3.367106E-2,2.0657722E-2,-1.5182783E-2,2.4692373E-2,2.443465E-3,8.090909E-1,-1.1453463E-2,-2.3227208E-3,4.748805E-3],"split_indices":[0,0,0,0,0,0,0,0,0,2,0,2,0,0,0,0,0,0,0,0,0],"split_type":[0,0,0,0,0,0,0,0,0,0,0,0,0,0,0,0,0,0,0,0,0],"sum_hessian":[3.330326E1,3.1404854E1,1.8984044E0,9.140573E0,2.2264282E1,7.4132314E0,1.7273408E0,2.9178753E0,1.9346407E1,3.3610017E0,4.05223E0,1.6135223E1,3.2111838E0,1.0180454E0,2.3429563E0,1.4956063E0,2.5566235E0,1.2487944E1,3.647279E0,8.952473E0,3.5354712E0],"tree_param":{"num_deleted":"0","num_feature":"3","num_nodes":"21","size_leaf_vector":"0"}},{"base_weights":[1.9194745E-4,-1.0708714E-2,1.5354098E-1,2.7762882E-2,-2.5254017E-2,2.9345988E-3,9.3364716E-2,-8.0311365E-2,-1.4064944E-2,2.6077226E-2,-4.230725E-2,-2.2066075E-3,-1.0810515E-1,-4.1485688E-4,-6.272865E-2,-5.884952E-2,8.5376635E-2,3.4207879E-3,-1.7320901E-2,-8.7821744E-2,4.1155587E-3,5.3264983E-3,-1.1563317E-3],"categories":[],"categories_nodes":[],"categories_segments":[],"categories_sizes":[],"default_left":[1,1,0,1,1,1,0,1,1,1,0,0,0,1,1,0,0,1,0,0,0,0,0],"id":44,"left_children":[1,3,-1,5,7,9,-1,11,13,15,-1,-1,-1,17,19,-1,-1,21,-1,-1,-1,-1,-1],"loss_changes":[5.8986906E-2,1.91461E-2,0E0,1.5231304E-2,1.3928031E-2,9.414828E-3,0E0,8.26253E-3,1.427325E-2,3.4588967E-2,0E0,0E0,0E0,1.2146495E-3,8.25965E-3,0E0,0E0,1.4012048E-4,0E0,0E0,0E0,0E0,0E0],"parents":[2147483647,0,0,1,1,3,3,4,4,5,5,7,7,8,8,9,9,13,13,14,14,17,17],"right_children":[2,4,-1,6,8,10,-1,12,14,16,-1,-1,-1,18,20,-1,-1,22,-1,-1,-1,-1,-1],"split_conditions":[8.9444447E-1,6.8115944E-1,4.6062298E-2,5.1666665E-1,7.7225673E-1,4.8076922E-1,2.8009417E-2,7.5595236E-1,8.4962404E-1,5E-1,-1.2692176E-2,-6.619823E-4,-3.2431547E-2,8.301436E-1,5E-1,-1.7654857E-2,2.5612991E-2,5E-1,-5.1962705E-3,-2.6346525E-2,1.2346676E-3,1.5979495E-3,-3.4689953E-4],"split_indices":[0,0,0,0,0,0,0,0,0,2,0,0,0,0,2,0,0,2,0,0,0,0,0],"split_type":[0,0,0,0,0,0,0,0,0,0,0,0,0,0,0,0,0,0,0,0,0,0,0],"sum_hessian":[3.3303947E1,3.1962118E1,1.3418272E0,8.519568E0,2.344255E1,6.9383492E0,1.5812192E0,2.9160533E0,2.0526497E1,4.8705263E0,2.0678232E0,1.0486315E0,1.8674217E0,1.6817688E1,3.708808E0,2.0056639E0,2.8648622E0,1.435784E1,2.4598489E0,2.468365E0,1.240443E0,1.0021576E1,4.336264E0],"tree_param":{"num_deleted":"0","num_feature":"3","num_nodes":"23","size_leaf_vector":"0"}},{"base_weights":[4.0999992E-4,1.1661106E-2,-1.2641092E-1,-4.2241026E-2,3.452345E-2,1.8017061E-2,-2.1373121E-1,1.2953222E-1,1.4386321E-2,4.3440238E-2,-1.5051919E-2,-1.5197805E-2,1.0091613E-1,-4.7098015E-2,1.19829915E-1,-5.8167204E-2,6.1959274E-2,-3.2840343E-4,-6.779855E-2,-7.0891925E-3,1.460013E-2],"categories":[],"categories_nodes":[],"categories_segments":[],"categories_sizes":[],"default_left":[1,1,0,1,1,1,0,0,1,1,1,1,0,0,0,0,0,1,0,0,0],"id":45,"left_children":[1,3,-1,5,7,9,-1,-1,11,13,15,17,-1,-1,-1,-1,-1,19,-1,-1,-1],"loss_changes":[5.028511E-2,4.1307293E-2,0E0,1.0801714E-1,4.2630054E-2,7.7003506E-3,0E0,0E0,5.3535383E-2,4.019621E-2,1.816586E-2,1.2497722E-2,0E0,0E0,0E0,0E0,0E0,1.4644668E-3,0E0,0E0,0E0],"parents":[2147483647,0,0,1,1,3,3,4,4,5,5,8,8,9,9,10,10,11,11,17,17],"right_children":[2,4,-1,6,8,10,-1,-1,12,14,16,18,-1,-1,-1,-1,-1,20,-1,-1,-1],"split_conditions":[8.63354E-1,7.434211E-1,-3.7923276E-2,5.52381E-1,7.9130435E-1,5E-1,-6.411937E-2,3.8859665E-2,5E-1,4.8076922E-1,4.4505495E-1,8.4962404E-1,3.027484E-2,-1.4129405E-2,3.5948977E-2,-1.7450161E-2,1.8587783E-2,8.090909E-1,-2.0339565E-2,-2.1267578E-3,4.380039E-3],"split_indices":[0,0,0,0,0,2,0,0,2,0,0,0,0,0,0,0,0,0,0,0,0],"split_type":[0,0,0,0,0,0,0,0,0,0,0,0,0,0,0,0,0,0,0,0,0],"sum_hessian":[3.320832E1,3.1336323E1,1.871998E0,9.080282E0,2.225604E1,7.3815107E0,1.6987712E0,2.9421601E0,1.931388E1,3.9958825E0,3.3856285E0,1.5007315E1,4.3065658E0,2.0040734E0,1.991809E0,2.3273408E0,1.0582875E0,1.2484411E1,2.5229034E0,8.954328E0,3.5300841E0],"tree_param":{"num_deleted":"0","num_feature":"3","num_nodes":"21","size_leaf_vector":"0"}},{"base_weights":[-5.1835756E-4,-1.1116931E-2,1.4957367E-1,2.6158622E-2,-2.734864E-2,-3.762381E-2,2.1170469E-1,6.664112E-3,-1.06335014E-1,3.0125836E-2,-1.3096984E-1,1.3244012E-1,-1.1712637E-2,-2.499965E-1,-2.9649023E-2,-3.7692774E-2,7.537132E-2,5.183088E-3,-4.0654927E-2,-3.9709173E-2,4.657663E-3,-5.1728687E-3,5.279615E-2,-1.6733864E-2,-5.247349E-2],"categories":[],"categories_nodes":[],"categories_segments":[],"categories_sizes":[],"default_left":[1,1,0,1,1,1,0,1,1,1,0,0,1,0,1,0,0,1,1,0,0,0,0,0,0],"id":46,"left_children":[1,3,-1,5,7,9,-1,11,13,15,-1,-1,17,-1,19,-1,-1,21,23,-1,-1,-1,-1,-1,-1],"loss_changes":[5.6219786E-2,2.0660684E-2,0E0,1.3236074E-1,6.371805E-2,5.878462E-2,0E0,4.161893E-2,7.10116E-2,2.075344E-2,0E0,0E0,8.056255E-3,0E0,2.1783155E-3,0E0,0E0,5.7054423E-3,8.2577765E-4,0E0,0E0,0E0,0E0,0E0,0E0],"parents":[2147483647,0,0,1,1,3,3,4,4,5,5,7,7,8,8,9,9,12,12,14,14,17,17,18,18],"right_children":[2,4,-1,6,8,10,-1,12,14,16,-1,-1,18,-1,20,-1,-1,22,24,-1,-1,-1,-1,-1,-1],"split_conditions":[8.9444447E-1,7.5595236E-1,4.48721E-2,6.168478E-1,5E-1,4.8076922E-1,6.351141E-2,7.809524E-1,8.090909E-1,5E-1,-3.9290953E-2,3.973204E-2,8.301436E-1,-7.499895E-2,8.3766234E-1,-1.1307833E-2,2.2611396E-2,8.090909E-1,8.4962404E-1,-1.1912753E-2,1.3972989E-3,-1.5518607E-3,1.5838847E-2,-5.0201593E-3,-1.5742047E-2],"split_indices":[0,0,0,0,2,0,0,0,0,2,0,0,0,0,0,0,0,0,0,0,0,0,0,0,0],"split_type":[0,0,0,0,0,0,0,0,0,0,0,0,0,0,0,0,0,0,0,0,0,0,0,0,0],"sum_hessian":[3.3296143E1,3.196491E1,1.3312324E0,9.511198E0,2.2453712E1,7.6713557E0,1.8398421E0,1.6335167E1,6.118545E0,4.837565E0,2.8337908E0,1.2911574E0,1.5044009E1,1.3428617E0,4.7756834E0,2.0026753E0,2.8348894E0,1.0017173E1,5.026837E0,3.5710318E0,1.2046517E0,8.959759E0,1.0574132E0,2.461201E0,2.5656362E0],"tree_param":{"num_deleted":"0","num_feature":"3","num_nodes":"25","size_leaf_vector":"0"}},{"base_weights":[4.3690728E-4,1.1304718E-2,-1.23204485E-1,-4.7198394E-3,1.1890398E-1,2.9190518E-2,-1.996995E-2,6.128532E-3,8.8558726E-2,-9.709462E-2,-1.9491817E-3,2.9801115E-2,-1.9667549E-2,-2.3047715E-2,-1.156995E-1,5.4075937E-3,-1.1426257E-2,-3.0165073E-2,8.9850925E-2,-6.1914448E-2,5.8345422E-2,1.0295763E-2,-3.0328901E-2],"categories":[],"categories_nodes":[],"categories_segments":[],"categories_sizes":[],"default_left":[1,1,0,1,0,1,1,1,0,1,1,1,1,0,0,0,1,0,0,0,0,0,0],"id":47,"left_children":[1,3,-1,5,-1,7,9,11,-1,13,15,17,19,-1,-1,-1,21,-1,-1,-1,-1,-1,-1],"loss_changes":[4.7338624E-2,5.633405E-2,0E0,1.5639607E-2,0E0,1.2379497E-2,2.8549014E-2,5.3931884E-3,0E0,2.7004406E-3,1.301525E-3,1.8923663E-2,1.8013233E-2,0E0,0E0,0E0,3.6349199E-3,0E0,0E0,0E0,0E0,0E0,0E0],"parents":[2147483647,0,0,1,1,3,3,5,5,6,6,7,7,9,9,10,10,11,11,12,12,16,16],"right_children":[2,4,-1,6,-1,8,10,12,-1,14,16,18,20,-1,-1,-1,22,-1,-1,-1,-1,-1,-1],"split_conditions":[8.63354E-1,8.4962404E-1,-3.6961347E-2,6.8115944E-1,3.5671197E-2,5.1666665E-1,7.7225673E-1,5E-1,2.656762E-2,7.5595236E-1,8.090909E-1,4.8076922E-1,4.4505495E-1,-6.914315E-3,-3.4709852E-2,1.6222781E-3,5E-1,-9.049522E-3,2.6955279E-2,-1.8574335E-2,1.7503627E-2,3.088729E-3,-9.09867E-3],"split_indices":[0,0,0,0,0,0,0,2,0,0,0,0,0,0,0,0,2,0,0,0,0,0,0],"split_type":[0,0,0,0,0,0,0,0,0,0,0,0,0,0,0,0,0,0,0,0,0,0,0],"sum_hessian":[3.319323E1,3.134651E1,1.8467219E0,2.8115461E1,3.231048E0,8.438151E0,1.9677309E1,6.8719316E0,1.5662194E0,2.8958442E0,1.6781466E1,3.5024974E0,3.3694344E0,1.0310589E0,1.8647854E0,9.689328E0,7.092138E0,2.001475E0,1.5010223E0,2.3196275E0,1.0498068E0,3.511833E0,3.5803049E0],"tree_param":{"num_deleted":"0","num_feature":"3","num_nodes":"23","size_leaf_vector":"0"}},{"base_weights":[2.528693E-4,-1.0057562E-2,1.4570847E-1,2.505271E-2,-2.3282466E-2,6.4561125E-3,7.259868E-2,-7.9701915E-2,-1.2071187E-2,3.2356996E-2,-4.4615887E-2,-1.956973E-2,-9.4661206E-2,-1.6087717E-3,-4.9148154E-2,-2.4140384E-2,6.832511E-2,1.6041131E-3,-1.5345247E-2,-6.748814E-2,3.3551792E-3,3.9388495E-3,-3.1150368E-3],"categories":[],"categories_nodes":[],"categories_segments":[],"categories_sizes":[],"default_left":[1,1,0,1,1,1,0,1,1,1,0,0,0,1,1,0,0,1,0,0,0,0,0],"id":48,"left_children":[1,3,-1,5,7,9,-1,11,13,15,-1,-1,-1,17,19,-1,-1,21,-1,-1,-1,-1,-1],"loss_changes":[5.2589532E-2,1.5798593E-2,0E0,7.884591E-3,1.4421723E-2,1.1878965E-2,0E0,1.6136337E-3,8.248561E-3,1.34637905E-2,0E0,0E0,0E0,8.0917816E-4,4.7432035E-3,0E0,0E0,1.809828E-4,0E0,0E0,0E0,0E0,0E0],"parents":[2147483647,0,0,1,1,3,3,4,4,5,5,7,7,8,8,9,9,13,13,14,14,17,17],"right_children":[2,4,-1,6,8,10,-1,12,14,16,-1,-1,-1,18,20,-1,-1,22,-1,-1,-1,-1,-1],"split_conditions":[8.9444447E-1,6.8115944E-1,4.371254E-2,5.1666665E-1,7.7225673E-1,4.8076922E-1,2.1779604E-2,7.5595236E-1,8.4962404E-1,5E-1,-1.3384767E-2,-5.870919E-3,-2.8398363E-2,8.301436E-1,5E-1,-7.2421157E-3,2.0497534E-2,8.090909E-1,-4.6035745E-3,-2.0246442E-2,1.0065538E-3,1.1816549E-3,-9.345111E-4],"split_indices":[0,0,0,0,0,0,0,0,0,2,0,0,0,0,2,0,0,0,0,0,0,0,0],"split_type":[0,0,0,0,0,0,0,0,0,0,0,0,0,0,0,0,0,0,0,0,0,0,0],"sum_hessian":[3.3089294E1,3.1768295E1,1.3209995E0,8.447365E0,2.332093E1,6.8887596E0,1.5586054E0,2.8532426E0,2.0467688E1,4.813874E0,2.074886E0,1.0282328E0,1.8250097E0,1.6776945E1,3.6907442E0,2.0004616E0,2.813412E0,1.4312543E1,2.4644015E0,2.5237603E0,1.1669838E0,9.685914E0,4.626629E0],"tree_param":{"num_deleted":"0","num_feature":"3","num_nodes":"23","size_leaf_vector":"0"}},{"base_weights":[4.4708172E-4,1.1005639E-2,-1.2011576E-1,-2.9737446E-3,1.0545941E-1,-4.3819513E-2,1.763359E-2,1.8284457E-2,-2.2167282E-1,1.3642985E-1,-1.0313064E-2,5.2659925E-2,-2.5387822E-2,-1.0973617E-3,-3.480631E-2,-1.9318376E-2,1.0715068E-1,-6.331234E-2,4.893629E-2,-6.300799E-3,1.06273955E-2],"categories":[],"categories_nodes":[],"categories_segments":[],"categories_sizes":[],"default_left":[1,1,0,1,0,1,1,1,0,0,1,1,1,1,0,0,0,0,0,0,0],"id":49,"left_children":[1,3,-1,5,-1,7,9,11,-1,-1,13,15,17,19,-1,-1,-1,-1,-1,-1,-1],"loss_changes":[4.461156E-2,4.281014E-2,0E0,2.5189172E-2,0E0,1.1466441E-1,6.7784645E-2,1.3866739E-2,0E0,0E0,3.8251677E-3,2.166305E-2,1.5361726E-2,8.8868395E-4,0E0,0E0,0E0,0E0,0E0,0E0,0E0],"parents":[2147483647,0,0,1,1,3,3,5,5,6,6,7,7,10,10,11,11,12,12,13,13],"right_children":[2,4,-1,6,-1,8,10,12,-1,-1,14,16,18,20,-1,-1,-1,-1,-1,-1,-1],"split_conditions":[8.63354E-1,8.4962404E-1,-3.603473E-2,7.434211E-1,3.1637825E-2,5.52381E-1,7.9130435E-1,5E-1,-6.650185E-2,4.0928956E-2,5E-1,4.8076922E-1,4.4505495E-1,8.090909E-1,-1.0441894E-2,-5.795513E-3,3.2145206E-2,-1.8993702E-2,1.4680888E-2,-1.8902398E-3,3.1882187E-3],"split_indices":[0,0,0,0,0,0,0,2,0,0,2,0,0,0,0,0,0,0,0,0,0],"split_type":[0,0,0,0,0,0,0,0,0,0,0,0,0,0,0,0,0,0,0,0,0],"sum_hessian":[3.3006786E1,3.1184452E1,1.8223329E0,2.8007753E1,3.1766984E0,9.014239E0,1.8993515E1,7.346229E0,1.6680104E0,2.877972E0,1.6115541E1,3.995489E0,3.35074E0,1.2468872E1,3.6466708E0,1.9996164E0,1.9958725E0,2.3167548E0,1.0339851E0,8.956564E0,3.5123081E0],"tree_param":{"num_deleted":"0","num_feature":"3","num_nodes":"21","size_leaf_vector":"0"}},{"base_weights":[-1.7219312E-4,-1.0209858E-2,1.4195871E-1,2.4921786E-2,-2.347671E-2,3.598767E-3,8.038468E-2,-7.896713E-2,-1.2490265E-2,3.3551518E-2,-5.4014813E-2,-4.5821918E-4,-5.60285E-2,-1.5459224E-2,6.341558E-2,2.706915E-3,-1.4328127E-2,-7.6120995E-2,3.2072864E-3,3.695205E-3,1.6336748E-4],"categories":[],"categories_nodes":[],"categories_segments":[],"categories_sizes":[],"default_left":[1,1,0,1,1,1,0,0,1,1,0,1,1,0,0,1,0,0,0,0,0],"id":50,"left_children":[1,3,-1,5,7,9,-1,-1,11,13,-1,15,17,-1,-1,19,-1,-1,-1,-1,-1],"loss_changes":[4.9983587E-2,1.5829949E-2,0E0,1.0887761E-2,1.3801955E-2,1.5399199E-2,0E0,0E0,1.1203791E-2,9.465268E-3,0E0,8.203444E-4,5.758456E-3,0E0,0E0,3.7948354E-5,0E0,0E0,0E0,0E0,0E0],"parents":[2147483647,0,0,1,1,3,3,4,4,5,5,8,8,9,9,11,11,12,12,15,15],"right_children":[2,4,-1,6,8,10,-1,-1,12,14,-1,16,18,-1,-1,20,-1,-1,-1,-1,-1],"split_conditions":[8.9444447E-1,6.8115944E-1,4.2587616E-2,5.1666665E-1,7.7225673E-1,4.8076922E-1,2.4115404E-2,-2.369014E-2,8.4962404E-1,5E-1,-1.6204445E-2,8.301436E-1,5E-1,-4.637767E-3,1.9024674E-2,5E-1,-4.2984383E-3,-2.28363E-2,9.6218596E-4,1.1085615E-3,4.9010247E-5],"split_indices":[0,0,0,0,0,0,0,0,0,2,0,0,2,0,0,2,0,0,0,0,0],"split_type":[0,0,0,0,0,0,0,0,0,0,0,0,0,0,0,0,0,0,0,0,0],"sum_hessian":[3.3019405E1,3.170825E1,1.3111557E0,8.450958E0,2.3257292E1,6.8733473E0,1.5776109E0,2.821045E0,2.0436245E1,4.797052E0,2.0762959E0,1.6803127E1,3.6331182E0,1.9989182E0,2.7981336E0,1.4336379E1,2.4667482E0,2.5000591E0,1.1330591E0,9.998648E0,4.3377314E0],"tree_param":{"num_deleted":"0","num_feature":"3","num_nodes":"21","size_leaf_vector":"0"}},{"base_weights":[4.0685927E-4,1.0634975E-2,-1.1719873E-1,-1.9490798E-3,9.6235566E-2,-3.875044E-2,1.6464906E-2,1.2860191E-2,-1.8747704E-1,1.184357E-1,-7.784596E-3,4.6434335E-2,-2.8783338E-2,-7.049319E-4,-2.660118E-2,-1.2370711E-2,8.972151E-2,-6.333486E-2,4.211583E-2,-5.5964584E-3,1.0252155E-2],"categories":[],"categories_nodes":[],"categories_segments":[],"categories_sizes":[],"default_left":[1,1,0,1,0,1,1,1,0,0,1,1,1,1,0,0,0,0,0,0,0],"id":51,"left_children":[1,3,-1,5,-1,7,9,11,-1,-1,13,15,17,19,-1,-1,-1,-1,-1,-1,-1],"loss_changes":[4.207476E-2,3.481223E-2,0E0,2.0292584E-2,0E0,7.894494E-2,5.0458077E-2,1.2994105E-2,0E0,0E0,2.2622198E-3,1.383452E-2,1.32966E-2,7.792537E-4,0E0,0E0,0E0,0E0,0E0,0E0,0E0],"parents":[2147483647,0,0,1,1,3,3,5,5,6,6,7,7,10,10,11,11,12,12,13,13],"right_children":[2,4,-1,6,-1,8,10,12,-1,-1,14,16,18,20,-1,-1,-1,-1,-1,-1,-1],"split_conditions":[8.63354E-1,8.4962404E-1,-3.515962E-2,7.434211E-1,2.887067E-2,5.52381E-1,7.9130435E-1,5E-1,-5.6243114E-2,3.5530712E-2,5E-1,4.8076922E-1,4.4505495E-1,8.090909E-1,-7.980354E-3,-3.7112136E-3,2.6916454E-2,-1.900046E-2,1.26347495E-2,-1.6789376E-3,3.0756467E-3],"split_indices":[0,0,0,0,0,0,0,2,0,0,2,0,0,0,0,0,0,0,0,0,0],"split_type":[0,0,0,0,0,0,0,0,0,0,0,0,0,0,0,0,0,0,0,0,0],"sum_hessian":[3.294207E1,3.1143133E1,1.7989361E0,2.8003586E1,3.1395476E0,8.9707155E0,1.903287E1,7.337879E0,1.6328363E0,2.9103987E0,1.612247E1,3.9988525E0,3.3390267E0,1.2468654E1,3.6538174E0,1.9983451E0,2.0005074E0,2.3167088E0,1.022318E0,8.95856E0,3.510094E0],"tree_param":{"num_deleted":"0","num_feature":"3","num_nodes":"21","size_leaf_vector":"0"}},{"base_weights":[-1.8432754E-4,-9.940608E-3,1.3832125E-1,2.5147555E-2,-2.5188738E-2,-3.9269403E-2,2.1698941E-1,-1.246012E-3,-8.063375E-2,3.4050155E-2,-1.3942452E-1,1.14756905E-1,-1.7972665E-2,-2.329968E-1,-5.1287874E-3,-9.898989E-3,5.985157E-2,-3.88718E-4,-8.070795E-2,-8.020705E-3,3.6425095E-3,3.7668603E-3,-1.3450007E-2],"categories":[],"categories_nodes":[],"categories_segments":[],"categories_sizes":[],"default_left":[1,1,0,1,1,1,0,1,1,1,0,0,1,0,1,0,0,1,0,0,0,0,0],"id":52,"left_children":[1,3,-1,5,7,9,-1,11,13,15,-1,-1,17,-1,19,-1,-1,21,-1,-1,-1,-1,-1],"loss_changes":[4.7263462E-2,1.8105919E-2,0E0,1.3695714E-1,3.0782636E-2,6.810029E-2,0E0,3.5559494E-2,7.934054E-2,7.1519706E-3,0E0,0E0,1.7566383E-2,0E0,1.7388717E-4,0E0,0E0,7.815034E-4,0E0,0E0,0E0,0E0,0E0],"parents":[2147483647,0,0,1,1,3,3,4,4,5,5,7,7,8,8,9,9,12,12,14,14,17,17],"right_children":[2,4,-1,6,8,10,-1,12,14,16,-1,-1,18,-1,20,-1,-1,22,-1,-1,-1,-1,-1],"split_conditions":[8.9444447E-1,7.5595236E-1,4.1496377E-2,6.168478E-1,5E-1,4.8076922E-1,6.5096825E-2,7.809524E-1,8.090909E-1,5E-1,-4.182736E-2,3.4427073E-2,8.4962404E-1,-6.9899045E-2,8.3766234E-1,-2.969697E-3,1.795547E-2,8.301436E-1,-2.4212386E-2,-2.4062116E-3,1.0927529E-3,1.1300582E-3,-4.035002E-3],"split_indices":[0,0,0,0,2,0,0,0,0,2,0,0,0,0,0,0,0,0,0,0,0,0,0],"split_type":[0,0,0,0,0,0,0,0,0,0,0,0,0,0,0,0,0,0,0,0,0,0,0],"sum_hessian":[3.295877E1,3.1657087E1,1.3016837E0,9.393062E0,2.2264025E1,7.6272693E0,1.7657931E0,1.6263472E1,6.0005536E0,4.7846465E0,2.8426228E0,1.3109602E0,1.4952511E1,1.2971534E0,4.7034E0,1.9978775E0,2.786769E0,1.2464935E1,2.4875755E0,3.6015382E0,1.1018621E0,9.99616E0,2.4687757E0],"tree_param":{"num_deleted":"0","num_feature":"3","num_nodes":"23","size_leaf_vector":"0"}},{"base_weights":[3.314176E-4,1.024579E-2,-1.1444924E-1,-1.3804709E-3,8.9722626E-2,-3.2432497E-2,1.4129933E-2,1.8749965E-2,-1.8251374E-1,9.5048435E-2,-5.174323E-3,5.5103533E-2,-2.7408745E-2,-4.8665123E-4,-1.7619492E-2,-7.921133E-3,9.973502E-2,-6.257542E-2,4.3843407E-2,-5.1018125E-3,9.818648E-3],"categories":[],"categories_nodes":[],"categories_segments":[],"categories_sizes":[],"default_left":[1,1,0,1,0,1,1,1,0,0,1,1,1,1,0,0,0,0,0,0,0],"id":53,"left_children":[1,3,-1,5,-1,7,9,11,-1,-1,13,15,17,19,-1,-1,-1,-1,-1,-1,-1],"loss_changes":[3.973692E-2,2.9795785E-2,0E0,1.4424885E-2,0E0,7.995478E-2,3.1788647E-2,1.5498992E-2,0E0,0E0,9.904632E-4,1.484225E-2,1.3619972E-2,6.906245E-4,0E0,0E0,0E0,0E0,0E0,0E0,0E0],"parents":[2147483647,0,0,1,1,3,3,5,5,6,6,7,7,10,10,11,11,12,12,13,13],"right_children":[2,4,-1,6,-1,8,10,12,-1,-1,14,16,18,20,-1,-1,-1,-1,-1,-1,-1],"split_conditions":[8.63354E-1,8.4962404E-1,-3.4334775E-2,7.434211E-1,2.6916789E-2,5.52381E-1,7.9130435E-1,5E-1,-5.4754127E-2,2.8514532E-2,5E-1,4.8076922E-1,4.4505495E-1,8.090909E-1,-5.285848E-3,-2.37634E-3,2.9920507E-2,-1.8772628E-2,1.3153023E-2,-1.5305438E-3,2.9455945E-3],"split_indices":[0,0,0,0,0,0,0,2,0,0,2,0,0,0,0,0,0,0,0,0,0],"split_type":[0,0,0,0,0,0,0,0,0,0,0,0,0,0,0,0,0,0,0,0,0],"sum_hessian":[3.2888428E1,3.1111828E1,1.7766005E0,2.7998674E1,3.1131527E0,8.963206E0,1.903547E1,7.3363476E0,1.626859E0,2.91073E0,1.6124739E1,3.995666E0,3.3406813E0,1.2467688E1,3.6570504E0,1.9974973E0,1.9981687E0,2.3182688E0,1.0224125E0,8.959961E0,3.5077271E0],"tree_param":{"num_deleted":"0","num_feature":"3","num_nodes":"21","size_leaf_vector":"0"}},{"base_weights":[-2.0183518E-4,-9.689553E-3,1.3481656E-1,3.0700663E-2,-2.5071718E-2,6.385263E-3,9.291382E-2,-1.0236572E-1,-1.0140978E-2,3.3941504E-2,-4.7209382E-2,3.5144878E-3,-6.129848E-2,-6.3383086E-3,5.6917347E-2,6.9474955E-3,-1.26676895E-2,-8.276766E-2,4.3403925E-3,3.5350448E-3,1.21922325E-2],"categories":[],"categories_nodes":[],"categories_segments":[],"categories_sizes":[],"default_left":[1,1,0,1,1,1,0,0,1,1,0,1,1,0,0,1,0,0,0,0,0],"id":54,"left_children":[1,3,-1,5,7,9,-1,-1,11,13,-1,15,17,-1,-1,19,-1,-1,-1,-1,-1],"loss_changes":[4.472949E-2,2.1026727E-2,0E0,1.3690032E-2,2.6847132E-2,1.3214245E-2,0E0,0E0,1.5137724E-2,5.7047564E-3,0E0,1.077203E-3,6.7778733E-3,0E0,0E0,2.3136672E-4,0E0,0E0,0E0,0E0,0E0],"parents":[2147483647,0,0,1,1,3,3,4,4,5,5,8,8,9,9,11,11,12,12,15,15],"right_children":[2,4,-1,6,8,10,-1,-1,12,14,-1,16,18,-1,-1,20,-1,-1,-1,-1,-1],"split_conditions":[8.9444447E-1,6.8115944E-1,4.044497E-2,5.1666665E-1,7.7225673E-1,4.8076922E-1,2.7874148E-2,-3.0709716E-2,8.4962404E-1,5E-1,-1.4162815E-2,8.301436E-1,5E-1,-1.9014926E-3,1.7075205E-2,8.090909E-1,-3.800307E-3,-2.4830298E-2,1.3021178E-3,1.0605135E-3,3.65767E-3],"split_indices":[0,0,0,0,0,0,0,0,0,2,0,0,2,0,0,0,0,0,0,0,0],"split_type":[0,0,0,0,0,0,0,0,0,0,0,0,0,0,0,0,0,0,0,0,0],"sum_hessian":[3.289744E1,3.160481E1,1.292629E0,8.442026E0,2.3162785E1,6.8625154E0,1.5795112E0,2.801879E0,2.0360907E1,4.7744055E0,2.08811E0,1.6806145E1,3.5547614E0,1.9971894E0,2.777216E0,1.4335562E1,2.470583E0,2.4819949E0,1.0727665E0,9.698997E0,4.636565E0],"tree_param":{"num_deleted":"0","num_feature":"3","num_nodes":"21","size_leaf_vector":"0"}},{"base_weights":[3.7384496E-4,1.000902E-2,-1.11877374E-1,-1.1851454E-2,5.1463146E-2,9.966205E-2,-2.2027388E-2,-1.1401728E-1,1.4337596E-1,-1.0019656E-1,-5.9713155E-4,4.469793E-1,1.3397435E-2,9.543054E-2,-1.4561086E-2,-2.073981E-1,1.0674903E-1,-5.2128354E-4,-6.393651E-2],"categories":[],"categories_nodes":[],"categories_segments":[],"categories_sizes":[],"default_left":[1,1,0,1,1,0,1,0,1,0,1,0,1,0,1,0,0,0,0],"id":55,"left_children":[1,3,-1,5,7,-1,9,-1,11,-1,13,-1,15,-1,17,-1,-1,-1,-1],"loss_changes":[3.7693612E-2,2.9663393E-2,0E0,2.693735E-2,1.8755834E-1,0E0,3.478335E-2,0E0,2.970779E-1,0E0,2.4628159E-2,0E0,1.5423068E-1,0E0,1.1056624E-2,0E0,0E0,0E0,0E0],"parents":[2147483647,0,0,1,1,3,3,4,4,6,6,8,8,10,10,12,12,14,14],"right_children":[2,4,-1,6,8,-1,10,-1,12,-1,14,-1,16,-1,18,-1,-1,-1,-1],"split_conditions":[8.63354E-1,5E-1,-3.3563215E-2,4.5299146E-1,6.168478E-1,2.9898616E-2,7.4937344E-1,-3.4205183E-2,7.5595236E-1,-3.005897E-2,7.809524E-1,1.340938E-1,8.090909E-1,2.8629163E-2,8.4962404E-1,-6.2219433E-2,3.202471E-2,-1.5638507E-4,-1.9180954E-2],"split_indices":[0,2,0,0,0,0,0,0,0,0,0,0,0,0,0,0,0,0,0],"split_type":[0,0,0,0,0,0,0,0,0,0,0,0,0,0,0,0,0,0,0],"sum_hessian":[3.281581E1,3.106054E1,1.7552729E0,2.0803894E1,1.0256645E1,1.0043019E0,1.9799591E1,3.5766778E0,6.679968E0,3.4693372E0,1.6330254E1,1.2713896E0,5.408578E0,1.332541E0,1.4997713E1,1.2441714E0,4.164407E0,1.2464123E1,2.5335906E0],"tree_param":{"num_deleted":"0","num_feature":"3","num_nodes":"19","size_leaf_vector":"0"}},{"base_weights":[1.7577758E-3,-7.405138E-3,1.3144653E-1,3.4879792E-2,-2.361095E-2,1.0535028E-2,4.679149E-2,-1.00577846E-1,-9.05329E-3,8.4339485E-2,-3.6607757E-2,1.7969433E-3,9.40098E-2,6.922264E-3,-2.2848697E-2,-1.20355515E-2,-3.683595E-2,8.9111645E-3,-3.0001491E-2,-4.9508825E-2,3.3845878E-3],"categories":[],"categories_nodes":[],"categories_segments":[],"categories_sizes":[],"default_left":[1,1,0,1,1,1,1,0,1,0,0,0,0,0,1,1,1,0,0,0,0],"id":56,"left_children":[1,3,-1,5,7,9,11,-1,13,-1,-1,-1,-1,-1,15,17,19,-1,-1,-1,-1],"loss_changes":[4.114192E-2,2.3107303E-2,0E0,2.2368422E-3,2.6098227E-2,1.8338414E-2,1.2642642E-2,0E0,4.867872E-3,0E0,0E0,0E0,0E0,0E0,1.3262336E-3,3.309577E-3,2.5203708E-3,0E0,0E0,0E0,0E0],"parents":[2147483647,0,0,1,1,3,3,4,4,5,5,6,6,8,8,14,14,15,15,16,16],"right_children":[2,4,-1,6,8,10,12,-1,14,-1,-1,-1,-1,-1,16,18,20,-1,-1,-1,-1],"split_conditions":[8.9444447E-1,6.8115944E-1,3.943396E-2,4.5299146E-1,7.7225673E-1,5E-1,5E-1,-3.0173356E-2,8.090909E-1,2.5301846E-2,-1.0982327E-2,5.39083E-4,2.8202942E-2,2.0766794E-3,8.4962404E-1,5E-1,5E-1,2.6733493E-3,-9.000448E-3,-1.4852648E-2,1.0153764E-3],"split_indices":[0,0,0,0,0,2,2,0,0,0,0,0,0,0,0,2,2,0,0,0,0],"split_type":[0,0,0,0,0,0,0,0,0,0,0,0,0,0,0,0,0,0,0,0,0],"sum_hessian":[3.28026E1,3.1518614E1,1.2839875E0,8.413481E0,2.3105133E1,3.383274E0,5.030206E0,2.7351837E0,2.036995E1,1.011187E0,2.3720872E0,3.1073008E0,1.9229054E0,9.66999E0,1.069996E1,7.083993E0,3.615967E0,3.5033684E0,3.5806248E0,2.574004E0,1.041963E0],"tree_param":{"num_deleted":"0","num_feature":"3","num_nodes":"21","size_leaf_vector":"0"}},{"base_weights":[2.2794635E-3,1.17500685E-2,-1.0935475E-1,-1.4222772E-3,1.00518554E-1,2.9067405E-2,-1.53792435E-2,4.034828E-2,8.349462E-3,-7.95507E-2,-1.160978E-3,-1.3824356E-2,7.254083E-2,6.147597E-2,-6.2126704E-2,5.0428403E-3,-9.202429E-3,7.3879145E-2,-9.514863E-2,6.844484E-3,-2.2924881E-2],"categories":[],"categories_nodes":[],"categories_segments":[],"categories_sizes":[],"default_left":[1,1,0,1,0,1,1,1,1,0,1,1,0,0,0,0,1,0,0,0,0],"id":57,"left_children":[1,3,-1,5,-1,7,9,11,13,-1,15,17,-1,-1,-1,-1,19,-1,-1,-1,-1],"loss_changes":[3.6945745E-2,3.755464E-2,0E0,1.2722683E-2,0E0,1.8610861E-3,1.8559571E-2,1.1166716E-2,2.0953944E-2,0E0,9.3188876E-4,2.8514767E-2,0E0,0E0,0E0,0E0,1.9370117E-3,0E0,0E0,0E0,0E0],"parents":[2147483647,0,0,1,1,3,3,5,5,6,6,7,7,8,8,10,10,11,11,16,16],"right_children":[2,4,-1,6,-1,8,10,12,14,-1,16,18,-1,-1,-1,-1,20,-1,-1,-1,-1],"split_conditions":[8.63354E-1,8.4962404E-1,-3.2806426E-2,6.8115944E-1,3.0155567E-2,4.8076922E-1,7.7225673E-1,5E-1,5E-1,-2.386521E-2,8.090909E-1,4.3650794E-1,2.1762248E-2,1.8442791E-2,-1.8638011E-2,1.5128521E-3,5E-1,2.2163745E-2,-2.854459E-2,2.0533453E-3,-6.8774647E-3],"split_indices":[0,0,0,0,0,0,0,2,2,0,0,0,0,0,0,0,2,0,0,0,0],"split_type":[0,0,0,0,0,0,0,0,0,0,0,0,0,0,0,0,0,0,0,0,0],"sum_hessian":[3.2729996E1,3.099523E1,1.7347677E0,2.7846994E1,3.1482346E0,8.404439E0,1.9442556E1,4.828064E0,3.5763748E0,2.693044E0,1.6749512E1,2.0123374E0,2.8157265E0,2.1120043E0,1.4643706E0,9.665594E0,7.083918E0,1.012242E0,1.0000954E0,3.4964364E0,3.5874815E0],"tree_param":{"num_deleted":"0","num_feature":"3","num_nodes":"21","size_leaf_vector":"0"}},{"base_weights":[1.2176328E-3,-7.7517433E-3,1.2819354E-1,2.2046896E-2,-1.9106943E-2,-6.241147E-3,3.897368E-2,-6.2815174E-2,-1.0699745E-2,6.0151685E-2,-4.4378284E-2,-1.1777413E-3,8.252537E-2,-9.982781E-4,-4.6147835E-2,1.8427197E-3,-1.3220655E-2,-6.1011977E-2,2.9241333E-3,-7.1886025E-4,6.7965924E-3],"categories":[],"categories_nodes":[],"categories_segments":[],"categories_sizes":[],"default_left":[1,1,0,1,1,1,1,0,1,0,0,0,0,1,1,1,0,0,0,0,0],"id":58,"left_children":[1,3,-1,5,7,9,11,-1,13,-1,-1,-1,-1,15,17,19,-1,-1,-1,-1,-1],"loss_changes":[3.9292153E-2,1.1368184E-2,0E0,4.739833E-3,8.132746E-3,1.3753574E-2,1.0612436E-2,0E0,7.2793365E-3,0E0,0E0,0E0,0E0,6.405742E-4,3.500836E-3,1.987448E-4,0E0,0E0,0E0,0E0,0E0],"parents":[2147483647,0,0,1,1,3,3,4,4,5,5,6,6,8,8,13,13,14,14,15,15],"right_children":[2,4,-1,6,8,10,12,-1,14,-1,-1,-1,-1,16,18,20,-1,-1,-1,-1,-1],"split_conditions":[8.9444447E-1,6.8115944E-1,3.8458064E-2,4.5299146E-1,7.7225673E-1,5E-1,